tree
version=v3
num_class=2
num_tree_per_iteration=2
label_index=0
max_feature_idx=6
objective=multiclass num_class:2
feature_names=Column_0 Column_1 Column_2 Column_3 Column_4 Column_5 Column_6
feature_infos=[1080.625:1484.625] [0:810.9959716796875] [-53.5:181.66200256347656] [-0.49000000953674316:896.3790283203125] [0.39800000190734863:35.349998474121094] [0.57999998331069946:37.323001861572266] [21:41]
tree_sizes=3412 3341 3430 3424 3431 3430 3441 3426 3440 3424 3457 3447 3448 3437 3450 3431 3450 3442 3469 3452 3463 3453 3432 3457 3434 3422 3441 3437 3439 3444 3446 3449 3461 3450 3447 3454 3460 3442 3453 3441 3441 3440 3456 3448 3442 3429 3446 3450 3439 3471 3430 3435 3455 3454 3457 3451 3454 3458 3465 3447 3473 3457 3454 3450 3432 3451 3446 3459 3443 3459 3429 3452 3454 3461 3435 3426 3455 3462 3449 3466 3435 3455 3442 3459 3102 3452 3454 3313 3236 3348 2791 3463 3451 3004 3333 3222 3239 3460 3445 3447

Tree=0
num_leaves=31
num_cat=0
split_feature=3 0 4 0 0 0 0 0 3 0 0 0 3 3 3 3 0 0 0 0 3 0 1 4 0 0 1 1 4 1
split_gain=46078.6 61131.3 7366.68 5337.31 5096.8 11880.1 3950.34 1403.66 2660.97 1188.89 1012.84 865.732 501.018 490.521 489.638 461.754 510.48 400.607 314.494 344.097 255.08 246.076 223.191 217.879 181.258 145.46 116.836 115.22 84.2767 80.3737
threshold=279.99749755859381 1296.3125000000002 2.1725000143051152 1363.9375000000002 1300.3125000000002 1381.9375000000002 1310.3125000000002 1300.3125000000002 364.55551147460943 1289.3125000000002 1342.3125000000002 1375.8125000000002 155.64949798583987 451.51899719238287 351.22149658203131 219.68599700927737 1357.0625000000002 1373.6875000000002 1312.9375000000002 1384.0625000000002 151.46099853515628 1387.3125000000002 347.07450866699224 1.8684999942779543 1280.3125000000002 1306.8125000000002 379.26850891113287 406.77049255371099 1.9215000271797182 435.60549926757818
decision_type=2 2 2 2 2 2 2 2 2 2 2 2 2 2 2 2 2 2 2 2 2 2 2 2 2 2 2 2 2 2
left_child=1 9 7 6 -4 10 20 -2 18 24 14 -12 -5 23 -6 16 -8 28 -9 -20 -3 -7 -17 -10 -1 -22 -19 -11 -14 -29
right_child=2 3 4 12 5 21 15 8 13 27 11 -13 17 -15 -16 22 -18 26 19 -21 25 -23 -24 -25 -26 -27 -28 29 -30 -31
leaf_value=-0.12287104491226608 -0.12281731439916027 -0.35213286425372448 -0.12715615488449666 -0.15287757954821857 -0.32260931512886826 -0.19307998470006865 -0.4670491367760663 -0.17379688995339479 -0.14833572276485929 -0.21438176609826912 -0.39788977084703481 -0.27795530982779837 -0.2413317028284106 -0.12875329315268258 -0.22409315998118015 -0.33903796227278749 -0.33754363329498127 -0.25866446854913783 -0.24781079968783831 -0.12743563417233211 -0.27171681584002694 -0.13065567928276614 -0.42703486717773687 -0.18343092682234854 -0.15875057242529261 -0.34552046465597547 -0.15524266456034239 -0.3221435699262355 -0.35178631059443799 -0.20421504395399809
leaf_weight=11863.611676812172 45826.94662964344 1446.6667356491089 5462.7780382633209 525.55558061599731 1457.5000694990158 726.11114573478699 9983.3338093757629 975.55560207366943 7229.4447891712189 891.1111536026001 2998.0556985139847 758.88892507553101 85.555559635162354 17492.500834107399 774.44448137283325 344.16668307781219 321.94445979595184 202.77778744697571 3036.666811466217 256.11112332344055 1012.222270488739 4811.9446738958359 2385.5556693077087 2341.6667783260345 1601.6667430400848 368.61112868785858 232.50001108646393 197.77778720855713 430.83335387706757 82.500003933906555
leaf_count=42709 164977 5208 19666 1892 5247 2614 35940 3512 26026 3208 10793 2732 308 62973 2788 1239 1159 730 10932 922 3644 17323 8588 8430 5766 1327 837 712 1551 297
internal_value=-0.182322 -0.286033 -0.147096 -0.413055 -0.206705 -0.244407 -0.429985 -0.13397 -0.150285 -0.135541 -0.342008 -0.373727 -0.231176 -0.138712 -0.288494 -0.453235 -0.463034 -0.274387 -0.223653 -0.23842 -0.322682 -0.138841 -0.416063 -0.156921 -0.127135 -0.291626 -0.203551 -0.232106 -0.333784 -0.287832
internal_weight=0 31976.4 94148.6 17339.7 16989.7 11526.9 15862.5 77158.9 31331.9 14636.7 5988.89 3756.94 1477.22 27063.6 2231.94 13035 10305.3 951.667 4268.33 3292.78 2827.5 5538.06 2729.72 9571.11 13465.3 1380.83 435.278 1171.39 516.389 280.278
internal_count=454050 115115 338935 62423 61163 41497 57105 277772 112795 52692 21560 13525 5318 97429 8035 46926 37099 3426 15366 11854 10179 19937 9827 34456 48475 4971 1567 4217 1859 1009
shrinkage=1


Tree=1
num_leaves=31
num_cat=0
split_feature=3 0 5 0 0 0 0 0 0 0 3 0 5 3 2 3 0 0 0 5 5 3 2 2 0 0 3 5 0 4
split_gain=46078.6 61131.3 9483.5 5337.31 5200.48 12956.2 3950.34 1732.09 1188.89 1082.17 1963.08 1066.11 516.044 501.018 463.961 461.754 510.48 400.607 345.121 321.477 283.989 255.08 228.996 200.673 181.258 145.46 134.488 121.54 119.658 100.76
threshold=279.99749755859381 1296.3125000000002 2.4375000000000004 1363.9375000000002 1386.1875000000002 1301.3125000000002 1310.3125000000002 1377.8125000000002 1289.3125000000002 1300.3125000000002 364.55551147460943 1342.3125000000002 1.9925000071525576 155.64949798583987 39.100500106811531 219.68599700927737 1357.0625000000002 1373.6875000000002 1390.6875000000002 2.65149998664856 2.1454999446868901 151.46099853515628 28.012000083923343 37.56050109863282 1280.3125000000002 1306.8125000000002 482.29800415039068 2.3784999847412114 1380.8125000000002 3.5974999666213994
decision_type=2 2 2 2 2 2 2 2 2 2 2 2 2 2 2 2 2 2 2 2 2 2 2 2 2 2 2 2 2 2
left_child=1 8 9 6 5 -4 21 11 24 -2 14 -7 23 -5 28 16 -8 27 -14 -17 -16 22 -3 -12 -1 -23 -9 -15 -11 -19
right_child=2 3 4 13 -6 7 15 26 -10 10 12 -13 18 17 20 19 -18 29 -20 -21 -22 25 -24 -25 -26 -27 -28 -29 -30 -31
leaf_value=-1.8512099811097436 -1.8512629437143828 -1.8490459004880389 -1.8456945269634715 -1.821203446473791 -1.8412214880143583 -1.6619245176816602 -1.5070318892459431 -1.726143069038788 -1.7419749004234013 -1.6391554853328096 -1.8014476672909749 -1.5704342687097426 -1.7878257247426204 -1.7497104486658808 -1.7930384486466691 -1.6091159076113259 -1.6365373927270284 -1.7913988949951534 -1.8478928771026368 -1.5343134416197433 -1.7349537314002075 -1.7023642101819827 -1.6150491021670101 -1.8453502204346111 -1.815330453596717 -1.6285605613660341 -1.8201863330420089 -1.6186113345479294 -1.8478745763115594 -1.6601048036330208
leaf_weight=11863.611676812172 46561.668886899948 42.222224235534668 4766.3891161680222 525.55558061599731 5171.6669132709503 2078.3334324359894 9983.3338093757629 967.77782392501831 1171.3889447450638 337.22223830223083 1095.5556077957153 3338.3334925174713 3137.5001496076584 86.388893008232117 2500.0001192092896 870.55559706687927 321.94445979595184 367.77779531478882 1373.8889544010162 1859.1667553186417 1266.9445048570633 1012.222270488739 1404.4445114135742 21345.278795599937 1601.6667430400848 368.61112868785858 179.16667520999908 430.0000205039978 28.888890266418457 67.500003218650818
leaf_count=42709 167622 152 17159 1892 18618 7482 35940 3484 4217 1214 3944 12018 11295 311 9000 3134 1159 1324 4946 6693 4561 3644 5056 76843 5766 1327 645 1548 104 243
internal_value=-1.79176 -1.68805 -1.82699 -1.56103 -1.75814 -1.72022 -1.5441 -1.62911 -1.83854 -1.84162 -1.82716 -1.60548 -1.837 -1.7429 -1.763 -1.52085 -1.51105 -1.69969 -1.80614 -1.55802 -1.77348 -1.6514 -1.62195 -1.84321 -1.84695 -1.68245 -1.74086 -1.6403 -1.65584 -1.77053
internal_weight=0 31976.4 94148.6 17339.7 16501.7 11330 15862.5 6563.61 14636.7 77646.9 31085.3 5416.67 26952.2 1477.22 4133.06 13035 10305.3 951.667 4511.39 2729.72 3766.94 2827.5 1446.67 22440.8 13465.3 1380.83 1146.94 516.389 366.111 435.278
internal_count=454050 115115 338935 62423 59406 40788 57105 23629 52692 279529 111907 19500 97028 5318 14879 46926 37099 3426 16241 9827 13561 10179 5208 80787 48475 4971 4129 1859 1318 1567
shrinkage=1


Tree=2
num_leaves=31
num_cat=0
split_feature=0 4 0 0 0 1 4 0 6 0 2 0 1 0 4 6 0 2 0 4 1 0 6 4 4 6 6 6 6 0
split_gain=33507 25117 16569.1 1861.69 1816.94 1569.76 1302.65 747.353 735.35 681.286 606.398 527.026 518.009 428.715 347.794 333.209 262.755 305.864 252.848 228.913 223.276 220.532 209.273 174.449 166.487 140.748 137.675 136.863 114.356 180.786
threshold=1295.3125000000002 2.0204999446868901 1379.8125000000002 1360.9375000000002 1308.5625000000002 351.66549682617193 1.778500020503998 1360.9375000000002 28.500000000000004 1320.8125000000002 37.56050109863282 1386.1875000000002 368.38150024414068 1286.3125000000002 2.4294999837875371 25.500000000000004 1384.0625000000002 36.763500213623054 1313.8125000000002 1.7635000348091128 363.60699462890631 1320.8125000000002 26.500000000000004 1.903500020503998 2.1725000143051152 35.500000000000007 34.500000000000007 35.500000000000007 38.500000000000007 1404.3125000000002
decision_type=2 2 2 2 2 2 2 2 2 2 2 2 2 2 2 2 2 2 2 2 2 2 2 2 2 2 2 2 2 2
left_child=13 3 4 6 8 14 10 -7 20 22 18 26 -11 -1 -6 23 17 27 -2 -19 -3 -12 -8 -15 -17 -26 -4 -5 -13 -30
right_child=1 2 11 16 5 7 9 -9 -10 12 21 28 -14 15 -16 24 -18 19 -20 -21 -22 -23 -24 -25 25 -27 -28 -29 29 -31
leaf_value=0.058089805897913072 0.026066233321538169 -0.050894698825800139 -0.0052345929069170013 -0.022335424361160178 -0.048976266581285066 -0.16829621454534593 -0.068039149950916616 -0.11455674105849685 -0.03340470508728937 -0.031928082129730348 0.033411266238483492 0.053142237563839984 -0.11593792064190667 0.021026415977297458 -0.11566386253263622 0.055310829959890596 0.055692396232930513 0.04309073131587389 -0.095583823942614346 -0.0046066028908640132 -0.14231607266572746 0.00623220491525232 0.010232977128028571 -0.070411296117934535 -0.010990916981621532 0.0598128124282616 -0.083332594309205005 -0.15973665289188912 -0.055975423502530014 0.05799360948194026
leaf_weight=54753.696832239628 223.30277162790298 338.43853774666786 830.53963461518288 250.36148184537888 1461.0666150152683 18041.407055467367 424.1242595911026 3043.5083828270435 1969.7643694877625 1307.4130638837814 4814.8978214263916 4905.9108248054981 1677.3492735922337 368.2147536277771 1693.0963753163815 2293.9832852482796 7442.9605969488621 4928.9124512374401 715.41047284007072 1263.7023488879204 1321.9989129900932 7854.8248046040535 1720.0210601091385 477.28122770786285 915.25518399477005 402.69022598862648 308.11953580379486 100.52196922898293 257.11167761683464 298.73820242285728
leaf_count=213489 781 1121 2863 900 4579 48945 1405 9211 6337 4491 17919 18822 5137 1412 4796 8875 28622 18802 2369 4558 4079 28445 6092 1704 3293 1447 1052 366 987 1151
internal_value=0 -0.0475139 -0.107082 0.0152352 -0.140821 -0.150704 -0.00537239 -0.160551 -0.0747808 -0.048311 0.0108155 0.0353739 -0.0791852 0.0556617 -0.0848235 0.0258227 0.0428396 0.0282076 -0.0666516 0.033359 -0.123766 0.0165648 -0.00529868 -0.0306344 0.0390481 0.0107006 -0.0264769 -0.0623807 0.0482734 0.00526487
internal_weight=0 67193.5 34469.7 32723.8 27869.3 24239.1 18737.3 21084.9 3630.2 5128.91 13608.4 6600.42 2984.76 59211.1 3154.16 4457.42 13986.5 6543.5 938.713 6192.61 1660.44 12669.7 2144.15 845.496 3611.93 1317.95 1138.66 350.883 5461.76 555.85
internal_count=454050 223830 103943 119887 79068 67531 66639 58156 11537 17125 49514 24875 9628 230220 9375 16731 53248 24626 3150 23360 5200 46364 7497 3116 13615 4740 3915 1266 20960 2138
shrinkage=0.1


Tree=3
num_leaves=31
num_cat=0
split_feature=5 0 0 0 5 0 0 0 1 1 2 0 0 0 2 1 5 1 4 2 0 5 0 2 0 2 0 0 2 1
split_gain=34540.9 29771.8 17119.3 2603.44 3182.27 1895.49 1287.24 848.096 840.702 707.103 551.951 500.072 435.573 340.491 277.008 266.401 261.823 231.019 221.061 216.278 126.197 102.253 96.9359 82.5301 82.4362 59.3782 59.3094 51.0639 56.3057 47.1676
threshold=2.4375000000000004 1293.3125000000002 1379.8125000000002 1299.3125000000002 1.9994999766349795 1308.5625000000002 1381.9375000000002 1363.9375000000002 365.13150024414068 343.16349792480474 37.56050109863282 1387.3125000000002 1280.3125000000002 1384.0625000000002 95.714496612548842 380.87550354003912 1.7885000109672549 391.38951110839849 1.5504999756813052 37.56050109863282 1300.3125000000002 1.7434999942779543 1351.6875000000002 30.929500579833988 1289.3125000000002 129.25350189208987 1393.0625000000002 1390.6875000000002 63.556499481201179 368.74749755859381
decision_type=2 2 2 2 2 2 2 2 2 2 2 2 2 2 2 2 2 2 2 2 2 2 2 2 2 2 2 2 2 2
left_child=3 12 5 -1 10 17 8 9 19 -7 13 29 -2 21 -10 -9 22 20 -18 -6 -3 -5 -12 -19 25 -14 -13 28 -8 -4
right_child=1 2 11 4 6 7 27 15 14 -11 16 26 24 -15 -16 -17 18 23 -20 -21 -22 -23 -24 -25 -26 -27 -28 -29 -30 -31
leaf_value=-0.057781482271364384 -0.058404915637094629 0.034056215197993699 0.043650266151383732 0.027573428947061308 0.10994851700216322 0.095873591772417943 0.030929862294976795 0.13319175185859164 0.10230719334052069 0.1739382770661746 -0.039194116793676369 -0.023211327767796008 -0.027709987689359603 -0.059114663780167137 0.038262872674166656 0.069941430360000126 0.033470200431138214 -0.047917567381706605 -0.030465724472551838 0.007834074281149522 0.082912072487518085 0.093013317347936636 -0.054327588524532094 0.12057943263005676 0.014101733218914884 0.10800477199869501 -0.05330977873261307 -0.054777461403985053 -0.046971348819631109 0.0042817985124049551
leaf_weight=44934.795154958963 12704.901404678822 839.00288647413254 584.13321840763092 691.97498726844788 220.86113131046295 1242.6357255876064 163.60631486773491 2062.0761780738831 2598.0171417593956 19428.479449957609 6940.6957714259624 785.85795301198959 1624.689256966114 387.06542944908142 916.86630493402481 994.93114963173866 613.85395759344101 28.71476137638092 4451.2993529438972 2999.2755430936813 1447.7749263346195 364.77457663416862 10976.696229457855 1348.6268818974495 794.80826875567436 30.960990369319916 4059.889712870121 1324.088851839304 209.27010235190392 634.00039446353912
leaf_count=175255 49516 2872 2006 2449 710 3538 599 6071 8210 52203 26123 3008 6082 1451 3039 3164 2121 94 16571 10324 4443 1239 42251 4140 2771 116 15619 5089 762 2214
internal_value=0 0.0653104 0.11798 -0.0421382 -0.0207434 0.151634 0.0322188 0.161975 0.0518292 0.169255 -0.0390271 -0.0340458 -0.0509604 0.020923 0.0856323 0.112666 -0.0427948 0.0846212 -0.0227071 0.0149017 0.0650326 0.0502954 -0.0484703 0.117002 -0.0123465 -0.0250448 -0.0484402 -0.0455814 -0.0128081 0.0232008
internal_weight=0 48611.5 33456.1 77793.1 32858.3 27392.2 8431.99 23728.1 6735.02 20671.1 24426.4 6063.88 15155.4 1443.81 3514.88 3057.01 22982.5 3664.12 5065.15 3220.14 2286.78 1056.75 17917.4 1377.34 2450.46 1655.65 4845.75 1696.97 372.876 1218.13
internal_count=454050 157857 99372 296193 120938 76525 28733 64976 22283 55741 92205 22847 58485 5139 11249 9235 87066 11549 18692 11034 7315 3688 68374 4234 8969 6198 18627 6450 1361 4220
shrinkage=0.1


Tree=4
num_leaves=31
num_cat=0
split_feature=5 0 0 0 5 0 0 6 0 4 5 5 0 0 6 6 6 0 5 4 4 6 1 0 1 6 1 6 0 6
split_gain=28119 22523 11460.8 1977.3 2048.65 1280.28 772.075 763.944 712.492 621.938 536.072 363.655 350.247 303.283 282.782 258.921 252.172 215.79 188.83 262.312 160.192 154.966 148.629 126.636 123.795 90.5325 100.333 57.7302 89.4149 48.7429
threshold=2.3645000457763676 1292.3125000000002 1381.9375000000002 1297.3125000000002 1.9204999804496767 1308.5625000000002 1381.9375000000002 28.500000000000004 1364.8125000000002 1.6495000123977663 2.9154999256134038 2.1265000104904179 1280.3125000000002 1391.9375000000002 38.500000000000007 31.500000000000004 34.500000000000007 1376.8125000000002 1.7434999942779543 1.5454999804496767 1.0875000357627871 22.500000000000004 363.60699462890631 1300.3125000000002 376.04850769042974 25.500000000000004 415.23950195312506 38.500000000000007 1404.3125000000002 21.500000000000004
decision_type=2 2 2 2 2 2 2 2 2 2 2 2 2 2 2 2 2 2 2 2 2 2 2 2 2 2 2 2 2 2
left_child=3 12 5 -1 17 7 9 24 10 22 -7 -11 -2 14 21 25 -10 18 20 -20 -5 -4 -6 -9 -3 -14 -27 29 -29 -15
right_child=1 2 13 4 6 8 -8 23 16 11 -12 -13 15 27 -16 -17 -18 -19 19 -21 -22 -23 -24 -25 -26 26 -28 28 -30 -31
leaf_value=0.057124464063675912 0.057421260506353045 -0.074094739490683362 -0.11402488199343248 -0.0046914753201546602 -0.034976266157957472 -0.10536010733923001 0.045480646560215228 0.0015956287005933817 -0.06732544414826247 0.0061166057588002013 -0.13910971848437367 -0.040115771893924713 -0.058823819078909316 -0.027321027785714581 -0.15600531187470423 0.049329910546051091 -0.12509584131226612 0.055062065285551146 -0.043955946854493548 0.026258000984970949 0.04325227239999635 0.01973065672871192 -0.12452785225290493 -0.046022639964384521 -0.12707270842922422 0.013063861445548209 -0.10081770419085377 -0.030758734137151023 0.056892708562393181 0.057296813122746627
leaf_weight=39770.997431322932 12587.949425876141 658.08004876971245 90.451606258749962 745.83046014606953 248.90830291807652 6373.5551120638847 1718.7714946269989 942.59646892547607 2700.4246053099632 3300.6070280522108 18417.987979829311 3508.3592311292887 367.72742918133736 68.295238733291626 106.45717030763626 1117.9078469127417 1054.9273794293404 6888.0583555698395 642.51058977842331 3050.5532022565603 10543.067689716816 1374.6206095069647 746.84834885597229 1368.0289451181889 1409.2942163050175 723.22434245049953 84.601923227310181 206.40050400793552 262.03204996883869 3576.7387791872025
leaf_count=168366 53306 1987 323 2773 853 15930 6972 3106 7570 11460 42568 10880 1322 281 366 4319 2814 28486 2194 11574 41747 5090 2198 3929 3852 2761 311 795 1093 14824
internal_value=0 -0.0536416 -0.0939254 0.0423151 0.0235514 -0.116564 -0.0151579 -0.0661622 -0.124288 -0.0285201 -0.130442 -0.0177097 0.0508734 0.0371798 -0.000190686 0.0149161 -0.0836119 0.0404075 0.0336636 0.0140252 0.0400845 0.0113286 -0.102258 -0.0266127 -0.110297 -0.0178383 0.000917756 0.0514501 0.0183052 0.0556973
internal_weight=0 53491.3 38609.9 71164.5 31393.5 32924.9 9523.49 4378 28546.9 7804.72 24791.5 6808.97 14881.4 5685 1571.53 2293.46 3755.35 21870 14982 3693.06 11288.9 1465.07 995.757 2310.63 2067.37 1175.55 807.826 4113.47 468.433 3645.03
internal_count=454050 166547 104528 287503 119137 81756 32363 12874 68882 25391 58498 22340 62019 22772 5779 8713 10384 86774 58288 13768 44520 5413 3051 7035 5839 4394 3072 16993 1888 15105
shrinkage=0.1


Tree=5
num_leaves=31
num_cat=0
split_feature=0 4 0 4 0 1 2 0 0 0 6 0 4 0 0 4 6 2 4 0 6 6 0 2 6 4 6 6 0 1
split_gain=27768 17800.7 11092 1519.7 1349.27 745.247 694.111 686.083 480.042 402.632 351.83 332.707 323.951 319.069 300.236 295.103 249.564 245.051 244.55 240.809 239.478 237.603 206.085 243.103 135.614 127.759 102.861 96.9096 90.9056 87.1698
threshold=1294.3125000000002 1.9564999938011172 1381.9375000000002 2.4164999723434453 1360.9375000000002 366.25450134277349 68.66949844360353 1311.1875000000002 1369.6875000000002 1323.4375000000002 28.500000000000004 1283.3125000000002 1.7434999942779543 1309.4375000000002 1391.9375000000002 1.6654999852180483 38.500000000000007 80.854999542236342 2.0794999599456792 1317.3125000000002 34.500000000000007 28.500000000000004 1384.0625000000002 36.763500213623054 21.500000000000004 1.7584999799728396 35.500000000000007 25.500000000000004 1319.9375000000002 414.01451110839849
decision_type=2 2 2 2 2 2 2 2 2 2 2 2 2 2 2 2 2 2 2 2 2 2 2 2 2 2 2 2 2 2
left_child=11 4 3 5 6 17 9 10 -9 21 -5 -1 28 -7 16 -11 24 -3 -13 -14 27 -2 23 26 -4 -25 -6 -20 -8 -29
right_child=1 2 14 7 22 13 12 8 -10 15 -12 18 19 -15 -16 -17 -18 -19 20 -21 -22 -23 -24 25 -26 -27 -28 29 -30 -31
leaf_value=-0.057463559998254726 0.04848072748919334 0.066757471054880654 0.14698093443923327 0.11295656020726062 0.014367446474671686 0.047290785869556727 -0.036700221877046864 0.13362031720274373 0.079071467328991507 0.026011608707537295 0.049640309349380574 -0.049378232800758939 -0.019777000803526908 0.10630648957923634 -0.052148695203629983 0.085116426819839858 0.12816306938804831 0.019653214262667296 0.057497994648301035 0.034695755996329833 -0.054679930339214311 -0.027227754893979862 -0.055001099075042019 -0.041492881639233925 -0.019417850384104873 -0.0024639826105835932 0.13053642135656571 -0.0089686290253468623 -0.015598431662911775 0.081265690266433932
leaf_weight=49089.367924153805 574.49498066306114 2305.6029697060585 48.640204906463623 1711.8161655366421 242.40998035669327 1095.3635755926371 3313.9824363291264 17449.624967604876 1789.0942305326462 2103.0142326653004 1810.2883580327034 2959.5775279998779 1354.092671751976 5748.0926298499107 4552.3907624334097 1412.9453212022781 132.09612280130386 2122.6822210401297 422.63872592151165 2019.6982890814543 672.77695782482624 1473.7061624675989 6596.3027308136225 4612.3900965005159 1503.7525610178709 1025.3581710010767 109.57443597912788 958.73960250616074 5326.8134239912033 118.48537547886372
leaf_count=207944 1965 6652 169 4595 829 3339 13015 40682 4902 7344 5148 12340 4929 14525 18801 4217 460 6458 1473 6566 2564 5452 27334 18691 5576 3706 347 3593 20021 413
internal_value=0 0.0402713 0.0837796 0.106246 -0.0178133 0.0761924 8.33359e-05 0.121121 0.128556 0.0292767 0.08046 -0.0549301 -0.0134392 0.096877 -0.0388074 0.0497987 -0.00273299 0.0441973 -0.030685 0.012834 -0.00519905 -0.00596589 -0.0428052 -0.0293604 -0.0140218 -0.0343979 0.0510646 0.0170393 -0.0236982 0.00108857
internal_weight=0 70434.2 40269.4 34032.6 30164.8 11271.7 17578.7 22760.8 19238.7 5564.16 3522.1 54221.6 12014.6 6843.46 6236.88 3515.96 1684.49 4428.29 5132.22 3373.79 2172.64 2048.2 12586 5989.73 1552.39 5637.75 351.984 1499.86 8640.8 1077.22
internal_count=454050 225723 111307 86301 114416 30974 63509 55327 45584 18978 9743 228327 44531 17864 25006 11561 6205 13110 20383 11495 8043 7417 50907 23573 5745 22397 1176 5479 33036 4006
shrinkage=0.1


Tree=6
num_leaves=31
num_cat=0
split_feature=0 3 5 0 3 0 0 5 0 3 0 3 0 0 2 3 0 0 2 0 3 0 4 2 0 0 5 2 2 0
split_gain=23423.1 26064.7 2424.03 2433.85 1421.35 1260.5 855.571 835.94 699.792 347.686 336.373 379.901 334.113 321.857 310.403 304.374 229.743 195.357 169.963 162.053 131.731 108.105 107.471 102.413 87.487 72.6647 71.5261 62.5186 54.0629 47.8259
threshold=1294.3125000000002 346.60749816894537 2.1265000104904179 1386.1875000000002 287.69049072265631 1360.9375000000002 1312.0625000000002 2.4844999313354497 1336.3125000000002 147.52349853515628 1283.3125000000002 304.37600708007818 1378.8125000000002 1384.0625000000002 37.56050109863282 438.87150573730474 1310.3125000000002 1373.6875000000002 28.012000083923343 1312.0625000000002 424.05250549316412 1380.8125000000002 1.7584999799728396 42.809000015258796 1290.3125000000002 1393.0625000000002 2.5994999408721928 68.66949844360353 63.895500183105476 1364.8125000000002
decision_type=2 2 2 2 2 2 2 2 2 2 2 2 2 2 2 2 2 2 2 2 2 2 2 2 2 2 2 2 2 2
left_child=10 4 14 8 5 6 18 19 26 29 -1 24 -10 16 15 21 -9 -11 -2 -6 -16 -3 -8 -21 27 -5 -4 -12 -15 -7
right_child=1 2 3 25 7 9 22 13 12 17 11 -13 -14 28 20 -17 -18 -19 -20 23 -22 -23 -24 -25 -26 -27 -28 -29 -30 -31
leaf_value=0.056568776689017164 0.053038629554941957 -0.076551678869909212 0.018304873537607385 0.01903527318183295 0.016576971626600098 -0.020640209331039067 -0.14509862968083048 -0.028531983737877572 -0.07538983825160947 -0.084356259599186273 0.042540970120723005 0.052740785145699187 -0.015751065569321047 0.054393415029951354 0.034271106090869051 0.038561253409593717 -0.10144543316202884 -0.010320626408701577 -0.077282538915134119 -0.089186397219184962 0.052376447388156423 0.047388128921613634 -0.11787712883174091 -0.025013879412757289 -0.029751212346333197 0.05184120308014039 -0.022476915875621093 -0.0037631577476905107 -0.032837030077587759 0.041556238670254098
leaf_weight=45110.488328769803 100.74835550785065 473.49520559608936 1400.8199854940176 817.70928998291492 929.62578031420708 160.96578994393349 1609.4593050777912 493.82883396744728 4447.0351592004299 1031.6357346624136 448.04288959503174 2829.6788368523121 1192.3555999845266 163.43619482219219 5354.6752372533083 775.46076063811779 3568.3147105276585 544.92014691233635 5132.6763512045145 280.10888232290745 16312.235739484429 81.209255367517471 19620.700417071581 2134.4110371470451 790.46431235969067 3958.6218729913235 618.28099590539932 827.35128478705883 122.76515002548695 516.62826526165009
leaf_count=207944 303 1561 4344 3340 3329 396 4070 1415 11206 2572 1760 12692 3805 687 21255 3038 8278 1822 13183 816 69709 336 41919 6833 2692 17696 1619 3239 499 1692
internal_value=0 -0.0352636 0.0257952 -0.0097743 -0.0946798 -0.104907 -0.111022 -0.0564812 -0.0447084 -0.0330872 0.0538664 0.0289518 -0.0627903 -0.0853811 0.0450272 -0.00185935 -0.0925999 -0.0588121 -0.0747544 -0.0188745 0.0479055 -0.0583017 -0.119954 -0.0325262 -0.00365233 0.0462351 0.00580695 0.0125445 0.017008 0.0267639
internal_weight=0 71842.1 35431.9 12434.8 36410.2 28717.7 26463.6 7692.49 7658.49 2254.15 50006 4895.54 5639.39 4348.34 22997.1 1330.17 4062.14 1576.56 5233.42 3344.15 21666.9 554.704 21230.2 2414.52 2065.86 4776.33 2019.1 1275.39 286.201 677.594
internal_count=454050 225723 137909 42010 87814 65957 59475 21857 20974 6482 228327 20383 15011 10879 95899 4935 9693 4394 13486 10978 90964 1897 45989 7649 7691 21036 5963 4999 1186 2088
shrinkage=0.1


Tree=7
num_leaves=31
num_cat=0
split_feature=0 5 0 5 5 0 0 1 0 2 2 0 6 1 5 6 0 6 6 0 2 6 2 2 0 0 6 0 2 0
split_gain=23423.1 19427.5 8652.7 1121.83 927.843 591.984 521.882 506.195 371.694 387.599 339.233 336.373 336.251 326.337 271.044 257.422 229.04 276.5 166.633 146.198 144.495 141.191 130.448 101.476 101.42 97.4212 66.2823 100.036 60.8198 56.6429
threshold=1294.3125000000002 2.2095000743865971 1383.0625000000002 2.6694999933242802 1.8485000133514407 1311.1875000000002 1358.9375000000002 364.35249328613287 1377.8125000000002 38.284498214721687 37.56050109863282 1283.3125000000002 30.500000000000004 370.53050231933599 2.2695000171661381 33.500000000000007 1391.9375000000002 34.500000000000007 36.500000000000007 1322.5625000000002 95.714496612548842 22.500000000000004 76.282497406005874 129.25350189208987 1312.9375000000002 1351.6875000000002 38.500000000000007 1404.3125000000002 51.563999176025398 1384.0625000000002
decision_type=2 2 2 2 2 2 2 2 2 2 2 2 2 2 2 2 2 2 2 2 2 2 2 2 2 2 2 2 2 2
left_child=11 4 3 7 10 12 -7 19 9 -6 18 -1 -5 -11 -13 23 17 21 29 -3 -9 -4 -19 28 -20 -12 -18 -28 -16 -2
right_child=1 2 16 5 8 6 -8 20 -10 13 25 14 -14 -15 15 -17 26 22 24 -21 -22 -23 -24 -25 -26 -27 27 -29 -30 -31
leaf_value=-0.056568776689017164 0.00054247393546343829 0.00041524448322244231 0.085196274893463042 0.091980526002884366 0.092451051647148078 0.11568121713390055 0.078248406464798692 0.091513201227509985 -0.043512219895779157 -0.018198113994017797 -0.036535551560987915 -0.050788356486970665 0.0358061805175338 0.027239453538345972 -0.026279810249689617 -0.049672906267207079 -0.054848439547446386 0.11805542752564176 -0.041312424713493848 0.045428705501606124 0.04877938786255992 -0.04022237242022033 -0.0047799186432778262 0.18038987756070729 0.088666192564345256 -0.051266450857347726 0.036009845549550244 -0.056073892190134561 0.026466041552495774 -0.05703672915192029
leaf_weight=45110.488328769803 617.63721479475498 1059.2299144268036 96.550102889537811 2651.4066462814808 504.59408928453922 20988.941951036453 4550.994302123785 3643.7938556075096 1733.4198638796806 3626.2805770933628 7987.5460013002157 2628.8324858993292 1787.2247820496559 2798.8243279159069 266.80432659387589 788.54389482736588 3697.5024079680443 223.48905384540558 73.04199393093586 2261.4418366253376 1020.6560224741697 1018.1593941152096 139.97039374709129 36.916951239109039 310.50755429267883 10343.130909815431 211.16553887724876 262.45291820168495 1174.4396650344133 234.16240409016609
leaf_count=207944 2123 3149 315 6585 1464 44864 11319 9169 7360 12908 32389 11901 4820 9077 952 3193 16575 772 265 6151 2682 3959 506 123 1008 45220 828 1185 4214 1030
internal_value=0 0.0352636 0.0770991 0.0942809 -0.0293717 0.103155 0.109018 0.0609467 -0.00212481 0.00823755 -0.0414342 -0.0538664 0.0693881 0.00159715 -0.0289518 -0.00360418 -0.0383559 -0.00452349 0.00927377 0.0310792 0.0821873 -0.0292262 0.0709835 0.0210057 0.0638276 -0.0448522 -0.0503376 -0.015039 0.0166788 -0.0153828
internal_weight=0 71842.1 43613 37963.7 28229.1 29978.6 25539.9 7985.12 8663.12 6929.7 19566 50006 4438.63 6425.1 4895.54 2266.7 5649.29 1478.17 1235.35 3320.67 4664.45 1114.71 363.459 1478.16 383.55 18330.7 4171.12 473.618 1441.24 851.8
internal_count=454050 225723 112879 88739 112844 67588 56183 21151 30809 23449 82035 228327 11405 21985 20383 8482 24140 5552 4426 9300 11851 4274 1278 5289 1273 77609 18588 2013 5166 3153
shrinkage=0.1


Tree=8
num_leaves=31
num_cat=0
split_feature=0 3 3 3 0 4 0 0 0 6 0 0 2 0 3 6 4 0 6 3 2 6 6 3 0 2 4 2 6 6
split_gain=19988.7 20521.6 1558.85 1332.47 1058.32 818.273 661.468 612.488 564.955 476.345 419.177 342.759 324.649 273.435 304.534 351.085 263.11 434.209 428.285 260.789 256.146 176.383 136.236 127.011 117.296 115.41 92.4269 88.2429 79.739 54.1494
threshold=1293.3125000000002 352.60600280761724 431.40800476074224 265.65800476074224 1359.9375000000002 2.1924999952316289 1308.5625000000002 1312.9375000000002 1385.0625000000002 30.500000000000004 1383.0625000000002 1336.3125000000002 41.456501007080085 1281.3125000000002 304.37600708007818 31.500000000000004 1.8564999699592593 1390.6875000000002 38.500000000000007 147.52349853515628 98.719001770019545 36.500000000000007 34.500000000000007 49.694499969482429 1371.6875000000002 79.327503204345717 1.9775000214576723 129.25350189208987 33.500000000000007 38.500000000000007
decision_type=2 2 2 2 2 2 2 2 2 2 2 2 2 2 2 2 2 2 2 2 2 2 2 2 2 2 2 2 2 2
left_child=13 3 5 4 7 12 28 9 11 -2 20 -7 21 -1 15 23 -4 18 -18 22 -8 -3 -6 -15 -21 -14 -9 -25 -5 -19
right_child=1 2 16 6 19 8 10 26 -10 -11 -12 -13 25 14 -16 -17 17 29 -20 24 -22 -23 -24 27 -26 -27 -28 -29 -30 -31
leaf_value=0.056034069825224832 -0.09192099055680375 -0.015840077627897211 0.05034136344241983 -0.010080249134312066 0.04033666159026212 0.0037787475978315215 -0.074958049798781373 -0.1229479058044901 0.041394544296439614 -0.031915678060673858 0.023899377980170944 -0.071835760366502646 0.0080403392395284982 -0.16265196379041269 0.05286144138528736 0.045979350302033727 0.015063826489337165 0.055575296640186789 -0.087360887378334584 -0.074545349249686102 -0.032195819534111603 -0.12265169136089447 -0.096960199222321033 -0.021171661533023526 -0.013230355464869191 0.033655543105669004 -0.10306765609268718 -0.1963535200659674 0.035410176586983658 0.017731347596432568
leaf_weight=40614.457724094391 3350.5585444122553 592.34596702456474 14573.035507529974 1232.3259297013283 651.01079896092415 772.57215218245983 7510.1251400858164 2778.8144088685513 739.02272173762321 2190.3354818671942 536.19251272082329 2670.7991851866245 2965.1686417907476 70.674666315317154 2819.2928066551685 1012.1920341998339 2665.0355566293001 3001.9399965405464 480.03278452157974 762.65391087532043 1727.2554883658886 207.57138541340828 79.351320177316666 1057.9966802000999 528.76924006640911 4327.4378001093864 17274.269545137882 27.602371454238892 558.24901477992535 435.25611300766468
leaf_count=204283 7789 2039 66886 4005 1973 2058 18424 6226 3342 5551 2259 6205 11522 254 13682 4305 8488 14563 1334 1780 4553 634 209 3866 1622 17161 35091 80 1921 1945
internal_value=0 -0.0311546 0.0263978 -0.08026 -0.0921954 -0.0019511 -0.0517467 -0.0976974 -0.0378553 -0.0682207 -0.0619817 -0.0548782 0.0166097 0.0533196 0.0312028 0.00302092 0.0428453 0.0262388 -0.000614874 -0.0225178 -0.0669708 -0.0437935 0.0251958 -0.034599 -0.0494994 0.0232455 -0.105835 -0.0259787 0.00412602 0.0507962
internal_weight=0 72610.1 33430.2 39179.9 27615.8 12274.9 11564.1 25594 4182.39 5540.89 9773.57 3443.37 8092.52 45602.2 4987.76 2168.47 21155.3 6582.26 3145.07 2021.79 9237.38 799.917 730.362 1156.27 1291.42 7292.61 20053.1 1085.6 1790.57 3437.2
internal_count=454050 227580 136177 91403 60241 42961 31162 54657 11605 13340 25236 8263 31356 226470 22187 8505 93216 26330 9822 5584 22977 2673 2182 4200 3402 28683 41317 3946 5926 16508
shrinkage=0.1


Tree=9
num_leaves=31
num_cat=0
split_feature=0 3 5 0 3 0 5 0 0 0 0 0 3 0 3 0 3 1 1 0 4 1 0 3 0 0 5 5 0 0
split_gain=19988.7 20521.6 1926.31 1804.5 1332.47 1058.32 770.473 612.488 572.04 319.757 273.855 273.435 304.534 269.639 260.789 258.721 214.591 130.161 128.425 117.296 92.4269 73.4394 65.6825 74.4395 61.7875 84.7512 53.6378 51.4802 51.3197 49.142
threshold=1293.3125000000002 352.60600280761724 2.0994999408721928 1387.3125000000002 265.65800476074224 1359.9375000000002 2.5664999485015874 1312.9375000000002 1336.3125000000002 1383.0625000000002 1376.8125000000002 1281.3125000000002 304.37600708007818 1312.9375000000002 147.52349853515628 1308.5625000000002 436.45100402832037 397.33351135253912 345.56500244140631 1371.6875000000002 1.9775000214576723 349.80850219726568 1289.3125000000002 49.694499969482429 1315.5625000000002 1376.8125000000002 3.7384999990463261 2.5994999408721928 1364.8125000000002 1393.0625000000002
decision_type=2 2 2 2 2 2 2 2 2 2 2 2 2 2 2 2 2 2 2 2 2 2 2 2 2 2 2 2 2 2
left_child=11 4 16 8 5 7 13 17 27 15 -10 -1 22 -6 28 -8 24 -2 -15 -16 -9 -11 23 26 -3 -26 -13 -4 -7 -5
right_child=1 2 3 29 6 14 9 20 10 21 -12 12 -14 18 19 -17 -18 -19 -20 -21 -22 -23 -24 -25 25 -27 -28 -29 -30 -31
leaf_value=-0.056034069825224832 0.056816029036688566 -0.045980926037168968 -0.02270585169052796 -0.021142077097382677 -0.012011726695782207 0.016372497678521884 0.01973475386196831 0.1229479058044901 0.063267852039929837 0.079632569084517379 0.016123719945503698 -0.05004301882053324 -0.05286144138528736 0.0028871487228863497 0.074545349249686102 0.088050687740778191 -0.051319999440729992 0.088970854788296652 0.047753068203087813 0.013230355464869191 0.10306765609268718 -0.03468518826427177 0.019771937990643348 -0.022388097821787148 -0.01597675136693456 -0.047121487981044818 0.12030242381782685 0.01286201605853677 -0.042008219849832142 -0.050908369770342743
leaf_weight=40614.457724094391 3580.4664818942547 1662.8029919117689 1431.3121083378792 656.74559363722801 1523.7280862480402 210.34425464272499 620.30143444240093 2778.8144088685513 4151.0053943395615 66.621635943651199 1754.3542314767838 24.602055773139 2819.2928066551685 817.64365704357624 762.65391087532043 5320.5233360230923 14746.814979761839 1960.4275443851948 2906.0711529552937 528.76924006640911 17274.269545137882 309.25878299772739 797.3353186994791 1284.0124778002501 3594.7721902132034 1154.074510037899 62.515899896621704 566.76404745876789 520.01786449551582 3711.5717644989491
leaf_count=204283 8726 7100 4538 2796 5307 490 1731 6226 9995 267 5336 104 13682 2502 1780 11514 67486 4614 8524 1622 35091 1317 2753 5387 14304 5282 261 1423 1692 17917
internal_value=0 0.0311546 -0.0263978 0.0051217 0.08026 0.0921954 0.0517467 0.0976974 0.0336277 0.0752688 0.0492726 -0.0533196 -0.0312028 0.0234137 0.0225178 0.0809266 -0.0446776 0.0682207 0.0379084 0.0494994 0.105835 -0.0141091 -0.00302092 -0.0162848 -0.0293889 -0.0235623 0.0721535 -0.0126141 -0.0251958 -0.0464449
internal_weight=0 72610.1 33430.2 12271.8 39179.9 27615.8 11564.1 25594 7903.44 6316.71 5905.36 45602.2 4987.76 5247.44 2021.79 5940.82 21158.5 5540.89 3723.71 1291.42 20053.1 375.88 2168.47 1371.13 6411.65 4748.85 87.118 1998.08 730.362 4368.32
internal_count=454050 227580 136177 42005 91403 60241 31162 54657 21292 14829 15331 226470 22187 16333 5584 13245 94172 13340 11026 3402 41317 1584 8505 5752 26686 19586 365 5961 2182 20713
shrinkage=0.1


Tree=10
num_leaves=31
num_cat=0
split_feature=5 3 3 3 5 2 3 3 6 3 2 3 2 5 6 6 6 2 3 6 3 2 6 4 2 3 5 3 2 5
split_gain=16691.8 2508.42 1866.02 1024.03 715.074 399.7 301.808 292.319 287.883 411.741 207.593 205.391 193.081 167.485 159.32 130.546 121.203 98.551 95.5569 85.7385 68.0754 57.8147 55.7898 46.3844 45.3724 41.6658 44.3627 36.9913 49.43 35.788
threshold=2.2944999933242802 252.55349731445315 238.12249755859378 496.82200622558599 2.7615000009536748 38.284498214721687 316.21701049804693 438.87150573730474 33.500000000000007 395.02999877929693 100.00049972534181 155.64949798583987 78.08499908447267 1.9595000147819521 31.500000000000004 36.500000000000007 38.500000000000007 85.359001159667983 188.79750061035159 30.500000000000004 380.69000244140631 72.147502899169936 37.500000000000007 1.1165000200271609 95.714496612548842 105.31599807739259 4.8405001163482675 583.22702026367199 46.601499557495124 4.8405001163482675
decision_type=2 2 2 2 2 2 2 2 2 2 2 2 2 2 2 2 2 2 2 2 2 2 2 2 2 2 2 2 2 2
left_child=1 18 11 4 12 7 -7 15 9 -6 -10 16 14 -8 -4 20 25 -13 19 -1 -3 -15 -5 -17 -14 26 -2 28 -24 -18
right_child=2 5 3 22 8 6 13 -9 10 -11 -12 17 24 21 -16 23 29 -19 -20 -21 -22 -23 27 -25 -26 -27 -28 -29 -30 -31
leaf_value=-0.093099156468185437 -0.070737915557104611 -0.026733406478682543 -0.00058370340946621796 0.04944855438565357 -0.036747708646943399 0.018223088760817272 0.051517770185240536 0.042548640557869381 -0.064334244979370986 0.020787720124965926 -0.0097352965749999618 -0.049458045565087504 -0.00019205507670045675 0.024090259173509307 -0.03814778232277611 -0.027144098290268589 -0.042467073761286118 -0.029596646428887808 -0.033871405499653867 -0.044229594000686101 0.021461934392587981 0.041445846083262877 -0.083068009983185254 -0.099150454464925555 0.018314368192081262 -0.05667911852190452 -0.055549208131828856 0.05450334668698617 0.013166702897224575 -0.0080757483833830117
leaf_weight=856.20594015717506 7402.4293590188026 638.60864154994488 2401.2879644334316 2138.2335863411427 7227.1628722846508 3550.3216990977526 37832.498076781631 1330.1488642394543 4639.3980656564236 1500.9196091294289 820.22736084461212 7772.8390283882618 2448.1017134785652 2582.214098289609 2129.2513675391674 146.59409829974174 1309.6641986817122 3699.5825936198235 1135.6805916428566 628.29117737710476 538.29193370044231 7598.1232481300831 69.983796209096909 235.73355776071548 2885.0916651189327 7214.7604830861092 2666.526847705245 119.17079931497574 204.89331579208374 394.71804009377956
leaf_count=2371 18750 2235 8484 10327 21807 15536 195967 6340 12740 5757 2776 22133 8953 11304 6986 574 3608 12085 3912 1873 2299 35477 325 751 10753 19719 7734 607 826 1041
internal_value=0 0.0397438 -0.0367452 -0.017383 -0.0237521 0.044343 0.0463711 0.00814364 -0.0381275 -0.0268512 -0.0561381 -0.0536409 -0.0030713 0.0484516 -0.018247 -0.0212235 -0.0600289 -0.0430595 -0.0557974 -0.0725032 -0.00469076 0.0370492 0.0430813 -0.0718263 0.00982246 -0.06254 -0.0667274 0.00845546 -0.0117577 -0.0345212
internal_weight=0 57072.7 57044.2 26583.7 24051.4 54452.5 51563.2 2889.38 14187.7 8728.08 5459.63 30460.5 9863.73 48012.8 4530.54 1559.23 18988.1 11472.4 2620.18 1484.5 1176.9 10180.3 2532.28 382.328 5333.19 17283.7 10069 394.048 274.877 1704.38
internal_count=454050 278639 175411 90341 78256 270483 258284 12199 43080 27564 15516 85070 35176 242748 15470 5859 50852 34218 8156 4244 4534 46781 12085 1325 19706 46203 26484 1758 1151 4649
shrinkage=0.1


Tree=11
num_leaves=31
num_cat=0
split_feature=0 3 5 3 0 0 5 0 0 0 3 0 0 5 3 0 3 1 1 1 0 0 0 0 0 3 1 1 0 5
split_gain=17192.9 16222.9 1450.72 1429.34 1371.95 797.204 785.777 671.536 392.292 278.196 283.788 251.526 247.547 228.181 215.577 184.09 157.437 112.591 111.899 106.318 103.663 59.0719 52.2282 71.3353 49.9363 49.0217 38.8129 36.3136 22.5799 22.5023
threshold=1293.3125000000002 364.55551147460943 2.0994999408721928 290.20150756835943 1387.3125000000002 1363.9375000000002 2.4844999313354497 1309.4375000000002 1324.3125000000002 1281.3125000000002 304.37600708007818 1385.0625000000002 1347.3125000000002 2.6694999933242802 147.52349853515628 1312.9375000000002 438.87150573730474 342.27500915527349 395.82798767089849 343.16349792480474 1373.6875000000002 1290.3125000000002 1319.9375000000002 1383.0625000000002 1404.3125000000002 54.682498931884773 401.06900024414068 340.45600891113287 1287.3125000000002 1.8305000066757204
decision_type=2 2 2 2 2 2 2 2 2 2 2 2 2 2 2 2 2 2 2 2 2 2 2 2 2 2 2 2 2 2
left_child=9 3 16 5 8 7 15 18 -4 -1 21 12 -8 -10 -7 -5 22 -9 -2 -17 -16 25 -3 -24 -6 26 -11 -13 -27 -18
right_child=1 2 4 6 24 14 11 17 13 10 -12 27 -14 -15 20 19 29 -19 -20 -21 -22 -23 23 -25 -26 28 -28 -29 -30 -31
leaf_value=-0.055341148620427806 0.038266064712287821 -0.04542342488128201 -0.025586489388430222 -0.02235574820218432 -0.032675364898907731 -0.03634546295286744 0.045833097346319629 0.056605310369394757 0.017115074387262705 0.096432940919564947 -0.051870961724571424 0.076833221522075154 0.089232854024421465 0.056881311270666979 0.058576035382066065 -0.013860783737329165 -0.052091935106577926 0.091478305074539509 0.069698106653364164 0.028604274226320205 0.0050746480482079968 0.023807770665863186 -0.017946658271637907 -0.051179427792172077 -0.055311173056284517 -0.028013564953933541 -0.01316864661768051 -0.028571616433539927 -0.0019639727841844093 -0.040467491967870674
leaf_weight=37186.047058865428 3160.8635776042938 1687.0569301694632 1139.6018642932177 1421.4008561372757 1735.6806322187185 526.51088446378708 2591.7892797291279 976.52565103769302 2680.6317220330238 67.930504634976387 2597.2696780264378 34.360058963298798 2682.424894079566 3129.2837299108505 929.98941667377949 737.46446941792965 11436.221387073398 23344.233086287975 1774.5750323235989 2917.5549144595861 592.98938816785812 600.25899589061737 3290.9635122716427 803.19818508625031 2259.6601428538561 899.28360694646835 59.267717808485031 327.26785951852798 528.01156820356846 1998.6379886120558
leaf_count=204283 7845 7566 3612 5317 8426 1776 5912 2079 7447 258 13682 145 5711 7512 2120 2310 57322 47492 4115 8783 1909 2029 13732 3995 11916 3949 237 1491 2032 9047
internal_value=0 0.0280778 -0.0278782 0.068243 0.00118216 0.0790324 0.0367032 0.0832559 0.0280249 -0.0524289 -0.0296255 0.0624009 0.0679313 0.0385458 0.0187194 0.00816022 -0.0444285 0.0900829 0.0495914 0.0200333 0.0377786 -0.00278839 -0.030611 -0.0244881 -0.0454989 -0.0130757 0.045951 -0.0181891 -0.018393 -0.0503689
internal_weight=0 72178.9 30160.9 42017.9 10944.9 31305.7 10712.3 29256.2 6949.52 41938.1 4752.02 5635.84 5274.21 5809.92 2049.49 5076.42 19216.1 24320.8 4935.44 3655.02 1522.98 2154.75 5781.22 4094.16 3995.34 1554.49 127.198 361.628 1427.3 13434.9
internal_count=454050 227580 130575 97005 38913 67336 29669 61531 18571 226470 22187 13259 11623 14959 5805 16410 91662 49571 11960 11093 4029 8505 25293 17727 20342 6476 495 1636 5981 66369
shrinkage=0.1


Tree=12
num_leaves=31
num_cat=0
split_feature=0 3 5 0 3 0 0 5 6 6 0 0 3 6 0 3 0 0 3 6 0 3 6 0 6 1 3 6 1 6
split_gain=15646.9 13440.7 1320.57 1221.08 1136.91 730.286 677.009 607.552 458.676 408.799 368.223 275.356 256.007 323.468 228.006 220.228 190.476 165.564 144.766 137.632 161.757 131.696 128.324 113.345 109.781 101.768 82.8942 72.155 67.8012 67.733
threshold=1293.3125000000002 364.55551147460943 2.0634999275207524 1389.5625000000002 290.20150756835943 1360.9375000000002 1309.4375000000002 2.5994999408721928 33.500000000000007 28.500000000000004 1341.4375000000002 1280.3125000000002 312.41648864746099 31.500000000000004 1385.0625000000002 147.52349853515628 1312.9375000000002 1342.3125000000002 438.87150573730474 39.500000000000007 1349.0625000000002 443.83950805664068 25.500000000000004 1373.6875000000002 34.500000000000007 342.27500915527349 54.682498931884773 25.500000000000004 401.06900024414068 38.500000000000007
decision_type=2 2 2 2 2 2 2 2 2 2 2 2 2 2 2 2 2 2 2 2 2 2 2 2 2 2 2 2 2 2
left_child=11 4 18 8 5 6 9 16 21 -2 -10 -1 13 26 17 24 -6 -9 19 -3 -21 -4 -18 -17 -7 -8 28 -28 -13 -5
right_child=1 2 3 29 7 15 25 14 10 -11 -12 12 -14 -15 -16 23 22 -19 -20 20 -22 -23 -24 -25 -26 -27 27 -29 -30 -31
leaf_value=0.055035684846867154 -0.070392577894230091 0.03460236524328774 -0.013381024573647355 0.052074497021470281 0.018304150324616648 0.043147878492084124 -0.051378028782263732 -0.041843041486982598 0.015706344761697879 -0.013711660394877846 -0.067660877115917201 -0.18309384441492127 0.052020949303694178 0.046060740214582507 0.018501867531587179 -0.055928262463120708 0.0088021248779899565 -0.080352922233196455 0.049439966016620845 0.031935350253844627 -0.086010671991510773 0.024780930542618283 -0.032602403146089649 -0.0029232395231842466 -0.080600605896611235 -0.084746846452088465 -0.049149923886736627 0.00073290698561542171 -0.02367018681224306 0.011134400373019026
leaf_weight=34632.594909235835 2657.2333575487137 4761.2953795641661 2916.0279568582773 3198.0730147659779 1525.1866431683302 601.09894025325775 963.2739018201828 1841.8723665028811 659.77151368558407 2442.2257803678513 2673.9972204566002 57.231006100773811 2533.6713723987341 1115.3952269256115 347.80933494865894 1201.9349839687347 975.03115721046925 2864.9333902001381 12234.304900601506 251.24086993932724 213.238460958004 1308.389441639185 3209.9336465746164 607.09143500030041 79.494849801063538 23036.332660675049 487.12295736372471 712.07347573339939 49.767756894230843 463.95978480577469
leaf_count=202480 5917 22363 8236 17654 5735 1889 2021 4126 2066 6043 6535 172 14410 4903 1555 2637 3127 5935 65492 1117 845 4055 9191 1909 199 46721 1674 2677 154 2212
internal_value=0 -0.0265732 0.0262862 -0.000482032 -0.0623673 -0.0719321 -0.0763795 -0.0342917 -0.0234438 -0.0432631 -0.0511625 0.0518801 0.0298126 0.00655262 -0.0595354 -0.019931 -0.011933 -0.0653074 0.0434861 0.0295338 -0.0223493 -0.00155534 -0.0229562 -0.0381632 0.0285 -0.0834119 -0.0272033 -0.019578 -0.110737 0.0468965
internal_weight=0 71033.8 28680.3 11220.2 42353.5 31588.7 29099.1 10764.8 7558.19 5099.46 3333.77 39587.9 4955.26 2421.59 5054.62 2489.62 5710.15 4706.81 17460.1 5225.77 464.479 4224.42 4184.96 1809.03 680.594 23999.6 1306.2 1199.2 106.999 3662.03
internal_count=454050 227580 130575 40758 97005 67336 60702 29669 20892 11960 8601 226470 23990 9580 11616 6634 18053 10061 89817 24325 1962 12291 12318 4546 2088 48742 4677 4351 326 19866
shrinkage=0.1


Tree=13
num_leaves=31
num_cat=0
split_feature=5 3 3 5 3 3 6 1 3 3 1 1 1 5 1 1 3 6 3 6 6 3 6 1 6 3 6 6 3 5
split_gain=14095.3 2176.42 1524.76 858.42 493.672 391.594 362.574 200.211 190.109 138.55 138.273 136.541 130.576 126.606 117.326 101.744 82.3665 82.1366 76.4993 71.1391 65.9332 60.8043 58.7231 41.2107 43.6228 40.8945 40.2599 33.7253 31.2379 29.051
threshold=2.2944999933242802 252.55349731445315 442.61299133300787 2.9154999256134038 219.68599700927737 364.55551147460943 38.500000000000007 463.70500183105474 151.46099853515628 496.82200622558599 338.12651062011724 398.11351013183599 394.32749938964849 2.5325000286102299 405.30299377441412 381.86949157714849 452.85649108886724 39.500000000000007 172.359001159668 30.500000000000004 29.500000000000004 304.37600708007818 33.500000000000007 349.80850219726568 40.500000000000007 520.58349609375011 39.500000000000007 23.500000000000004 136.31050109863284 3.4144999980926518
decision_type=2 2 2 2 2 2 2 2 2 2 2 2 2 2 2 2 2 2 2 2 2 2 2 2 2 2 2 2 2 2
left_child=1 18 3 4 20 14 22 8 15 23 -6 -10 16 -12 21 -5 17 -7 19 -1 28 -3 -4 -8 -25 29 -11 -9 -2 -24
right_child=2 5 6 7 10 12 9 27 11 26 13 -13 -14 -15 -16 -17 -18 -19 -20 -21 -22 -23 25 24 -26 -27 -28 -29 -30 -31
leaf_value=0.084763212024585644 0.072675596684754026 -0.0057229502713473518 -0.043426227890066671 0.068324984617715065 -0.023607242857605962 -0.038590525278342599 -0.0081252202707623577 0.027840761305607128 0.044379945442142611 0.03381642100939742 -0.00021958520330905346 0.021925541263537393 -0.053317305600167869 0.021514054785132988 -0.044639835202995914 0.0504080124814986 -0.048864585315120154 -0.0073428724168331091 0.032134422350295892 0.037877922201982932 0.035538530492301094 -0.025388233230126806 -0.011240067492385127 0.10696823807167 -0.028834061598252105 -0.042574119930937945 -0.040865445745460249 -0.030903200553451263 0.048249380819669868 0.039965054041311565
leaf_weight=808.38660870492458 1016.8734232187271 2110.3751711249352 2790.4570932090282 4425.249636888504 1215.3875827640295 9847.1837362200022 42.140867277979851 129.69734272360802 16646.928167015314 127.94342586398125 4793.4371268153191 3241.5091983228922 20024.820152357221 6078.0786610394716 2627.9340807944536 11394.336334884167 9111.7942715734243 920.92007191479206 1339.400477707386 547.80123661458492 2337.3254406750202 6180.602449759841 408.85696184635162 302.11401824653149 24.834107264876366 310.79000867903233 160.50374583899975 379.1178310662508 1127.0874354094267 149.72103014588356
leaf_count=2119 2599 8677 13167 10413 4155 49849 139 424 46706 597 18202 10906 114963 19565 14623 31189 49317 4447 4465 1572 6757 28607 1621 843 97 1669 732 1736 3284 610
internal_value=0 -0.0383738 0.0330541 0.0377274 0.0188698 -0.0430183 -0.0240743 0.0463527 0.0472403 0.0442001 0.00835601 0.0407228 -0.0476105 0.011933 -0.0262299 0.055428 -0.0418574 -0.03592 0.049163 0.0659086 0.0472112 -0.0203852 -0.0363581 0.0846108 0.0965405 -0.0136237 -0.00773485 -0.0158789 0.0598916 0.00257855
internal_weight=0 53519.2 57102.4 52785 16568.2 50823.6 4317.36 36216.8 35708 657.536 12086.9 19888.4 39904.7 10871.5 10918.9 15819.6 19879.9 10768.1 2695.59 1356.19 4481.29 8290.98 3659.83 369.089 326.948 869.368 288.447 508.815 2143.96 558.578
internal_count=454050 278639 175411 155936 54562 270483 19475 101374 99214 2408 41922 57612 218576 37767 51907 41602 103613 54296 8156 3691 12640 37284 17067 1079 940 3900 1329 2160 5883 2231
shrinkage=0.1


Tree=14
num_leaves=31
num_cat=0
split_feature=5 3 3 5 2 3 3 3 6 2 2 5 6 1 6 3 3 3 2 5 6 5 6 5 1 3 3 3 2 6
split_gain=11969.7 1895.24 1240.43 716.29 413.953 407.406 274.62 274.474 233.023 198.94 195.671 163.51 154.259 134.202 123.518 122.957 87.5861 62.7001 60.28 57.7946 57.4355 56.6401 54.8759 50.0636 48.0533 47.2648 46.5555 43.0357 40.0963 39.4315
threshold=2.2944999933242802 252.55349731445315 451.51899719238287 2.9154999256134038 40.635000228881843 219.68599700927737 438.87150573730474 327.40600585937506 38.500000000000007 78.08499908447267 102.19649887084962 1.9595000147819521 36.500000000000007 472.85050964355474 31.500000000000004 151.46099853515628 496.82200622558599 188.79750061035159 95.353496551513686 1.7434999942779543 30.500000000000004 2.5164999961853032 29.500000000000004 1.375500023365021 415.86999511718756 510.42649841308599 188.79750061035159 295.24150085449224 140.95149993896487 31.500000000000004
decision_type=2 2 2 2 2 2 2 2 2 2 2 2 2 2 2 2 2 2 2 2 2 2 2 2 2 2 2 2 2 2
left_child=1 17 3 5 6 22 12 27 25 14 13 -9 19 15 -7 -5 -10 20 -13 -3 -1 -11 -2 -14 26 29 -12 -6 -26 -4
right_child=2 4 8 10 7 9 -8 11 16 21 24 18 23 -15 -16 -17 -18 -19 -20 -21 -22 -23 -24 -25 28 -27 -28 -29 -30 -31
leaf_value=-0.072916217000262615 -0.053998669236802632 0.025290527903411658 0.037663469759936813 -0.051731247630721545 0.0080002478114179782 -0.0069898560034362695 0.039144472579316018 0.050124825662450037 -0.06995252785371707 0.015285058527648797 -0.036352137449822082 0.027874284217196205 -0.026299191480724207 0.018827891653266999 -0.0363391258834036 -0.03930573796151178 0.0073703787665895214 -0.02618570312035387 0.045253017464029516 -0.01891988728830668 -0.033928650297424909 -0.0035510244036279269 -0.031809288007861695 -0.09810659478922841 0.030429727205562498 0.048059381664863371 -0.012814451264076519 0.028325603915886479 -0.057528374123263018 0.0047243919757465613
leaf_weight=917.79714922606945 2158.0066973716021 458.29279114305973 841.3092435002327 14487.750411659479 1703.7199861705303 3049.3315864801407 1409.0309760272503 31476.807198181748 297.88429832458496 2852.005311653018 1565.8441251367331 5277.2837933599949 153.24577264487743 333.03197252750397 2706.8490725010633 17809.904414668679 285.72467571496964 1176.3525573164225 3227.5391168892384 824.95017571747303 651.61748398840427 3621.5340956747532 2332.1872175186872 272.17282243072987 291.9294970035553 1667.8836193084717 1818.3676057010889 2687.4446160793304 61.006214678287506 639.80353073775768
leaf_count=2371 5883 2183 3884 38005 7340 10488 7898 191057 845 11517 4498 26571 608 1499 8424 50836 1329 3912 17063 3220 1873 12282 6757 880 1298 9275 5784 13663 170 2637
internal_value=0 0.0370464 -0.0299544 -0.0338723 0.0417171 -0.0167382 0.00649048 0.0441917 0.0257566 -0.00727692 -0.0417482 0.0467985 -0.0204516 -0.044231 -0.0207992 -0.0448823 -0.0322007 -0.0437084 0.0344785 -0.00311595 -0.0567925 0.00474962 -0.0424929 -0.072484 -0.0200586 0.0365115 -0.0237202 0.0204468 0.0149874 0.0234602
internal_weight=0 50236.3 56820.4 53087.7 47490.5 16719.9 3117.69 44372.8 3732.61 12229.7 36367.8 39981.6 1708.66 32630.7 5756.18 32297.7 583.609 2745.77 8504.82 1283.24 1569.41 6473.54 4490.19 425.419 3737.15 3149 3384.21 4391.16 352.936 1481.11
internal_count=454050 278639 175411 157441 270483 55351 14789 255694 17970 42711 102090 234691 6891 90340 18912 88841 2174 8156 43634 5403 4244 23799 12640 1488 11750 15796 10282 21003 1468 6521
shrinkage=0.1


Tree=15
num_leaves=31
num_cat=0
split_feature=0 5 0 0 1 5 6 0 2 0 2 6 0 0 5 0 6 5 6 2 1 0 2 6 0 0 2 6 6 0
split_gain=14278.1 8633.65 3754.08 819.736 636.842 498.394 455.828 427.699 224.623 215.99 271.526 183.712 200.644 174.781 165.365 158.314 137.431 114.59 171.831 108.303 105.276 95.8776 90.34 88.1517 78.9716 71.4776 66.8356 59.3322 56.1735 47.1747
threshold=1291.3125000000002 2.1354999542236333 1383.0625000000002 1307.6875000000002 346.33450317382818 1.7885000109672549 28.500000000000004 1373.6875000000002 37.56050109863282 1377.8125000000002 40.635000228881843 38.500000000000007 1404.3125000000002 1280.3125000000002 2.7985000610351567 1319.9375000000002 21.500000000000004 2.2695000171661381 33.500000000000007 50.518999099731452 356.32099914550787 1391.9375000000002 78.08499908447267 36.500000000000007 1312.9375000000002 1351.6875000000002 51.563999176025398 36.500000000000007 25.500000000000004 1413.5625000000002
decision_type=2 2 2 2 2 2 2 2 2 2 2 2 2 2 2 2 2 2 2 2 2 2 2 2 2 2 2 2 2 2
left_child=13 5 3 6 14 8 20 -6 23 10 27 16 22 -1 -5 -12 29 -15 26 -8 -3 -18 -13 -2 -25 -10 -19 -7 -28 -4
right_child=1 2 11 4 7 9 19 -9 25 -11 15 12 -14 17 -16 -17 21 18 -20 -21 -22 -23 -24 24 -26 -27 28 -29 -30 -31
leaf_value=-0.054659897104213151 -0.014945646517202149 0.0027647763025109191 0.09611908155210025 0.0019197444144919418 0.070783744061140699 0.046922747255784873 -0.04228093668403643 0.024559746003669624 -0.033285445638678593 -0.042094237796537065 -0.026326340762385537 0.095180629305003858 -0.054483220650144326 -0.05023671676804127 0.044971029338181923 0.0069361353994965465 -0.021774716464892117 -0.044831417145544977 -0.054604738924901086 0.0060338165585293131 0.059701015077960967 -0.054220822138093039 -0.018886015125155003 -0.048615526029069663 0.067975559875248684 -0.048087479525800399 0.050392545616511679 0.12236633595294431 0.00088850507316046634 -0.052052262176402221
leaf_weight=32525.921475544572 651.60051348805428 372.99976189434528 94.298013865947723 1788.8808548897505 31523.3640011549 501.39111095666885 564.84171579778194 2140.3482744395733 6023.0866511464119 1426.3068994283676 2314.1155508607626 262.94325295090675 227.07623454928398 1902.4728960990906 1778.3960300683975 3742.3280134946108 1332.674558609724 222.05303992331028 750.33808106184006 2554.503226429224 2519.0935488343239 2902.0305688530207 93.293806344270706 70.246599957346916 302.7976540774107 7187.1565501838923 318.40079368650913 131.6826965212822 805.70465642213821 26.260997802019119
leaf_count=202480 2839 1073 328 4683 66342 1472 1523 5302 30883 7836 10079 925 1222 11655 3686 13839 5226 871 3449 7150 5722 16925 338 261 940 42251 1035 347 3229 139
internal_value=0 0.0247945 0.0486232 0.0580563 0.0635889 -0.0265725 0.0237813 0.0678464 -0.0378466 -0.0067935 0.00074349 -0.0339635 0.0186856 -0.052233 0.0233953 -0.00577767 -0.0410202 -0.0324763 -0.0163271 -0.00273636 0.0523648 -0.044025 0.0653694 0.00724496 0.0458785 -0.0413447 0.0050579 0.0629514 0.014975 0.0635206
internal_weight=0 70531.7 48181 43242.4 37231 22350.7 6011.44 33663.7 14234.9 8115.82 6689.52 4938.58 583.313 36524.9 3567.28 6056.44 4355.26 3998.97 2096.5 3119.34 2892.09 4234.71 356.237 1024.64 373.044 13210.2 1346.16 633.074 1124.11 120.559
internal_count=454050 231331 120584 95481 80013 110747 15468 71644 77174 33573 25737 25103 2485 222719 8369 23918 22618 20239 8584 8673 6795 22151 1263 4040 1201 73134 5135 1819 4264 467
shrinkage=0.1


Tree=16
num_leaves=31
num_cat=0
split_feature=0 5 0 0 1 5 0 6 0 2 5 2 0 0 6 1 0 6 1 5 6 2 0 0 0 6 0 2 6 2
split_gain=13066 7167.48 3242.42 773.116 516.526 472.858 429.504 385.424 214.654 229.356 202.182 190.042 173.829 168.276 209.585 140.984 120.381 109.47 105.473 101.105 159.456 94.7067 77.3497 84.6939 72.2998 64.8017 86.3281 61.6378 56.1683 51.7897
threshold=1291.3125000000002 2.1354999542236333 1383.0625000000002 1310.3125000000002 354.87800598144537 1.7674999833106997 1359.9375000000002 28.500000000000004 1386.1875000000002 41.456501007080085 2.7985000610351567 36.763500213623054 1280.3125000000002 1391.9375000000002 34.500000000000007 363.60699462890631 1300.3125000000002 22.500000000000004 356.32099914550787 2.2695000171661381 33.500000000000007 76.282497406005874 1384.0625000000002 1315.5625000000002 1351.6875000000002 38.500000000000007 1404.3125000000002 129.25350189208987 36.500000000000007 51.563999176025398
decision_type=2 2 2 2 2 2 2 2 2 2 2 2 2 2 2 2 2 2 2 2 2 2 2 2 2 2 2 2 2 2
left_child=12 5 3 7 10 11 -6 18 9 28 -5 22 -1 14 17 -11 -9 -4 -3 -14 27 -16 23 -2 -13 -15 -27 29 -7 -21
right_child=1 2 13 4 6 8 -8 16 -10 15 -12 24 19 25 21 -17 -18 -19 -20 20 -22 -23 -24 -25 -26 26 -28 -29 -30 -31
leaf_value=0.054326805347308396 0.044862545862320496 -0.0040885741238789707 -0.064469365052779393 -0.013069666229228661 -0.070486978933536323 -0.037073470203642683 -0.039194028875322924 0.0207571845798417 0.048129405085969447 0.023183875903634812 -0.050714415975494767 0.031687012283392373 0.049482903716031465 0.051723711089410575 -0.087808145640859703 -0.0063933357162743384 -0.015808261318943338 0.039475596723497507 -0.054987633607096513 0.044700638399922638 0.054453218994509403 0.0096965498613118505 0.054550914491516549 -0.039151074198279782 0.047360008727588006 -0.034390733552179691 0.054218322845744432 -0.12382399093643129 -0.10321617678824563 -0.0081070829786573963
leaf_weight=30548.536203876138 149.71696756780148 470.47282893955708 110.93497286736965 2822.4559829682112 24768.677329793572 608.6170895844698 5340.5033684521914 1418.4943919479847 1072.7130056023598 2827.5770531892776 2886.8965499401093 5427.0288626551628 1768.5156303793192 2798.7602654695511 276.91174560785294 3742.5025077462196 2456.9886313527822 997.85953544080257 3037.4355647265911 220.63360342383385 739.88825663924217 154.39176027476788 160.79617400467396 574.89463111758232 6489.5266374945641 216.65984565019608 219.26222616434097 38.999819442629814 162.49567942321301 1117.9692748486996
leaf_count=202480 644 1300 321 7184 51889 1829 12136 4351 6636 12577 5950 29652 11655 17243 810 14833 5971 4110 6700 871 3449 544 951 1926 41294 853 1222 109 405 4155
internal_value=0 -0.0235912 -0.0449933 -0.0536358 -0.0597095 0.0248064 -0.0649395 -0.0241626 0.00638906 0.000278406 -0.0321156 0.0369081 0.0517914 0.0331933 0.00597559 0.00633904 -0.00242087 0.0289785 -0.0481674 0.0318425 0.0170766 -0.0530212 -0.00777428 -0.0217167 0.0402287 0.0461406 0.0102224 -0.00304768 -0.0512426 0.000650588
internal_weight=0 69192.6 47976.7 43201.9 35818.5 21215.9 30109.2 7383.39 8413.91 7341.19 5709.35 12802 34434.5 4774.78 1540.1 6570.08 3875.48 1108.79 3507.91 3886.01 2117.49 431.304 885.408 724.612 11916.6 3234.68 435.922 1377.6 771.113 1338.6
internal_count=454050 231331 120584 95481 77159 110747 64025 18322 36280 29644 13134 74467 222719 25103 5785 27410 10322 4431 8000 20239 8584 1354 3521 2570 70946 19318 2075 5135 2234 5026
shrinkage=0.1


Tree=17
num_leaves=31
num_cat=0
split_feature=0 5 0 0 1 5 0 6 4 5 0 0 6 0 4 0 0 0 6 0 1 5 6 0 6 0 0 5 6 1
split_gain=13066 7167.48 3242.42 773.116 516.526 472.858 429.504 385.424 291.765 202.182 173.829 168.276 209.585 138.104 123.018 120.381 111.284 117.123 109.47 107.027 105.473 101.105 159.456 74.3124 64.8017 86.3281 59.401 70.4747 49.3525 50.4887
threshold=1291.3125000000002 2.1354999542236333 1383.0625000000002 1310.3125000000002 354.87800598144537 1.7674999833106997 1359.9375000000002 28.500000000000004 1.6165000200271609 2.7985000610351567 1280.3125000000002 1391.9375000000002 34.500000000000007 1363.9375000000002 1.0435000061988833 1300.3125000000002 1381.9375000000002 1319.0625000000002 22.500000000000004 1325.1875000000002 356.32099914550787 2.2695000171661381 33.500000000000007 1385.0625000000002 38.500000000000007 1404.3125000000002 1381.9375000000002 1.1305000185966494 25.500000000000004 415.23950195312506
decision_type=2 2 2 2 2 2 2 2 2 2 2 2 2 2 2 2 2 2 2 2 2 2 2 2 2 2 2 2 2 2
left_child=10 5 3 7 9 14 -6 20 13 -5 -1 12 18 19 26 -9 17 -10 -4 -7 -3 -12 28 -16 -13 -26 27 -2 -23 -30
right_child=1 2 11 4 6 8 -8 15 16 -11 21 24 -14 -15 23 -17 -18 -19 -20 -21 -22 22 -24 -25 25 -27 -28 -29 29 -31
leaf_value=-0.054326805347308396 -0.012662495164843971 0.0040885741238789707 0.064469365052779393 0.013069666229228661 0.070486978933536323 0.012420661008539171 0.039194028875322924 -0.0207571845798417 -0.029869560492225736 0.050714415975494767 -0.049482903716031465 -0.051723711089410575 0.053021178841100185 -0.01747312982365197 -0.035001643222907601 0.015808261318943338 -0.046950626458452466 0.00016767971310880676 -0.039475596723497507 0.070079824110944336 0.054987633607096513 0.032257912115650794 -0.054453218994509403 -0.053805471541866504 0.034390733552179691 -0.054218322845744432 -0.053522228245735395 0.059817744726264235 -0.0169669355550848 0.057168267911215258
leaf_weight=30548.536203876138 301.28713001310825 470.47282893955708 110.93497286736965 2822.4559829682112 24768.677329793572 555.60761028528214 5340.5033684521914 1418.4943919479847 2023.2974640578032 2886.8965499401093 1768.5156303793192 2798.7602654695511 431.30350588262081 463.07017433643341 9404.6550304144621 2456.9886313527822 989.6148307621479 3615.5379026830196 997.85953544080257 766.77735342085361 3037.4355647265911 405.64439156651497 739.88825663924217 2718.8082033544779 216.65984565019608 219.26222616434097 138.1948503702879 239.0180586874485 871.25614462792873 100.70216152071953
leaf_count=202480 1462 1300 321 7184 51889 2067 12136 4351 9389 5950 11655 17243 1354 2413 53138 5971 6051 14107 4110 2253 6700 1278 3449 18123 853 1222 873 871 3505 352
internal_value=0 0.0235912 0.0449933 0.0536358 0.0597095 -0.0248064 0.0649395 0.0241626 -0.00638906 0.0321156 -0.0517914 -0.0331933 -0.00597559 0.0294695 -0.0369081 0.00242087 -0.016054 -0.0106169 -0.0289785 0.0459093 0.0481674 -0.0318425 -0.0170766 -0.0392268 -0.0461406 -0.0102224 0.00451616 0.0195034 0.00304768 -0.00918435
internal_weight=0 69192.6 47976.7 43201.9 35818.5 21215.9 30109.2 7383.39 8413.91 5709.35 34434.5 4774.78 1540.1 1785.46 12802 3875.48 6628.45 5638.84 1108.79 1322.38 3507.91 3886.01 2117.49 12123.5 3234.68 435.922 678.5 540.305 1377.6 971.958
internal_count=454050 231331 120584 95481 77159 110747 64025 18322 36280 13134 222719 25103 5785 6733 74467 10322 29547 23496 4431 4320 8000 20239 8584 71261 19318 2075 3206 2333 5135 3857
shrinkage=0.1


Tree=18
num_leaves=31
num_cat=0
split_feature=3 4 3 6 4 1 2 2 3 2 1 3 3 6 6 2 3 3 2 3 4 1 6 2 2 1 6 3 1 1
split_gain=8667.75 1398.83 837.095 498.291 291.497 291.113 275.863 266.952 218.775 179.029 163.936 145.339 142.023 119.73 115.953 115.74 102.756 93.0028 87.0325 81.5735 72.0865 67.4462 67.3675 79.3394 65.4003 54.7047 52.8776 51.2935 47.8049 47.2939
threshold=330.84451293945318 2.0705000162124638 219.68599700927737 33.500000000000007 2.6684999465942387 394.32749938964849 90.982002258300795 40.635000228881843 431.40800476074224 77.84650039672853 472.85050964355474 464.84349060058599 508.59750366210943 38.500000000000007 36.500000000000007 94.462497711181655 417.90901184082037 132.50600433349612 77.039501190185561 290.20150756835943 2.7695000171661381 383.85949707031256 25.500000000000004 96.622001647949233 49.294498443603523 418.53950500488287 25.500000000000004 265.65800476074224 337.03349304199224 393.57051086425787
decision_type=2 2 2 2 2 2 2 2 2 2 2 2 2 2 2 2 2 2 2 2 2 2 2 2 2 2 2 2 2 2
left_child=2 5 10 8 9 7 12 11 22 26 13 14 24 17 -2 25 18 21 -9 -11 -8 -1 -3 -24 -5 28 27 -4 -6 -21
right_child=1 3 4 6 15 -7 20 16 -10 19 -12 -13 -14 -15 -16 -17 -18 -19 -20 29 -22 -23 23 -25 -26 -27 -28 -29 -30 -31
leaf_value=-0.058851460600736094 -0.0029603619800667958 0.02849883098668032 -0.026025637447220962 -0.066506776884172142 -0.0034593161547261512 0.050331367282320287 0.026467336832099023 0.013595505536550657 0.042110551219984145 -0.0046585774236357963 0.018424284140401516 0.038518439885358996 0.019127145554615053 -0.019723616577797025 -0.068912408286298174 -0.0051037543584995871 0.042938625170306888 -0.035733905713898666 0.035581267533603217 0.0099545780860892871 -0.026556949669860316 -0.043447827439862169 -0.0058263796099843872 0.028001522619251193 -0.03383796685639591 0.012653594706429794 -0.022059367115507884 0.011014710534861746 -0.042729296182056981 0.036157012255972829
leaf_weight=3984.7011434435844 929.52661424875259 1155.2661674171686 561.03306315839291 803.02732895314693 333.91771902143955 17062.70262016356 1217.499038875103 2825.1320989578962 2687.6499204039574 3655.0942543745041 482.77041149139404 571.73127761483192 433.8037381619215 2582.467050537467 371.88284733891487 1392.0338009148836 10055.539275765419 11737.760616078973 4980.3880170583725 2829.8326565474272 322.91458390653133 10140.667784690857 3316.2569700032473 874.46200777590275 2621.8272877782583 205.38196292519569 4843.2542203515768 1110.7672227174044 4392.2934188097715 909.62770459055901
leaf_count=9771 4160 4734 1744 2121 997 124441 4962 15208 14568 14187 2212 3468 2535 7775 1263 4660 65805 34993 28979 12524 994 28451 11547 3516 7789 849 17533 4607 12085 5572
internal_value=0 0.0306809 -0.0283835 0.00306008 -0.0127788 0.0407631 -0.0204294 0.032486 0.0188476 -0.00468423 -0.0392961 -0.00342566 -0.0347063 -0.040277 -0.0218832 -0.0305769 0.0362521 -0.0423275 0.0276293 0.00596421 0.0153319 -0.0478008 0.00714093 0.00124236 -0.0415322 -0.0377621 -0.0167683 -0.00143176 -0.0399574 0.0163443
internal_weight=0 50229.6 49161.6 13432.7 20233.2 36796.9 5399.07 19734.2 8033.64 13909.6 28928.4 1873.14 3858.66 28445.6 1301.41 6323.63 17861.1 25863.1 7805.52 7394.55 1540.41 14125.4 5345.99 4190.72 3424.85 4931.59 6515.05 1671.8 4726.21 3739.46
internal_count=454050 296090 157960 52766 74758 243324 18401 118883 34365 56167 83202 8891 12445 80990 5423 18591 109992 73215 44187 32283 5956 38222 19797 15063 9910 13931 23884 6351 13082 18096
shrinkage=0.1


Tree=19
num_leaves=31
num_cat=0
split_feature=5 3 3 3 2 2 3 5 5 3 1 3 3 1 5 4 1 3 1 2 1 4 3 2 2 2 4 1 1 2
split_gain=8750.83 1696.91 935.62 544.921 388.858 382.207 233.015 219.898 217.378 179.796 167.86 151.302 111.391 84.6974 73.5133 73.1759 72.3305 69.2278 51.3808 50.7914 42.985 42.8652 42.1664 37.577 34.0008 37.965 33.8114 31.8849 31.2699 27.1942
threshold=2.2944999933242802 282.67649841308599 238.12249755859378 496.82200622558599 95.353496551513686 40.635000228881843 440.07949829101568 2.9765000343322758 1.9595000147819521 234.54899597167972 472.85050964355474 417.90901184082037 159.80300140380862 338.12651062011724 2.836499929428101 1.7024999856948855 381.52850341796881 345.07649230957037 394.32749938964849 85.359001159667983 396.20100402832037 4.5565001964569101 364.55551147460943 26.602499961853031 118.07799911499025 47.31050109863282 1.6405000090599062 390.31550598144537 385.85899353027349 70.375499725341811
decision_type=2 2 2 2 2 2 2 2 2 2 2 2 2 2 2 2 2 2 2 2 2 2 2 2 2 2 2 2 2 2
left_child=1 9 10 4 7 6 20 13 17 24 12 -9 16 -4 22 29 -2 -7 -17 -14 23 -18 -6 -3 25 -1 -11 -19 -21 -10
right_child=2 5 3 -5 14 8 -8 11 15 26 -12 -13 19 -15 -16 18 21 27 -20 28 -22 -23 -24 -25 -26 -27 -28 -29 -30 -31
leaf_value=0.023492561486484473 0.053179613429992369 0.053053553895088978 -0.017727275056039087 -0.038718230871744162 -0.010089318660530857 -0.030813544538901474 -0.037208572767388398 0.038951815163062363 0.025811627543625731 0.02384693140653325 -0.026355753832875764 0.001748580684122034 0.034785496825438418 0.014796788498318177 0.0052280275088236391 -0.028154413795415913 0.040578629753238338 -0.044768510888962831 -0.04575121155480355 0.027776172694041552 -0.019533967081757562 0.017197633996037829 -0.035199965076435781 0.016470549439437578 -0.019749925527989157 0.056028516068163781 -0.0079517955126903253 -0.051926503869391488 0.0079169986378520418 -0.013611602161471371
leaf_weight=455.51557165384293 5058.3660756200552 397.13289399445057 883.98353187739849 2008.0356123298407 2059.4716343581676 2305.538343295455 1250.9398531466722 7695.9523117095232 253.58571733534336 499.28410631418228 405.55955164134502 1274.3110057264566 7046.6573135405779 8342.2230296730995 2364.157751172781 6507.8219130784273 12671.054740220308 10831.493305146694 2237.4115316271782 1953.2144894599915 228.0749648809433 840.19441449642181 990.13872376084328 957.60464684665203 72.523303061723709 1760.7470614910126 1002.4314645081758 15147.704625993967 1337.3013433367014 552.78199277818203
leaf_count=1345 12554 1298 3074 12085 8089 13842 7807 21637 1236 1858 1965 4789 20631 29043 7796 33616 36053 72465 15113 6036 1361 2674 3828 3932 242 5095 4241 112200 5157 2988
internal_value=0 -0.0344467 0.0252286 0.0112671 0.0155212 -0.040411 -0.00498413 0.0225207 -0.0430638 0.0295339 0.0374291 0.0336683 0.0383257 0.0116774 -0.00800473 -0.0300086 0.0429606 -0.0474701 -0.0326659 0.029993 0.0204985 0.0391274 -0.0182599 0.027257 0.0471631 0.0493685 0.00263817 -0.0489458 0.0197149 -0.00118064
internal_weight=0 44460.6 54930.6 25618.3 23610.2 40670.1 2833.75 18196.5 37836.3 3790.5 29312.3 8970.26 28906.8 9226.21 5413.77 9551.6 18569.6 28284.7 8745.23 10337.2 1582.81 13511.2 3049.61 1354.74 2288.79 2216.26 1501.72 25979.2 3290.52 806.368
internal_count=454050 278639 175411 90341 78256 265858 14398 58543 251460 12781 85070 26426 83105 32117 19713 52953 51281 198507 48729 31824 6591 38727 11917 5230 6682 6440 6099 184665 11193 4224
shrinkage=0.1


Tree=20
num_leaves=31
num_cat=0
split_feature=5 3 3 3 2 5 3 5 6 3 3 2 1 6 2 6 3 6 1 3 1 6 2 6 3 2 6 3 5 6
split_gain=7455.91 1443.44 802.43 461.494 358.268 355.89 195.426 173.887 163.219 200.605 161.349 137.009 135.008 115.903 109.921 103.625 102.531 100.442 66.1287 62.1678 60.3627 53.3099 51.8785 51.1753 51.114 50.6754 56.9825 41.9982 40.9637 36.5726
threshold=2.2565000057220463 287.69049072265631 238.12249755859378 496.82200622558599 40.635000228881843 2.7615000009536748 438.87150573730474 1.9595000147819521 33.500000000000007 395.02999877929693 234.54899597167972 95.353496551513686 472.85050964355474 31.500000000000004 100.00049972534181 38.500000000000007 132.50600433349612 36.500000000000007 385.21350097656256 363.09849548339849 387.85099792480474 33.500000000000007 72.147502899169936 37.500000000000007 380.69000244140631 59.020000457763679 40.500000000000007 364.55551147460943 1.3125000000000002 39.500000000000007
decision_type=2 2 2 2 2 2 2 2 2 2 2 2 2 2 2 2 2 2 2 2 2 2 2 2 2 2 2 2 2 2
left_child=1 10 12 5 6 11 17 19 9 -7 21 13 15 -4 -10 16 18 24 -2 -6 -18 -1 -9 -5 -3 -17 -27 -13 -19 -25
right_child=2 4 3 23 7 8 -8 22 14 -11 -12 27 -14 -15 -16 25 20 28 -20 -21 -22 -23 -24 29 -26 26 -28 -29 -30 -31
leaf_value=-0.053108117375690628 -0.05283731142234302 -0.023352419740990754 0.0052986485782433659 0.044567194850656799 0.0340414619629376 -0.021676551714489709 0.035481457028861289 0.016524341363291364 -0.042915389078682309 0.019981118812776966 -0.0013448506070311284 0.010240431922741419 0.023683612553462033 -0.019729581302672092 -0.0027178184976284422 -0.036713790492394628 -0.035865630706019676 -0.015678099062472705 -0.037623760607507217 0.048590110980925 -0.022206811656961558 -0.017813657920544856 0.034697175031824429 -0.025265414676486561 0.019584104338881903 0.0019876321661253904 -0.04463773859974457 0.03523767315299766 -0.082449262441334922 0.039709383013055106
leaf_weight=1533.0882951021194 4167.8518227040768 581.91877330839634 3900.6658193320036 1612.2635768726468 3398.4173368811607 7291.3498322218657 1175.1310463547707 2124.2132304906845 4705.3466650545597 1372.0841885954142 1616.1213840842247 1974.1346713751554 405.32944330573082 3516.8329098448157 795.509630382061 769.33929002285004 7460.7773591279984 138.30318440496922 9231.8904191702604 22716.32057711482 5739.9311719834805 597.15351548790932 6093.0776808783412 201.61624289304018 525.97202751040459 1506.1246079951525 315.30970917642117 1019.1344702839851 278.40062123537064 148.78782859444618
leaf_count=4251 10360 2208 14939 10641 22227 21807 7781 11394 12740 5757 6708 8133 1994 12224 2776 2090 20874 552 26022 175810 18557 1829 37056 1041 2703 4807 989 4240 795 745
internal_value=0 0.0339635 -0.0222193 -0.00959185 0.0399476 -0.0133194 0.00486791 0.0427057 -0.0236353 -0.0150759 -0.0251776 0.000717641 -0.0335402 -0.00657002 -0.0371053 -0.0343364 -0.0361961 -0.0187441 -0.042363 0.0466996 -0.0299308 -0.0432403 0.0300046 0.0370477 -0.00296971 -0.0152289 -0.00612382 0.0187692 -0.0604688 0.00239283
internal_weight=0 40778.1 56134.3 26537.7 37031.8 24575.1 2699.73 34332 14164.3 8663.43 3746.36 10410.8 29596.6 7417.5 5500.86 29191.2 26600.5 1524.59 13399.7 26114.7 13200.7 2130.24 8217.29 1962.67 1107.89 2590.77 1821.43 2993.27 416.704 350.404
internal_count=454050 273314 180736 95043 260526 82616 14039 246487 43080 27564 12788 39536 85693 27163 15516 83699 75813 6258 36382 198037 39431 6080 48450 12427 4911 7886 5796 12373 1347 1786
shrinkage=0.1


Tree=21
num_leaves=31
num_cat=0
split_feature=5 3 3 3 2 5 3 5 6 3 3 2 6 6 2 3 6 4 2 3 6 2 6 6 3 3 5 6 2 2
split_gain=7455.91 1443.44 802.43 461.494 358.268 355.89 195.426 173.887 163.219 200.605 161.349 137.009 117.779 115.903 109.921 103.618 100.442 66.1639 64.6487 62.1678 53.3099 52.6531 62.3662 51.1753 51.114 41.9982 40.9637 36.5726 33.7221 31.3013
threshold=2.2565000057220463 287.69049072265631 238.12249755859378 496.82200622558599 40.635000228881843 2.7615000009536748 438.87150573730474 1.9595000147819521 33.500000000000007 395.02999877929693 234.54899597167972 95.353496551513686 38.500000000000007 31.500000000000004 100.00049972534181 109.29899978637697 36.500000000000007 1.7074999809265139 85.577503204345717 363.09849548339849 33.500000000000007 59.020000457763679 40.500000000000007 37.500000000000007 380.69000244140631 364.55551147460943 1.3125000000000002 39.500000000000007 118.07799911499025 77.039501190185561
decision_type=2 2 2 2 2 2 2 2 2 2 2 2 2 2 2 2 2 2 2 2 2 2 2 2 2 2 2 2 2 2
left_child=1 10 12 5 6 11 16 19 9 -7 20 13 15 -4 -10 -2 24 -9 -17 -6 28 -14 -23 -5 -3 -13 -18 -25 -1 -19
right_child=2 4 3 23 7 8 -8 17 14 -11 -12 25 21 -15 -16 18 26 29 -20 -21 -22 22 -24 27 -26 -27 -28 -29 -30 -31
leaf_value=0.055862522604946119 0.043386037680471667 0.023352419740990754 -0.0052986485782433659 -0.044567194850656799 -0.0340414619629376 0.021676551714489709 -0.035481457028861289 -0.0023847443136660717 0.042915389078682309 -0.019981118812776966 0.0013448506070311284 -0.010240431922741419 0.035024048136294929 0.019729581302672092 0.0027178184976284422 0.034677260317003383 0.015678099062472705 -0.023471878373348919 0.021015564695623837 -0.048590110980925 0.017813657920544856 -0.0041485902689043811 0.044509729173584769 0.025265414676486561 -0.019584104338881903 -0.03523767315299766 0.082449262441334922 -0.039709383013055106 -0.025960127805426409 -0.037401124090377449
leaf_weight=1482.0469886809587 10331.328992113471 581.91877330839634 3900.6658193320036 1612.2635768726468 3398.4173368811607 7291.3498322218657 1175.1310463547707 784.85905493795872 4705.3466650545597 1372.0841885954142 1616.1213840842247 1974.1346713751554 786.51434110105038 3516.8329098448157 795.509630382061 11681.817658230662 138.30318440496922 2395.1949830949306 4941.6762265563011 22716.32057711482 597.15351548790932 1539.4946019798517 315.7220035046339 201.61624289304018 525.97202751040459 1019.1344702839851 278.40062123537064 148.78782859444618 51.041306421160698 5037.2368733361363
leaf_count=4090 28203 2208 14939 10641 22227 21807 7781 4265 12740 5757 6708 8133 2194 12224 2776 33143 552 13326 16266 175810 1829 4895 992 1041 2703 4240 795 745 161 30859
internal_value=0 -0.0339635 0.0222193 0.00959185 -0.0399476 0.0133194 -0.00486791 -0.0427057 0.0236353 0.0150759 0.0251776 -0.000717641 0.0335402 0.00657002 0.0371053 0.0355153 0.0187441 -0.0300046 0.0306191 -0.0466996 0.0432403 0.0133764 0.00417113 -0.0370477 0.00296971 -0.0187692 0.0604688 -0.00239283 0.0531081 -0.0329198
internal_weight=0 40778.1 56134.3 26537.7 37031.8 24575.1 2699.73 34332 14164.3 8663.43 3746.36 10410.8 29596.6 7417.5 5500.86 26954.8 1524.59 8217.29 16623.5 26114.7 2130.24 2641.73 1855.22 1962.67 1107.89 2993.27 416.704 350.404 1533.09 7432.43
internal_count=454050 273314 180736 95043 260526 82616 14039 246487 43080 27564 12788 39536 85693 27163 15516 77612 6258 48450 49409 198037 6080 8081 5887 12427 4911 12373 1347 1786 4251 44185
shrinkage=0.1


Tree=22
num_leaves=31
num_cat=0
split_feature=0 3 0 0 5 0 6 1 0 6 3 0 3 3 0 3 0 6 0 3 5 6 3 6 0 6 3 6 6 6
split_gain=10661.4 6227.14 840.252 828.126 819.087 719.441 436.212 376.346 363.135 286.247 168.983 161.212 157.125 125.639 124.977 124.645 88.8202 88.647 104.519 88.3714 81.3914 78.7301 160.134 72.2181 97.3645 71.2076 53.9101 49.8437 42.227 39.3343
threshold=1290.3125000000002 364.55551147460943 1310.3125000000002 1369.6875000000002 1.9514999985694887 1389.5625000000002 33.500000000000007 345.56500244140631 1324.3125000000002 31.500000000000004 208.18900299072268 1384.0625000000002 299.77050781250006 302.05250549316412 1280.3125000000002 436.45100402832037 1301.3125000000002 39.500000000000007 1349.0625000000002 304.37600708007818 3.8815000057220463 31.500000000000004 128.30749511718753 37.500000000000007 1404.3125000000002 40.500000000000007 299.77050781250006 21.500000000000004 35.500000000000007 21.500000000000004
decision_type=2 2 2 2 2 2 2 2 2 2 2 2 2 2 2 2 2 2 2 2 2 2 2 2 2 2 2 2 2 2
left_child=14 2 6 7 15 8 12 19 -6 -10 27 -12 20 -9 -1 17 28 -3 -19 -4 -2 22 29 -7 -25 -18 -24 -5 -8 -16
right_child=1 4 3 10 5 23 16 13 9 -11 11 -13 -14 -15 21 -17 25 18 -20 -21 -22 -23 26 24 -26 -27 -28 -29 -30 -31
leaf_value=0.053723330486990621 -0.047294041018588084 0.0284775527200129 -0.035753608094894626 -0.1131584047775597 0.02909704160751074 0.050625133946018946 0.010662000529529194 -0.062971959513404716 0.0010183350599952603 -0.039885700502560677 -0.030948139169671891 0.024723077632816635 0.0037571699486340232 -0.045348924147154142 -0.17021152174024753 0.045721205681448399 0.0098422870710478064 0.028608026826532941 -0.077912285835931391 0.0020458896793771825 -0.021068393368123526 0.050990986328773746 0.011151492418912539 -0.027049059812188855 0.053778102766051411 -0.1103760152131905 0.049923190977462457 0.04581341965848508 0.058571938551310591 -0.030138141185084732
leaf_weight=26096.261974178255 3086.0974892824888 2923.0942267552018 1430.6255330890417 18.470315992832184 1655.4688285291195 2491.7675895690918 253.41326528787613 22775.222932875156 2922.5530813112855 4124.0556333661079 1806.3533672988415 728.47409610450268 1149.6374401003122 4951.1930019110441 19.377909719944 8255.1030800715089 1228.6012928634882 186.27740055322647 178.73141448199749 1088.0180396437645 1927.2249853909016 1384.4073811993003 602.14427453279495 308.79432412236929 284.49929817765951 49.329006150364876 889.99464208632708 660.31528687477112 679.36869937181473 362.84285515546799
leaf_count=202480 7047 18912 3115 41 6734 18373 860 50114 9091 10933 4291 3129 4391 12391 50 64387 3163 1012 696 3044 4080 8176 2112 1266 1835 116 6922 1820 2393 1076
internal_value=0 -0.0211632 -0.0442485 -0.0513384 0.02023 0.00168655 -0.0159138 -0.0564663 -0.0130244 -0.0229254 -0.00307222 -0.0149421 -0.0295813 -0.0598285 0.0514158 0.0391616 0.0221804 0.0226755 -0.0236914 -0.0194361 -0.0372248 0.032915 0.0195239 0.0431634 0.0117601 0.00503656 0.034313 0.0411679 0.0456067 -0.0380887
internal_weight=0 65162.7 41832.3 33458.7 23330.3 11787.1 8373.67 30245.1 8702.08 7046.61 3213.61 2534.83 6162.96 27726.4 29355 11543.2 2210.71 3288.1 365.009 2518.64 5013.32 3258.77 1874.36 3085.06 593.294 1277.93 1492.14 678.786 932.782 382.221
internal_count=454050 233234 99995 77945 133239 48232 22050 68664 26758 20024 9281 7420 15518 62505 220816 85007 6532 20620 1708 6159 11127 18336 10160 21474 3101 3279 9034 1861 3253 1126
shrinkage=0.1


Tree=23
num_leaves=31
num_cat=0
split_feature=5 5 5 4 2 4 5 6 2 2 4 1 1 2 1 4 1 2 5 1 2 6 2 2 1 4 1 6 6 2
split_gain=6314.87 492.388 379.69 329.467 235.513 226.914 139.559 104.826 101.117 88.5773 69.4699 66.3745 60.9448 56.65 63.6818 55.4557 55.0527 53.2377 52.1894 48.6324 62.3874 47.6744 44.2729 42.4045 40.6774 38.8908 35.2742 34.5818 32.5638 30.5121
threshold=2.2434999942779545 2.9154999256134038 1.9204999804496767 1.7024999856948855 40.635000228881843 2.0375000238418584 2.5164999961853032 36.500000000000007 102.56250000000001 72.147502899169936 1.4754999876022341 483.90150451660162 338.12651062011724 14.397500038146974 327.33500671386724 1.0435000061988833 407.76249694824224 33.746500015258796 1.4095000028610232 349.80850219726568 34.93700027465821 33.500000000000007 96.622001647949233 79.619503021240249 392.43750000000006 1.6165000200271609 401.51850891113287 23.500000000000004 39.500000000000007 83.019496917724624
decision_type=2 2 2 2 2 2 2 2 2 2 2 2 2 2 2 2 2 2 2 2 2 2 2 2 2 2 2 2 2 2
left_child=2 5 4 25 7 29 23 19 11 -5 24 13 -8 21 -15 18 -17 -12 -6 20 -1 -3 -14 28 -9 -4 -11 -10 -7 -2
right_child=1 8 3 9 15 6 12 10 27 26 17 -13 22 14 -16 16 -18 -19 -20 -21 -22 -23 -24 -25 -26 -27 -28 -29 -30 -31
leaf_value=0.034819901959340697 0.029307206141212089 -0.036373841655331522 0.030348596223383918 -0.011563932589080119 -0.023331196266582963 -0.0061866057566455357 -0.019786614426914834 0.026466455626883684 -0.016468401606911109 -0.028167445584563272 0.024678425714311426 -0.023850732276200326 0.013881133190672907 0.0010417925401316297 0.029802523440711583 -0.039021171760711994 -0.048852603397592287 0.12857531733452815 0.065228991148094675 -0.034387387111408339 -0.042967709324207327 0.048331348531434483 -0.0040769030033746354 -0.021953005641581008 -0.032458990978279062 0.0030475389499700686 -0.045448878279842383 0.014229742559708027 0.047473738393241809 0.013273724143009469
leaf_weight=269.25654621422291 3730.1886513605714 235.42130790650845 1144.9484864249825 3024.725281663239 484.00398433953524 2242.5356222689152 742.0077305957675 302.48849963396788 412.54206368327141 5058.4643282443285 106.2221784889698 240.69625831395388 6514.8945638015866 788.96744994819164 32045.144066773355 13658.796182520688 9880.3999376222491 92.035925313830376 75.143038116395473 1071.0263561606407 164.34696751832962 90.354452818632126 1738.2398695424199 2628.4509037211537 188.43435825407505 958.17654422670603 1550.6038659512997 3213.9134363755584 117.10089303553104 1748.1889152079821
leaf_count=1210 12361 1086 4381 15512 3534 8810 2598 1123 1231 29898 371 1266 21912 2522 95104 103656 85822 277 272 6702 904 267 6254 11445 1062 4739 12151 10601 337 6642
internal_value=0 0.0198292 -0.0328805 -0.0179208 -0.0395567 0.00695036 0.000190737 -0.00818018 0.0265976 -0.0257483 0.0240731 0.0283196 0.00762972 0.0286997 0.0291115 -0.0424122 -0.0431516 0.0737121 -0.0112396 -0.0229658 0.00527447 -0.0127292 0.0100988 -0.0132219 0.00380876 0.017925 -0.0322345 0.0107304 -0.00348567 0.0241975
internal_weight=0 56488.6 38029.1 11736.9 26292.2 19461.6 13983.2 2193.81 37027 9633.79 689.181 33400.6 8995.14 33159.9 32834.1 24098.3 23539.2 198.258 559.147 1504.63 433.604 325.776 8253.13 4988.09 490.923 2103.13 6609.07 3626.46 2359.64 5478.38
internal_count=454050 182436 271614 66681 204933 70359 51356 11649 112077 57561 2833 100245 30764 98979 97626 193284 189478 648 3806 8816 2114 1353 28166 20592 2185 9120 42049 11832 9147 19003
shrinkage=0.1


Tree=24
num_leaves=31
num_cat=0
split_feature=0 3 0 0 3 6 1 0 0 2 3 3 0 0 0 6 6 3 0 2 6 3 1 0 2 3 6 0 6 1
split_gain=9825.31 5421.6 799.362 830.531 627.873 392.154 358.979 285.234 383.993 231.914 149.802 147.895 163.15 125.573 123.57 106.111 90.3302 88.4552 84.3789 81.4283 77.2019 143.908 66.7465 78.5093 65.2282 86.0018 64.7326 60.5963 58.0224 56.5034
threshold=1290.3125000000002 371.48149108886724 1310.3125000000002 1369.6875000000002 454.24899291992193 33.500000000000007 353.83949279785162 1325.1875000000002 1386.1875000000002 97.437000274658217 256.00099182128912 208.18900299072268 1384.0625000000002 1280.3125000000002 1357.0625000000002 25.500000000000004 38.500000000000007 321.74800109863287 1300.3125000000002 23.313500404357914 31.500000000000004 295.24150085449224 385.21350097656256 1404.3125000000002 62.816501617431648 128.30749511718753 40.500000000000007 1393.0625000000002 37.500000000000007 381.52850341796881
decision_type=2 2 2 2 2 2 2 2 2 2 2 2 2 2 2 2 2 2 2 2 2 2 2 2 2 2 2 2 2 2
left_child=13 2 5 6 7 10 17 -3 9 -9 15 -5 -13 -1 -8 -2 27 -4 -7 -12 21 24 23 -18 -15 -26 -20 29 -10 -6
right_child=1 4 3 11 16 18 14 8 28 -11 19 12 -14 20 -16 -17 22 -19 26 -21 -22 -23 -24 -25 25 -27 -28 -29 -30 -31
leaf_value=0.053493196726062966 -0.055000571559674138 0.033031589887372564 -0.03663667871072554 0.040536042768545694 0.02631852387655946 0.047873776892195997 -0.059957754739403693 -0.025556535882505279 0.048135878076483646 0.019712537831664476 -0.1775555062641615 -0.027216153038388154 0.025958792661399978 0.038504830376165769 -0.036926976915799208 -0.02312526908735402 -0.017086199511171001 -0.0061170102427446785 0.011809407144707622 -0.0020600115710783726 0.05060494434135146 0.048990155940893232 0.043449182447645979 0.053611795671229048 -0.062342670168807582 0.0065948098282593258 -0.09820180359088955 0.053095898568347212 -0.0027898966107824082 0.045086992400831201
leaf_weight=24531.364320784807 1873.0862736701965 2502.7388066053391 2780.5809257775545 670.76673001050949 3222.5775708481669 814.66153054684401 23457.986419856548 5276.5785285383463 1283.5023879408836 1438.9083504155278 24.787943363189697 1974.5223958492279 813.07136213034391 235.39514909684658 2600.00457008183 2369.2335471957922 726.04928162693977 1443.070284947753 1366.2951143234968 2034.2576115429401 1329.7484040781856 850.0078305080533 500.19844634830952 198.28837802261114 304.62177765369415 440.76250700652599 53.673144400119781 2930.8666375428438 270.61361564695835 3218.5561993196607
leaf_count=202480 3877 14091 6216 1861 20367 3065 54240 19000 8642 6536 65 4736 3626 787 5789 5120 3549 4186 3596 6981 8176 7001 3839 1477 846 1526 132 25550 1452 25241
internal_value=0 -0.0202469 -0.0410608 -0.047977 0.0205494 -0.0137186 -0.0532788 0.00346708 -0.00548624 -0.0158539 -0.0264807 -0.00155006 -0.0116989 0.0510743 -0.0576628 -0.0372183 0.0375896 -0.026217 0.0222604 -0.00434297 0.0322773 0.0189248 0.0141029 -0.0018371 -0.00717844 -0.0216698 0.00751884 0.0411558 0.0392761 0.035708
internal_weight=0 63844.9 42276 33740 21568.9 8536 30281.6 10772.3 8269.6 6715.49 6301.37 3458.36 2787.59 27691.9 26058 4242.32 10796.5 4223.65 2234.63 2059.05 3160.54 1830.79 1424.54 924.338 980.779 745.384 1419.97 9372 1554.12 6441.13
internal_count=454050 233234 103490 80654 129744 22836 70431 49721 35630 25536 16043 10223 8362 220816 60029 8997 80023 10402 6793 7046 18336 10160 8865 5026 3159 2372 3728 71158 10094 45608
shrinkage=0.1


Tree=25
num_leaves=31
num_cat=0
split_feature=0 3 0 0 3 6 1 0 0 6 3 3 0 0 0 4 4 0 6 3 0 6 3 6 6 0 3 6 3 6
split_gain=9825.31 5421.6 799.362 830.531 627.873 392.154 358.979 285.234 383.993 189.006 149.802 147.895 163.15 125.573 123.57 112.416 102.977 176.524 148.644 88.4552 84.3789 77.2019 143.908 64.7326 58.0224 50.2686 49.6423 44.7507 43.2669 31.862
threshold=1290.3125000000002 371.48149108886724 1310.3125000000002 1369.6875000000002 454.24899291992193 33.500000000000007 353.83949279785162 1325.1875000000002 1386.1875000000002 34.500000000000007 256.00099182128912 208.18900299072268 1384.0625000000002 1280.3125000000002 1357.0625000000002 3.0815000534057622 1.778500020503998 1393.0625000000002 33.500000000000007 321.74800109863287 1300.3125000000002 31.500000000000004 295.24150085449224 40.500000000000007 37.500000000000007 1297.3125000000002 117.0379981994629 21.500000000000004 27.028999328613285 29.500000000000004
decision_type=2 2 2 2 2 2 2 2 2 2 2 2 2 2 2 2 2 2 2 2 2 2 2 2 2 2 2 2 2 2
left_child=13 2 5 6 7 10 19 -3 9 -9 15 27 -13 -1 -8 -2 -6 18 -18 -4 28 22 26 -22 -10 -12 29 -5 -7 -15
right_child=1 4 3 11 16 20 14 8 24 -11 25 12 -14 21 -16 -17 17 -19 -20 -21 23 -23 -24 -25 -26 -27 -28 -29 -30 -31
leaf_value=-0.053493196726062966 0.050602977475158253 -0.033031589887372564 0.03663667871072554 0.10348457221239889 -0.045463838387091476 0.075228272972982721 0.059957754739403693 0.0012241252247236641 -0.048135878076483646 0.035087061285835233 -0.020717617442175009 0.027216153038388154 -0.025958792661399978 0.015246879242360699 0.036926976915799208 0.017398831783437943 -0.027333456224348015 -0.04769486310489611 0.024434215588993502 0.0061170102427446785 -0.011809407144707622 -0.05060494434135146 -0.048990155940893232 0.09820180359088955 0.0027898966107824082 0.014064035080025168 -0.009628199928205617 -0.045058402869247824 -0.052099572360914642 0.078609229280266979
leaf_weight=24531.364320784807 2530.3713232129812 2502.7388066053391 2780.5809257775545 19.088915318250656 6545.0543491542339 25.921965777873993 23457.986419856548 3815.4134249389172 1283.5023879408836 2900.073454014957 574.8467716127634 1974.5223958492279 813.07136213034391 231.36830954253674 2600.00457008183 1711.9484976530075 1395.1839377433062 1938.3810450807214 917.91718173027039 1443.070284947753 1366.2951143234968 1329.7484040781856 850.0078305080533 53.673144400119781 270.61361564695835 1484.1987832933664 629.57302825152874 651.67781469225883 788.73956476897001 119.83809596300125
leaf_count=202480 5375 14091 6216 41 55351 64 54240 15788 8642 9748 2381 4736 3626 663 5789 3622 6148 15191 3333 4186 3596 8176 7001 132 1452 4665 2163 1820 3001 333
internal_value=0 0.0202469 0.0410608 0.047977 -0.0205494 0.0137186 0.0532788 -0.00346708 0.00548624 0.0158539 0.0264807 0.00155006 0.0116989 -0.0510743 0.0576628 0.0372183 -0.0375896 -0.0254518 -0.00678692 0.026217 -0.0222604 -0.0322773 -0.0189248 -0.00751884 -0.0392761 0.00434297 0.00717844 -0.040536 -0.0478738 0.03719
internal_weight=0 63844.9 42276 33740 21568.9 8536 30281.6 10772.3 8269.6 6715.49 6301.37 3458.36 2787.59 27691.9 26058 4242.32 10796.5 4251.48 2313.1 4223.65 2234.63 3160.54 1830.79 1419.97 1554.12 2059.05 980.779 670.767 814.662 351.206
internal_count=454050 233234 103490 80654 129744 22836 70431 49721 35630 25536 16043 10223 8362 220816 60029 8997 80023 24672 9481 10402 6793 18336 10160 3728 10094 7046 3159 1861 3065 996
shrinkage=0.1


Tree=26
num_leaves=31
num_cat=0
split_feature=0 5 0 0 1 6 0 2 5 0 5 0 6 2 6 0 2 6 5 6 5 0 6 0 6 1 2 5 2 1
split_gain=8610.8 3173.79 1794.16 707.936 423.265 298.906 275.755 265.565 244.518 206.032 182.123 130.189 113.222 99.2839 97.4793 97.373 78.0301 73.3407 74.3841 71.5682 69.6046 60.9624 59.3374 66.4978 60.1946 57.7387 53.979 52.4354 42.1782 25.1508
threshold=1290.3125000000002 2.0724999904632573 1379.8125000000002 1308.5625000000002 345.56500244140631 28.500000000000004 1383.0625000000002 40.635000228881843 2.9574999809265141 1391.9375000000002 1.7434999942779543 1280.3125000000002 34.500000000000007 50.518999099731452 22.500000000000004 1319.0625000000002 71.835498809814467 33.500000000000007 2.2204999923706059 36.500000000000007 2.6694999933242802 1312.9375000000002 38.500000000000007 1404.3125000000002 21.500000000000004 356.32099914550787 129.25350189208987 1.4704999923706057 62.816501617431648 520.14398193359386
decision_type=2 2 2 2 2 2 2 2 2 2 2 2 2 2 2 2 2 2 2 2 2 2 2 2 2 2 2 2 2 2
left_child=11 6 3 5 20 25 7 19 -6 12 29 -1 14 -7 -4 -12 -14 18 -13 27 -5 -21 24 -24 -11 -3 28 -2 -20 -9
right_child=1 2 9 4 8 13 -8 10 -10 22 15 17 16 -15 -16 -17 -18 -19 26 21 -22 -23 23 -25 -26 -27 -28 -29 -30 -31
leaf_value=0.053090153238199767 0.035781077358925995 0.0021480135357925712 -0.057993071496826289 0.0045224411905549567 -0.03688718569081223 0.044001743909571484 0.048562597405401663 0.031273971380394554 -0.055230679664725106 -0.048608605582919642 0.024356918044915125 0.045293081033696198 -0.057297424842804583 0.0017581847329436124 0.025438881646807434 -0.004627247030744114 0.0069468882078708967 0.053847245115860559 0.040947547108794669 0.012505265904271238 -0.024258692799530735 -0.070695936425187608 -0.026321833633804827 0.053021916558552665 0.052421540518644241 -0.036661122776868608 -0.10944032637130617 -0.020150664990863921 -0.0012410096289644794 -0.048786450648565502
leaf_weight=22356.826980374753 207.35377082228661 440.63908097893 152.49350814521313 1555.7082547843456 11709.291417971253 676.88012157380581 2800.8417941853404 6211.2386643067002 19243.165504992008 59.111105918884277 1765.4544867798686 745.95151124894619 423.90666119754314 3083.8758625015616 1505.0558286309242 3366.0211611911654 339.26347277313471 946.15971697121859 313.77865345776081 109.88440042734146 1823.8118505179882 430.70495188981295 236.19173458218575 187.87657325714827 2195.3055502921343 2935.7358896285295 37.492204502224922 839.98685701191425 949.12144485861063 37.787409409880638
leaf_count=202480 1284 1303 406 4408 26981 1781 26415 48400 44657 335 10227 7150 1074 8833 5807 15453 1002 6374 1243 399 3802 1168 882 1274 17626 6538 99 3039 3470 140
internal_value=0 -0.0186555 -0.0317855 -0.0386684 -0.0446254 -0.0100086 0.0201178 0.0139679 -0.0482942 0.0241824 0.0193136 0.0504666 0.00303198 0.00938074 0.0177026 0.00535019 -0.0287944 0.0308434 0.0201651 -0.02432 -0.0110149 -0.0538001 0.0432808 0.00891401 0.0497318 -0.031598 0.00570333 -0.00903014 0.00928928 0.0307744
internal_weight=0 62337.6 46568.3 41469.1 34332 7137.13 15769.3 12968.4 30952.5 5099.2 11380.5 25349.3 2420.72 3760.76 1657.55 5131.48 763.17 2992.5 2046.34 1587.93 3379.52 540.589 2678.48 424.068 2254.42 3376.37 1300.39 1047.34 1262.9 6249.03
internal_count=454050 233234 126709 98303 79848 18455 106525 80110 71638 28406 74220 220816 8289 10614 6213 25680 2076 18336 11962 5890 8210 1567 20117 2156 17961 7841 4812 4323 4713 48540
shrinkage=0.1


Tree=27
num_leaves=31
num_cat=0
split_feature=0 3 0 0 3 3 6 0 0 3 0 2 0 0 0 3 3 6 6 0 0 6 3 2 6 2 3 6 2 0
split_gain=8610.8 4501.41 676.193 688.805 623.46 384.098 322.6 269.045 440.783 242.771 238.209 212.051 177.96 164.342 130.189 121.654 96.8767 86.1254 84.3649 82.5986 76.6503 73.3407 112.081 69.7866 59.6321 58.2047 57.1655 53.087 47.664 47.254
threshold=1290.3125000000002 364.55551147460943 1311.1875000000002 1363.9375000000002 451.51899719238287 241.9465026855469 33.500000000000007 1337.1875000000002 1380.8125000000002 212.0620040893555 1345.5625000000002 95.03299713134767 1384.0625000000002 1355.1875000000002 1280.3125000000002 299.77050781250006 505.10499572753912 38.500000000000007 38.500000000000007 1301.3125000000002 1351.6875000000002 33.500000000000007 312.41648864746099 67.310497283935561 34.500000000000007 62.816501617431648 117.0379981994629 40.500000000000007 23.313500404357914 1393.0625000000002
decision_type=2 2 2 2 2 2 2 2 2 2 2 2 2 2 2 2 2 2 2 2 2 2 2 2 2 2 2 2 2 2
left_child=14 2 6 5 7 13 15 -3 11 18 -7 -9 -11 -4 -1 23 17 29 -5 -8 -19 22 25 -2 -10 -16 -27 -21 -17 -6
right_child=1 4 3 9 16 10 19 8 24 12 -12 -13 -14 -15 21 28 -18 20 -20 27 -22 -23 -24 -25 -26 26 -28 -29 -30 -31
leaf_value=-0.053090153238199767 0.017457674249531558 -0.024465554510529473 0.062640730618191559 -0.035803246982413627 -0.025485045759654941 0.024823796459222933 -0.04292830964815577 0.034569726169521892 -0.040947832089394426 0.033929858812072597 0.057010551045272612 -0.012496957784010219 -0.022660246269857551 0.016676954460954709 -0.039693640146417415 0.15694291685826345 -0.044593820676413848 -0.050767937641672048 0.093777849685144563 -0.0079552351815241045 0.022885330312614621 -0.053847245115860559 -0.048127412046091535 0.040851351542527239 -0.0071072217118929616 0.045432686764784291 -0.0067027584852992032 0.084425324229412346 -0.0059939462396251418 -0.052384070183264499
leaf_weight=22356.826980374753 2122.1783047765493 3592.8202499672771 16119.807060986757 1112.007943302393 3113.9632535651326 6718.0545730888844 865.45458909869194 4241.0783586576581 1427.7441934198141 2801.577845454216 3499.0352189540863 1234.9414755702019 691.57832586765289 819.14224153757095 287.556624956429 16.22811296582222 5675.3235410600901 183.61290203034878 50.733792513608932 1344.2623277753592 589.9732659086585 946.15971697121859 841.30152883380651 3211.4112544804811 820.54416363686323 323.13337714970112 594.35228312760592 63.222215354442596 1194.3376718685031 828.5530319288373
leaf_count=202480 4590 19293 38155 2924 21237 16124 3253 14055 9047 6454 8218 5339 3114 1751 1074 40 48787 1378 107 3463 2803 6374 7753 7107 3836 897 2238 141 4554 7464
internal_value=0 0.0186555 0.0382974 0.045089 -0.0181056 0.0511815 0.0137887 -0.00186553 0.00865007 0.0095469 0.0358558 0.0239547 0.0227195 0.0604202 -0.0504666 0.0250598 -0.0357887 -0.0251783 -0.0299979 -0.0186562 0.00531768 -0.0308434 -0.0201651 0.0315533 -0.0286145 -0.000595736 0.0117179 -0.00369172 -0.00355445 -0.0311618
internal_weight=0 62337.6 40629 31811.9 21708.6 27156 8817.09 11317.1 7724.31 4655.9 10217.1 5476.02 3493.16 16938.9 25349.3 6544.16 10391.4 4716.1 1162.74 2272.94 773.586 2992.5 2046.34 5333.59 2248.29 1205.04 917.486 1407.48 1210.57 3942.52
internal_count=454050 233234 99995 76847 133239 64248 23148 51570 32277 12599 24342 19394 9568 39906 220816 16291 81669 32882 3031 6857 4181 18336 11962 11697 12883 4209 3135 3604 4594 28701
shrinkage=0.1


Tree=28
num_leaves=31
num_cat=0
split_feature=0 5 0 0 5 0 2 0 0 1 5 0 4 1 0 4 0 5 1 2 2 1 5 0 2 4 1 0 2 4
split_gain=7560.44 2713.21 1488.03 624.903 379.427 257.457 235.071 232.512 195.425 193.862 163.84 135.142 125.068 94.7441 86.288 68.6297 61.2711 47.439 39.6565 36.6594 27.1643 26.6856 24.8942 22.7465 22.1661 18.9113 16.4919 15.671 12.3934 10.0942
threshold=1290.3125000000002 2.0724999904632573 1379.8125000000002 1312.9375000000002 2.9574999809265141 1383.0625000000002 40.635000228881843 1357.0625000000002 1391.9375000000002 340.45600891113287 1.7885000109672549 1280.3125000000002 1.6265000104904177 356.32099914550787 1305.9375000000002 1.0435000061988833 1315.5625000000002 2.2204999923706059 373.48449707031256 129.25350189208987 62.816501617431648 400.63549804687506 2.4995000362396245 1388.4375000000002 103.85950088500978 1.8245000243186953 415.23950195312506 1413.5625000000002 157.06600189208987 4.7534999847412118
decision_type=2 2 2 2 2 2 2 2 2 2 2 2 2 2 2 2 2 2 2 2 2 2 2 2 2 2 2 2 2 2
left_child=11 5 3 13 9 6 16 -6 18 -5 15 -1 -12 22 -15 -8 25 -13 24 20 -19 -18 -3 -20 -4 -2 -22 29 -21 -10
right_child=1 2 8 4 7 -7 10 -9 27 -11 12 17 -14 14 -16 -17 21 19 23 28 26 -23 -24 -25 -26 -27 -28 -29 -30 -31
leaf_value=0.052724389683272255 0.024205155886788968 0.029064027560550734 -0.012249130746907325 0.0059186133011276806 -0.057505634747401592 0.047955196661815094 -0.019064080761964648 -0.030273026139199927 0.037375582241989495 -0.033533867642759896 -0.026768921223254118 0.047002550809990676 0.012911433717008026 -0.0091635428581371588 -0.030577222793795569 0.030636664732896259 -0.038020075323643258 0.044191727056780254 0.010142129154746108 -0.081594432695055952 0.019955905293462927 0.0048193168578274555 0.00095971314905554737 0.048648874864252872 0.033604574007155434 -0.057079139622663491 -0.010833353115157377 0.053067161949820418 0.04466349927360079 -0.021447767025450218
leaf_weight=20362.491637945175 291.98753614723682 502.53380433470011 1292.899925775826 1398.5462350398302 14540.313374578953 2593.0602814331651 289.2409543171525 4006.6031549870968 1589.9051026776433 11338.765703245997 1034.0458816587925 994.08257347345352 3402.8218919858336 5032.7415559887886 3006.1510165482759 6359.2948189973831 1103.5504943057895 429.52103695273399 785.77094928175211 44.168359510600567 1160.3140731826425 166.94586092233658 840.14557436108589 189.15388584882021 112.84979700297117 29.808833688497543 203.27852866798639 879.86176190525293 8.0135388895869237 28.507331021130085
leaf_count=202480 1281 2049 4352 3700 36028 26415 1708 8485 11729 26365 3997 10290 17477 12755 6836 51038 3708 1982 2578 135 5153 791 2085 966 393 110 731 8225 45 163
