tree
version=v3
num_class=2
num_tree_per_iteration=2
label_index=0
max_feature_idx=8
objective=multiclass num_class:2
feature_names=Column_0 Column_1 Column_2 Column_3 Column_4 Column_5 Column_6 Column_7 Column_8
feature_infos=[1080.5:1484.75] [0.10000000149011612:40] [0.0010000000474974513:32700.939453125] [0:788.04498291015625] [-53:181.50599670410156] [-0.20100000500679016:865.16900634765625] [0.44699999690055847:33.345001220703125] [-0.8190000057220459:35.409999847412109] [21:41]
tree_sizes=3415 3348 3431 3400 3421 3407 3446 3441 3427 3443 3439 3433 3453 3432 3439 3436 3436 3452 3466 3443 3442 3438 3434 3445 3456 3446 3465 3451 3442 3453 3433 3452 3464 3463 3452 3456 3450 3460 3457 3443 3450 3446 3457 3455 3445 3448 3446 3462 3467 3456 3446 3456 3452 3453 3443 3472 3435 3448 3446 3460 3446 3453 3438 3453 3455 3475 3453 3460 3473 3438 3461 3465 3448 3455 3475 3465 3440 3454 3445 3437 3447 3462 3457 3455 3475 3469 3440 3455 3474 3483 3459 3327 3462 3451 3426 3439 3338 3446 3464 3468

Tree=0
num_leaves=31
num_cat=0
split_feature=1 5 5 3 3 2 3 3 5 4 2 1 2 3 2 5 4 5 4 1 3 4 3 4 5 3 4 3 5 5
split_gain=65949.9 10106.8 2701.62 2187.2 1629.71 1097.99 669.065 449.822 449.655 414.24 353.49 273.322 245.72 242.013 199.124 149.29 115.445 83.0511 66.4448 62.0747 51.1663 47.6989 41.2192 41.7337 39.4393 45.2094 37.5119 40.0666 36.2419 34.1586
threshold=0.10050000250339509 442.72599792480474 145.98049926757815 389.08949279785162 392.36999511718756 82.651000976562514 476.50300598144537 434.55049133300787 496.84548950195318 95.09650039672853 114.50550079345705 36.552499771118171 0.31149999797344213 381.28550720214849 0.0075000002980232247 345.74600219726568 82.766998291015639 239.192497253418 31.262999534606937 15.598499774932863 385.02449035644537 104.27700042724611 378.57800292968756 38.527999877929695 456.78498840332037 382.00050354003912 67.623500823974624 521.75350952148449 572.10501098632824 385.92649841308599
decision_type=2 2 2 2 2 2 2 2 2 2 2 2 2 2 2 2 2 2 2 2 2 2 2 2 2 2 2 2 2 2
left_child=14 2 4 5 13 12 11 10 18 -7 -5 -6 -4 16 -1 17 -2 26 -3 -15 -19 -9 23 29 -20 -26 27 -16 -10 -17
right_child=1 8 3 7 6 9 -8 21 28 -11 -12 -13 -14 19 15 22 -18 20 24 -21 -22 -23 -24 -25 25 -27 -28 -29 -30 -31
leaf_value=-0.163308555929112 -0.38161603480406192 -0.12597045560492778 -0.22620327941293356 -0.19177543012387149 -0.29780134733602359 -0.30622240192715888 -0.14010237440524972 -0.16278975242139623 -0.11804852689397471 -0.24423277305995827 -0.23497066491131977 -0.25797111666150963 -0.2592825294400698 -0.1105218691849575 -0.16423509731489222 -0.15989209838235818 -0.33653818965704674 -0.1132466469676299 -0.19673695205804681 -0.32574193937849355 -0.10000262525708023 -0.10972190496131082 -0.096691499324931388 -0.10093582540232371 -0.17604513417551021 -0.13566204997852827 -0.12720896638489254 -0.37576640055664595 -0.098538294917925498 -0.11302327760862346
leaf_weight=504.97959685325623 1874.2041002511978 346.77551364898682 3576.7347294092178 3020.3265606164932 4140.4898370504379 7036.408233165741 352.89796268939972 1031.5102143287659 2288.3265533447266 1285.7142984867096 5107.5918874740601 3007.5918666124344 6141.3061834573746 12.734694004058836 220.4081654548645 187.10204267501831 907.83674371242523 7147.8368057012558 524.326535820961 2770.2857418060303 4995.6735190153122 200.5714305639267 44974.775956988335 23328.490027666092 961.71429526805878 387.42857527732849 823.59184491634369 7.3469388484954825 1657.9592001438141 905.63266205787659
leaf_count=2062 7653 1416 14605 12333 16907 28732 1441 4212 9344 5250 20856 12281 25077 52 900 764 3707 29187 2141 11312 20399 819 183647 95258 3927 1582 3363 30 6770 3698
internal_value=-0.154151 -0.249326 -0.267498 -0.249642 -0.304924 -0.269994 -0.274442 -0.210399 -0.130075 -0.296669 -0.218933 -0.281076 -0.247125 -0.345952 -0.100738 -0.100355 -0.367048 -0.110125 -0.166069 -0.324727 -0.10779 -0.154093 -0.0984992 -0.101833 -0.173513 -0.164438 -0.13713 -0.172928 -0.109828 -0.121044
internal_weight=0 46632.7 40466.2 27400.2 13066 18040.2 7500.98 9360 6166.53 8322.12 8127.92 7148.08 9718.04 5565.06 83095.8 82590.9 2782.04 13194.9 2220.24 2783.02 12143.5 1232.08 69396 24421.2 1873.47 1349.14 1051.35 227.755 3946.29 1092.73
internal_count=529725 190417 165237 111884 53353 73664 30629 38220 25180 33982 33189 29188 39682 22724 339308 337246 11360 53879 9066 11364 49586 5031 283367 99720 7650 5509 4293 930 16114 4462
shrinkage=1


Tree=1
num_leaves=31
num_cat=0
split_feature=1 0 0 0 0 5 1 0 0 5 7 0 3 5 3 4 0 0 0 5 0 5 4 5 4 0 7 4 0 0
split_gain=65949.9 59586.3 50265.5 6669.16 3805.76 2499.77 1748.6 1364.16 593.206 347.59 329.882 525.681 255.509 241.857 140.013 129.778 101.485 94.4824 92.8388 226.642 90.8383 88.888 77.618 76.3843 75.9108 75.0805 71.6783 57.3399 56.7362 53.2078
threshold=0.10050000250339509 1293.6875000000002 1377.8125000000002 1308.9375000000002 1359.3125000000002 192.28549957275393 18.543000221252445 1386.4375000000002 1283.6875000000002 92.455001831054702 2.3665000200271611 1297.4375000000002 397.62449645996099 344.20550537109381 341.74549865722662 36.156499862670906 1381.0625000000002 1289.6875000000002 1300.3125000000002 377.13301086425787 1392.0625000000002 223.87449645996097 26.949000358581547 253.91249847412112 68.90649795532228 1378.9375000000002 3.1324999332427983 129.31099700927737 1310.9375000000002 1347.0625000000002
decision_type=2 2 2 2 2 2 2 2 2 2 2 2 2 2 2 2 2 2 2 2 2 2 2 2 2 2 2 2 2 2
left_child=10 8 3 9 6 -6 -5 14 -2 15 18 -12 -11 21 26 -3 -16 24 -1 22 -9 -13 -20 -24 -10 29 -4 -26 -23 -15
right_child=1 2 7 4 5 -7 -8 20 17 12 11 13 -14 25 16 -17 -18 -19 19 -21 -22 28 23 -25 27 -27 -28 -29 -30 -31
leaf_value=-2.0040748870102076 -2.0027109702183847 -1.9240961971079396 -1.8601411649644861 -1.7362852260095676 -1.9152797146792333 -1.7065331081892627 -1.6229062881847796 -1.9658099138142451 -1.9940819235546841 -1.8476384930024483 -2.002132229415011 -1.8538878470705693 -1.7737674321758454 -1.9736785437742754 -1.8631341522479721 -1.7418747223049897 -1.9184357479225715 -1.9170498856396503 -1.8599409410406438 -2.0004006241518346 -1.9988785556757473 -1.9664337633832125 -1.908886671664364 -1.9791760491184283 -1.9483320120569696 -1.9969134592492792 -1.6974450688181766 -1.818125993847491 -1.9153169035562143 -1.929951857872513
leaf_weight=46954.041282773018 15604.163420319557 41.877551436424255 61.959184288978577 1536.7347091436386 753.55102789402008 2409.7959423065186 12948.000128626823 979.34694850444794 452.32653510570526 1922.693896651268 4410.8571866750717 188.32653248310089 625.46939396858215 698.69388449192047 520.40816843509674 714.61225199699402 918.85715198516846 771.18368113040924 56.326531171798706 24489.306365728378 5592.979647397995 284.08163547515869 159.67347097396851 3740.5714657306671 694.04082322120667 750.61225235462189 51.183673977851868 33.551020741462708 903.42858040332794 459.91837191581726
leaf_count=191729 63717 171 253 6275 3077 9840 52871 3999 1847 7851 18011 769 2554 2853 2125 2918 3752 3149 230 99998 22838 1160 652 15274 2834 3065 209 137 3689 1878
internal_value=-1.94591 -1.85074 -1.76291 -1.68104 -1.65662 -1.75621 -1.6349 -1.97404 -1.99621 -1.81154 -1.99932 -1.97959 -1.82939 -1.9493 -1.88978 -1.75188 -1.89835 -1.94423 -2.00134 -1.99681 -1.99396 -1.91736 -1.97458 -1.97628 -1.96201 -1.97232 -1.7835 -1.94199 -1.92756 -1.95632
internal_weight=0 46632.7 29077.5 20952.7 17648.1 3163.35 14484.7 8124.73 17555.3 3304.65 83095.8 7695.92 2548.16 3285.06 1552.41 756.49 1439.27 1951.1 75399.9 28445.9 6572.33 1375.84 3956.57 3900.24 1179.92 1909.22 113.143 727.592 1187.51 1158.61
internal_count=529725 190417 118733 85557 72063 12917 59146 33176 71684 13494 339308 31425 10405 13414 6339 3089 5877 7967 307883 116154 26837 5618 16156 15926 4818 7796 462 2971 4849 4731
shrinkage=1


Tree=2
num_leaves=31
num_cat=0
split_feature=1 0 0 0 0 5 2 0 0 6 0 3 5 0 2 5 0 5 0 0 0 5 0 5 3 0 5 3 3 1
split_gain=49865.8 42784.7 29163.5 3324.65 2428.93 1355.1 698.535 662.731 527.561 309.029 478.509 239.171 228.348 223.418 117.41 116.125 95.699 220.91 80.3754 79.5454 78.0304 72.3248 67.2823 67.0005 69.7292 64.066 57.2512 51.1163 50.5481 55.4551
threshold=0.10050000250339509 1293.6875000000002 1379.9375000000002 1309.9375000000002 1365.3125000000002 216.10700225830081 0.01350000035017729 1386.4375000000002 1283.6875000000002 2.2065000534057622 1295.5625000000002 396.84150695800787 345.74600219726568 1300.3125000000002 0.0075000002980232247 291.99649047851568 1300.3125000000002 375.90148925781256 1392.0625000000002 1302.0625000000002 1289.6875000000002 250.38749694824222 1378.9375000000002 503.16999816894537 368.53150939941412 1310.9375000000002 485.90299987792974 334.79399108886724 398.05049133300787 31.264499664306644
decision_type=2 2 2 2 2 2 2 2 2 2 2 2 2 2 2 2 2 2 2 2 2 2 2 2 2 2 2 2 2 2
left_child=9 8 3 11 6 -6 -5 23 -2 14 -11 13 25 -3 19 -13 -16 21 27 -1 -10 -18 -14 24 -4 -12 -21 -9 29 -22
right_child=1 2 7 4 5 -7 -8 18 20 10 12 15 22 -15 16 -17 17 -19 -20 26 28 -23 -24 -25 -26 -27 -28 -29 -30 -31
leaf_value=0.04982307339588516 0.057196097704584073 -0.049387137412129106 -0.065850161128204909 -0.12818574460030038 0.0018629905865686865 -0.15469710895923339 -0.21805432146974679 -0.1020847154697294 0.019826373876042424 0.055921441351013658 0.0076066429458880938 -0.14931410403940223 0.0095754740695639159 -0.10809325878305945 0.057266261568524046 -0.030900972327030148 -0.035864081222667717 0.053349353890693674 0.052364712485820045 -0.089918541722958309 -0.031872090577546634 0.030245017160902627 0.050314044665698825 0.039333379206839769 -0.016510706318267239 -0.042971314091285219 0.047732525797120035 0.025624420672904061 -0.053654805168109346 0.030397014373941423
leaf_weight=123.05619506537914 16039.339257970452 963.05961951613426 518.98545828461647 916.35526552796364 709.02200523018837 2507.2172167003155 19108.732224494219 30.433353587985039 1264.751302421093 3609.4030291587114 338.26470820605755 1191.0002782046795 1004.6212468296289 2016.2390799820423 43540.329240888357 90.275478482246399 171.80261558294296 22696.826982930303 5382.3383290171623 120.96140916645527 296.64944814145565 3611.3989651501179 679.06531864404678 120.03054293990135 640.31646086275578 956.70328795909882 38.644076809287071 981.83368001878262 283.07440847158432 272.45989647507668
leaf_count=520 63717 3334 1914 3105 2543 8330 58595 120 4818 15865 1437 3998 4317 6874 193024 318 688 100320 22838 499 1099 15577 2985 491 2394 3913 163 3879 1067 983
internal_value=0 -0.0736613 -0.138008 -0.186102 -0.200993 -0.120204 -0.213955 0.0343588 0.0510041 0.052175 0.0314493 -0.10482 0.00177731 -0.0891623 0.0541162 -0.141032 0.0543759 0.0496194 0.0475015 -0.0101376 0.00407924 0.0272255 0.0260464 -0.0313051 -0.0386739 -0.0297683 -0.0564119 0.0215912 -0.0192832 -0.00205884
internal_weight=0 53332.1 35175.8 27501.9 23241.3 3216.24 20025.1 7673.94 18156.3 76891.1 6588.06 4260.57 2978.65 2979.3 70303 1281.28 70020.4 26480 6394.61 282.662 2116.94 3783.2 1683.69 1279.33 1159.3 1294.97 159.605 1012.27 852.184 569.109
internal_count=529725 190417 118733 87097 72573 10873 61700 31636 71684 339308 28517 14524 12652 10208 310791 4316 309609 116585 26837 1182 7967 16265 7302 4799 4308 5350 662 3999 3149 2082
shrinkage=0.1


Tree=3
num_leaves=31
num_cat=0
split_feature=0 5 0 7 0 0 7 7 5 0 5 5 0 0 0 5 4 5 0 0 7 4 7 5 0 0 3 3 7 6
split_gain=37409.6 56190 4330.75 3857.28 5862.33 3476.96 2283.14 1837.35 1219.09 649.788 862.891 594.08 575.597 411.154 395.44 504.329 385.944 385.195 292.671 288.958 259.172 206.583 176.685 170.645 159.947 152.034 157.074 130.723 77.8359 75.7985
threshold=1297.4375000000002 337.74349975585943 1369.3125000000002 2.1194999217987065 1381.0625000000002 1309.9375000000002 2.4565000534057622 2.5204999446868901 273.53450012207037 1287.6875000000002 260.88600158691412 260.88600158691412 1342.5625000000002 1357.3125000000002 1383.1875000000002 219.97499847412112 37.80799865722657 439.07000732421881 1324.5625000000002 1389.8125000000002 2.3515000343322758 28.273999214172367 2.4874999523162846 410.81199645996099 1381.0625000000002 1292.6875000000002 397.22050476074224 351.17050170898443 3.1324999332427983 3.092499971389771
decision_type=2 2 2 2 2 2 2 2 2 2 2 2 2 2 2 2 2 2 2 2 2 2 2 2 2 2 2 2 2 2
left_child=9 2 5 16 7 11 8 18 -7 -1 25 21 -9 -8 15 -4 17 24 -5 -6 -17 -2 -13 -18 -3 -11 -27 28 -16 -28
right_child=1 3 14 4 19 6 13 12 -10 10 -12 22 -14 -15 27 20 23 -19 -20 -21 -22 -23 -24 -25 -26 26 29 -29 -30 -31
leaf_value=-0.056864802910353743 -0.045685070206064049 0.089227497633662611 -0.014993264008444519 -0.013002983365622243 5.439303956573737e-05 0.1801702022475096 0.21669837915281531 0.07229608955180386 0.064283428202729212 0.0097450754405120042 -0.047652744609578544 0.0013738744594882675 0.16967594404853048 0.15740249806963069 -0.020309434806923113 0.0017295010192542835 -0.030925302721394911 -0.038465629191245687 0.056781933352076923 -0.051447409077664021 0.13672568045182026 0.1232062900607101 0.079529464606065969 -0.052188970858119722 -0.051858545560639006 0.035058183665071192 0.1640894215402347 -0.04671357013689717 0.13867815293264973 0.062470810033363827
leaf_weight=60253.602322742343 73.528406351804733 499.86362627148628 528.19272907078266 898.32207125425339 1359.3296251893044 1883.8770433664322 15040.517598763108 815.18103843927383 1756.7800301611423 835.91336163878441 3583.1091768890619 700.55862674117088 2426.4996227324009 1296.0610476583242 56.014201909303665 179.24837397038937 4673.773500919342 834.29013499617577 1809.7112774252892 5484.1445509195328 687.30655087530613 2613.044507920742 490.7595007121563 19849.090075924993 94.305176064372063 495.336186170578 193.89158225059509 622.44291952252388 65.18994989991188 123.30556596815586
leaf_count=259077 257 1886 1896 3740 5382 6101 46425 3079 6697 3128 15505 2843 8278 4368 226 679 19970 3613 7146 23384 2323 8844 1827 87170 390 1741 675 2401 244 430
internal_value=0 0.0532662 0.167003 -0.0230437 0.0218933 0.179223 0.196046 0.0944774 0.124316 -0.0539295 -0.0201139 0.0925009 0.145248 0.212014 0.030639 0.0620084 -0.0451962 0.00532512 0.03364 -0.0412205 0.10887 0.118553 0.0336491 -0.0481392 0.0667358 0.0397304 0.0704789 -0.0282042 0.0660655 0.125226
internal_weight=0 64738 25993.5 38744.5 12793.2 23855.1 19977.2 5949.71 3640.66 65485.2 5231.56 3877.89 3241.68 16336.6 2138.39 1394.75 25951.3 1428.46 2708.03 6843.47 866.555 2686.57 1191.32 24522.9 594.169 1648.45 812.533 743.647 121.204 317.197
internal_count=529725 249169 85131 164038 51009 77362 63591 22243 12798 280556 21479 13771 11357 50793 7769 4898 113029 5889 10886 28766 3002 9101 4670 107140 2276 5974 2846 2871 470 1105
shrinkage=0.1


Tree=4
num_leaves=31
num_cat=0
split_feature=1 0 0 0 8 0 0 0 8 8 7 7 0 8 8 8 0 8 0 1 4 8 0 7 0 7 8 8 4 4
split_gain=40257.4 29399.3 17525.7 1710.29 1297.1 1154.64 590.457 516.056 470.145 451.776 341.418 316.487 439.502 255.037 208.53 151.971 136.808 115.002 180.446 112.87 112.485 102.761 96.0499 95.1941 93.6506 121.191 85.8658 69.0469 68.0734 60.2586
threshold=0.10050000250339509 1293.6875000000002 1379.9375000000002 1307.9375000000002 28.500000000000004 1365.3125000000002 1386.4375000000002 1283.6875000000002 34.500000000000007 25.500000000000004 1.9754999876022341 2.3374999761581425 1295.5625000000002 34.500000000000007 33.500000000000007 33.500000000000007 1382.0625000000002 38.500000000000007 1404.5625000000002 20.234000205993656 68.90649795532228 21.500000000000004 1288.6875000000002 2.8494999408721928 1300.3125000000002 1.9474999904632571 21.500000000000004 23.500000000000004 51.388500213623054 70.076999664306655
decision_type=2 2 2 2 2 2 2 2 2 2 2 2 2 2 2 2 2 2 2 2 2 2 2 2 2 2 2 2 2 2
left_child=11 7 3 4 19 10 13 -2 -7 20 -5 24 -13 26 -6 28 23 21 -19 -3 22 -8 -9 -14 -1 -26 -4 -22 -11 -15
right_child=1 2 6 5 14 8 17 9 -10 15 -12 12 16 29 -16 -17 -18 18 -20 -21 27 -23 -24 -25 25 -27 -28 -29 -30 -31
leaf_value=0.056472797957490474 0.056133131207193855 -0.072947285817838478 -0.18064661446102218 -0.11007378228329544 -0.05840265276563035 -0.072850017441633816 -0.055812099196744305 0.038193822638159763 -0.15366295494002888 0.054822534489193102 -0.15778419478313016 0.054997712055475136 0.010765744042601933 -0.14447982099643547 0.0027223642198223926 0.053124396954684384 0.047345222409388051 -0.050878801729954716 0.056632666393459034 -0.14871936360191448 -0.078713432066425684 0.052575614376834168 -0.10237436347347864 -0.026659862871120949 0.051947524826422044 0.033874577165780323 0.0019573679568645214 -0.20507627097813624 -0.020362520098597774 -0.056392661827165604
leaf_weight=39414.583643302321 14778.068180188537 230.10119307041168 24.44750440120697 1623.2540925145149 1070.9497734904289 2685.5235177725554 87.403754621744156 83.899335458874702 986.40571434795856 145.29473315179348 23692.230076700449 3967.6757154166698 1964.6895765811205 175.08295214176178 1162.8378948271275 898.90781000256538 683.42885614931583 296.70352041721344 325.04832960665226 1640.2577008605003 79.831470876932144 5262.0614420175552 110.92135410010815 1036.5233020335436 19967.278449460864 4576.8579861074686 977.00337116420269 103.50394010543823 658.599993288517 145.5562752187252
leaf_count=190266 63717 759 79 4486 3307 8049 357 348 2824 565 59167 18959 7808 634 3633 3458 3184 1340 1515 4872 297 23625 406 3821 94580 20690 3565 387 2506 521
internal_value=0 -0.061344 -0.107646 -0.138571 -0.0780924 -0.147128 0.0326687 0.0495686 -0.094631 0.00294137 -0.154734 0.0511455 0.0319115 -0.027768 -0.026609 0.0249201 0.00703561 0.0460548 0.00532895 -0.139485 -0.0956371 0.0507845 -0.0420658 -0.00216901 0.0534457 0.0485804 -0.00285154 -0.151496 -0.00667136 -0.10509
internal_weight=0 57243.9 40384.9 33091.6 4104.15 28987.4 7293.31 16859 3671.93 2080.96 25315.5 71611 7652.32 1322.09 2233.79 1702.8 3684.64 5971.22 621.752 1870.36 378.156 5349.47 194.821 3001.21 63958.7 24544.1 1001.45 183.335 803.895 320.639
internal_count=529725 190417 118733 87097 12571 74526 31636 71684 10873 7967 63653 339308 33772 4799 6940 6529 14813 26837 2855 5631 1438 23982 754 11629 305536 115270 3644 684 3071 1155
shrinkage=0.1


Tree=5
num_leaves=31
num_cat=0
split_feature=1 0 0 0 8 0 0 0 8 8 2 0 8 2 8 8 2 8 0 4 0 8 0 3 0 8 8 4 4 4
split_gain=40257.4 29399.3 17525.7 1710.29 1297.1 1154.64 590.457 516.056 470.145 451.776 346.472 282.906 255.037 239.731 208.53 151.971 118.807 115.002 180.446 112.485 112.254 102.761 96.0499 94.599 86.551 85.8658 69.0469 68.0734 64.158 60.2586
threshold=0.10050000250339509 1293.6875000000002 1379.9375000000002 1307.9375000000002 28.500000000000004 1365.3125000000002 1386.4375000000002 1283.6875000000002 34.500000000000007 25.500000000000004 0.22850000113248828 1300.3125000000002 34.500000000000007 0.0075000002980232247 33.500000000000007 33.500000000000007 0.36650000512599951 38.500000000000007 1404.5625000000002 68.90649795532228 1382.0625000000002 21.500000000000004 1288.6875000000002 384.35299682617193 1376.6875000000002 21.500000000000004 23.500000000000004 51.388500213623054 37.80799865722657 70.076999664306655
decision_type=2 2 2 2 2 2 2 2 2 2 2 2 2 2 2 2 2 2 2 2 2 2 2 2 2 2 2 2 2 2
left_child=11 7 3 4 16 10 12 -2 -7 19 -5 -1 25 24 -6 27 -3 21 -19 22 23 -8 -9 28 -13 -4 -21 -11 -15 -14
right_child=1 2 6 5 14 8 17 9 -10 15 -12 13 29 20 -16 -17 -18 18 -20 26 -22 -23 -24 -25 -26 -27 -28 -29 -30 -31
leaf_value=-0.056183236905000961 -0.056133131207193855 0.059680974395928413 0.18064661446102218 0.11643304681642158 0.05840265276563035 0.072850017441633816 0.055812099196744305 -0.038193822638159763 0.15366295494002888 -0.054822534489193102 0.15834496492683725 0.076552333763956759 0.14447982099643547 -0.0030757506770959136 -0.0027223642198223926 -0.053124396954684384 0.14755430112369577 0.050878801729954716 -0.056632666393459034 0.078713432066425684 -0.055078439739791554 -0.052575614376834168 0.10237436347347864 -0.049098718600381092 -0.040625872131628021 -0.0019573679568645214 0.20507627097813624 0.020362520098597774 -0.036708624370448327 0.056392661827165604
leaf_weight=43622.915025189519 14778.068180188537 173.2869159579277 24.44750440120697 2186.8751000463963 1070.9497734904289 2685.5235177725554 87.403754621744156 83.899335458874702 986.40571434795856 145.29473315179348 23128.609069168568 223.80876541137695 175.08295214176178 595.62142743170261 1162.8378948271275 898.90781000256538 1697.0719779729843 296.70352041721344 325.04832960665226 79.831470876932144 7146.3826366662979 5262.0614420175552 110.92135410010815 7896.897507160902 85.984259560704231 977.00337116420269 103.50394010543823 658.599993288517 12039.427907630801 145.5562752187252
leaf_count=210267 63717 577 79 6243 3307 8049 357 348 2824 565 57410 822 634 2534 3633 3458 5054 1340 1515 297 34026 23625 406 37021 369 3565 387 2506 54269 521
internal_value=0 0.061344 0.107646 0.138571 0.0780924 0.147128 -0.0326687 -0.0495686 0.094631 -0.00294137 0.154734 -0.0511455 0.027768 -0.0432902 0.026609 -0.0249201 0.139485 -0.0460548 -0.00532895 0.0956371 -0.0442701 -0.0507845 0.0420658 -0.0405031 0.0439771 0.00285154 0.151496 0.00667136 -0.0351239 0.10509
internal_weight=0 57243.9 40384.9 33091.6 4104.15 28987.4 7293.31 16859 3671.93 2080.96 25315.5 71611 1322.09 27988.1 2233.79 1702.8 1870.36 5971.22 621.752 378.156 27678.3 5349.47 194.821 20531.9 309.793 1001.45 183.335 803.895 12635 320.639
internal_count=529725 190417 118733 87097 12571 74526 31636 71684 10873 7967 63653 339308 4799 129041 6940 6529 5631 26837 2855 1438 127850 23982 754 93824 1191 3644 684 3071 56803 1155
shrinkage=0.1


Tree=6
num_leaves=31
num_cat=0
split_feature=2 0 0 0 8 7 0 0 0 8 0 0 8 8 0 0 7 2 2 7 8 4 8 0 4 0 2 3 0 8
split_gain=31969.3 20974.7 11686.9 1278.55 898.508 792.119 946.106 714.996 632.153 527.618 336.923 292.796 292.19 262.373 248.164 179.03 242.51 126.531 120.395 118.498 99.2797 89.8443 89.4407 127.919 83.7514 81.1975 79.0767 75.0214 72.2066 69.5195
threshold=0.01049999985843897 1291.6875000000002 1378.9375000000002 1310.9375000000002 28.500000000000004 2.3665000200271611 1302.0625000000002 1358.3125000000002 1387.5625000000002 33.500000000000007 1280.6875000000002 1382.0625000000002 31.500000000000004 34.500000000000007 1301.1875000000002 1300.3125000000002 1.9614999890327456 18.681500434875492 0.0075000002980232247 3.4915000200271611 25.500000000000004 99.179500579833999 38.500000000000007 1404.5625000000002 60.69850158691407 1382.0625000000002 0.0075000002980232247 415.43350219726568 1384.1875000000002 21.500000000000004
decision_type=2 2 2 2 2 2 2 2 2 2 2 2 2 2 2 2 2 2 2 2 2 2 2 2 2 2 2 2 2 2
left_child=5 10 3 4 19 15 -7 17 13 -9 -2 21 20 28 -6 -1 18 -5 -17 -3 24 -8 29 -24 -12 26 -18 -22 -4 -10
right_child=1 2 8 7 14 6 11 9 22 -11 12 -13 -14 -15 -16 16 25 -19 -20 -21 27 -23 23 -25 -26 -27 -28 -29 -30 -31
leaf_value=0.055703137147944219 0.05632177108406388 -0.13154307545463073 -0.018021261379622216 -0.11234109526928822 0.0023123059373203465 0.051963051510493463 -0.039079407431151576 -0.065835198266506495 -0.038068779365564291 -0.13436101155069399 0.0073216625301423524 0.043336545295917399 0.049057077273546086 -0.086671320601453758 -0.055648645423479276 -0.027437620287126065 -0.05700815743696639 -0.1314498929422134 0.050402206045237208 -0.089745126712676385 0.0096176828693017961 -0.0019008264495091751 -0.036736549287261611 0.055854482714618237 -0.10000815548338821 0.052673167911018483 0.020911607022359006 -0.091230284147751181 0.03104316357828886 0.052295436478123875
leaf_weight=36852.63272048533 12384.455087170005 1402.9617770463228 801.98476132750511 4314.1342829167843 1231.0711950361729 4030.6808176338673 2408.2280614674091 3600.0276314020157 85.396215781569481 1637.8466949462891 102.67294844985008 670.79158467054367 1094.7843675166368 474.26549123227596 1844.3822410702705 199.64179912209511 133.01813128590584 20159.842388734221 18908.472293943167 1363.0757671296597 595.93762135505676 890.29155878722668 297.91202764213085 295.02123893797398 244.92948959767818 829.25715571641922 3769.9001063406467 82.147808507084846 476.44030521810055 4589.303560256958
leaf_count=193868 58001 3700 2727 9945 3937 20508 8470 9533 324 3978 408 3312 4676 1501 5051 712 409 44026 96059 3437 2410 3231 1256 1500 837 4182 17134 331 1867 22395
internal_value=0 -0.0538332 -0.0892155 -0.112496 -0.0696877 0.0474315 0.0178481 -0.120907 0.0286849 -0.0873058 0.0500159 -0.016803 0.0131688 -0.0233175 -0.0324611 0.0513302 0.0445662 -0.128091 0.0495861 -0.111025 -0.0251581 -0.0290519 0.0459898 0.00936615 -0.0684451 0.0242839 0.0182281 -0.00283208 0.000283875 0.0506291
internal_weight=0 57078.6 42573.7 35553.3 5841.49 68692.9 7999.99 29711.9 7020.32 5237.87 14504.9 3969.31 2120.47 1752.69 3075.45 60692.9 23840.3 24474 19108.1 2766.04 1025.69 3298.52 5267.63 592.933 347.602 4732.18 3902.92 678.085 1278.43 4674.7
internal_count=529725 181840 115177 83607 16125 347885 35521 67482 31570 13511 66663 15013 8662 6095 8988 312364 118496 53971 96771 7137 3986 11701 25475 2756 1245 21725 17543 2741 4594 22719
shrinkage=0.1


Tree=7
num_leaves=31
num_cat=0
split_feature=2 0 0 0 8 7 0 0 0 8 0 0 8 8 0 0 7 2 2 6 8 8 0 7 0 2 3 0 8 3
split_gain=31969.3 20974.7 11686.9 1278.55 898.508 792.119 946.106 714.996 632.153 527.618 336.923 292.796 292.19 262.373 248.164 179.03 242.51 126.531 120.395 120.089 99.2797 89.4407 127.919 81.9788 81.1975 79.0767 75.0214 72.2066 69.5195 53.1968
threshold=0.01049999985843897 1291.6875000000002 1378.9375000000002 1310.9375000000002 28.500000000000004 2.3665000200271611 1302.0625000000002 1358.3125000000002 1387.5625000000002 33.500000000000007 1280.6875000000002 1382.0625000000002 31.500000000000004 34.500000000000007 1301.1875000000002 1300.3125000000002 1.9614999890327456 18.681500434875492 0.0075000002980232247 2.9514999389648442 25.500000000000004 38.500000000000007 1404.5625000000002 2.7914999723434453 1382.0625000000002 0.0075000002980232247 415.43350219726568 1384.1875000000002 21.500000000000004 417.97399902343756
decision_type=2 2 2 2 2 2 2 2 2 2 2 2 2 2 2 2 2 2 2 2 2 2 2 2 2 2 2 2 2 2
left_child=5 10 3 4 19 15 -7 17 13 -9 -2 23 20 27 -6 -1 18 -5 -17 -3 29 28 -23 -8 25 -18 -22 -4 -10 -12
right_child=1 2 8 7 14 6 11 9 21 -11 12 -13 -14 -15 -16 16 24 -19 -20 -21 26 22 -24 -25 -26 -27 -28 -29 -30 -31
leaf_value=-0.055703137147944219 -0.05632177108406388 0.12886396408287801 0.018021261379622216 0.11234109526928822 -0.0023123059373203465 -0.051963051510493463 0.01514460963162746 0.065835198266506495 0.038068779365564291 0.13436101155069399 0.093635418190997591 -0.043336545295917399 -0.049057077273546086 0.086671320601453758 0.055648645423479276 0.027437620287126065 0.05700815743696639 0.1314498929422134 -0.050402206045237208 0.086254878756954825 -0.0096176828693017961 0.036736549287261611 -0.055854482714618237 0.046942683383063732 -0.052673167911018483 -0.020911607022359006 0.091230284147751181 -0.03104316357828886 -0.052295436478123875 0.0078720207067384928
leaf_weight=36852.63272048533 12384.455087170005 1603.1186664551497 801.98476132750511 4314.1342829167843 1231.0711950361729 4030.6808176338673 1857.9477927684784 3600.0276314020157 85.396215781569481 1637.8466949462891 244.73417486250401 670.79158467054367 1094.7843675166368 474.26549123227596 1844.3822410702705 199.64179912209511 133.01813128590584 20159.842388734221 18908.472293943167 1162.9188777208328 595.93762135505676 297.91202764213085 295.02123893797398 1440.5718274861574 829.25715571641922 3769.9001063406467 82.147808507084846 476.44030521810055 4589.303560256958 102.86826318502426
leaf_count=193868 58001 4186 2727 9945 3937 20508 6884 9533 324 3978 853 3312 4676 1501 5051 712 409 44026 96059 2951 2410 1256 1500 4817 4182 17134 331 1867 22395 392
internal_value=0 0.0538332 0.0892155 0.112496 0.0696877 -0.0474315 -0.0178481 0.120907 -0.0286849 0.0873058 -0.0500159 0.016803 -0.0131688 0.0233175 0.0324611 -0.0513302 -0.0445662 0.128091 -0.0495861 0.111025 0.0251581 -0.0459898 -0.00936615 0.0290519 -0.0242839 -0.0182281 0.00283208 -0.000283875 -0.0506291 0.0684451
internal_weight=0 57078.6 42573.7 35553.3 5841.49 68692.9 7999.99 29711.9 7020.32 5237.87 14504.9 3969.31 2120.47 1752.69 3075.45 60692.9 23840.3 24474 19108.1 2766.04 1025.69 5267.63 592.933 3298.52 4732.18 3902.92 678.085 1278.43 4674.7 347.602
internal_count=529725 181840 115177 83607 16125 347885 35521 67482 31570 13511 66663 15013 8662 6095 8988 312364 118496 53971 96771 7137 3986 25475 2756 11701 21725 17543 2741 4594 22719 1245
shrinkage=0.1


Tree=8
num_leaves=31
num_cat=0
split_feature=1 0 0 0 0 7 7 0 0 0 3 4 0 0 0 7 7 4 4 3 0 4 4 4 4 4 4 4 4 1
split_gain=27685.6 16807.7 8515.7 1096.08 933.136 322.713 321.634 393.021 248.731 236.079 172.361 137.4 110.525 107.087 102.965 124.78 74.3251 59.3107 53.6003 49.0303 44.1329 50.0007 42.3526 32.9175 32.5134 31.6023 26.8152 26.4733 19.0878 15.9279
threshold=0.10050000250339509 1290.6875000000002 1383.1875000000002 1307.9375000000002 1373.3125000000002 1.766499996185303 2.3374999761581425 1295.5625000000002 1280.6875000000002 1392.0625000000002 383.01649475097662 31.262999534606937 1295.5625000000002 1382.0625000000002 1300.3125000000002 1.91949999332428 2.8494999408721928 52.472499847412116 62.285499572753913 370.35549926757818 1382.0625000000002 38.527999877929695 129.31099700927737 98.951499938964858 99.676502227783217 37.026500701904304 156.9414978027344 80.128498077392592 29.756999969482425 32.895500183105476
decision_type=2 2 2 2 2 2 2 2 2 2 2 2 2 2 2 2 2 2 2 2 2 2 2 2 2 2 2 2 2 2
left_child=6 8 3 11 5 -5 14 -8 -2 17 -6 -3 -13 16 -1 25 24 29 -10 -19 21 -17 27 -18 -9 28 -24 -20 -16 -4
right_child=1 2 9 4 10 -7 7 13 18 -11 -12 12 -14 -15 15 20 23 19 22 -21 -22 -23 26 -25 -26 -27 -28 -29 -30 -31
leaf_value=0.055104569341462656 0.055540833712041937 0.033168788356883645 0.015885076489258725 -0.052396730304180066 -0.05579630740872097 -0.1045267840635052 0.05337112030562411 0.0014411823954866131 0.044757168589278626 0.049112708280604808 0.0024543213696332864 -0.02510626147577685 -0.060326547356350305 0.044635430141857363 0.041579420108132724 -0.029685493763240929 -0.032698037491977278 -0.036744249614183683 -0.0065333507720800295 0.0090099915086758586 0.052565865718005922 0.029229595278766365 -0.11867394495409994 0.0083425796011353057 0.029855186891705316 0.050978809526662949 0.049326023234732841 0.021608483275084935 0.0037088422130873693 0.049463473923492568
leaf_weight=33041.188906833529 11936.924234777689 192.50270980596542 410.20720459520817 1240.6020494699478 1941.4330589473248 31368.449573457241 3350.70936653018 1362.1734809428453 513.68750020861626 4331.3486204594374 687.50470742583275 1146.4933481514454 4062.1530538648367 590.44651040434837 333.96146208047867 148.49770784378052 818.91609704494476 432.40401889383793 551.52814543247223 506.86344213783741 816.66795562207699 3604.794881016016 39.244326680898666 255.57276678085327 569.87783855199814 16149.191321343184 11.113769069314001 843.67929440736771 221.10843536257744 216.0522279292345
leaf_count=190266 61042 599 1719 2921 5178 66796 18959 5448 2296 22838 1958 3658 10630 3184 1724 669 2887 1699 2291 2096 4493 17784 114 934 2360 89459 46 3579 1141 957
internal_value=0 -0.0463826 -0.0752006 -0.0914951 -0.0979258 -0.102547 0.0490118 0.0287391 0.0501208 0.0370883 -0.0405727 -0.0495191 -0.0525867 0.00577666 0.0516038 0.0461622 -0.00187931 0.00379998 0.017076 -0.0120869 0.0314945 0.0268841 0.00719116 -0.0229389 0.00984438 0.0501707 -0.0811293 0.0104905 0.0265614 0.0275898
internal_weight=0 60432.2 46536 40639.1 35238 32609.1 61263.1 6947.7 13896.2 5896.88 2628.94 5401.15 5208.65 3596.99 54315.4 21274.2 3006.54 1565.53 1959.25 939.267 4569.96 3753.29 1445.57 1074.49 1932.05 16704.3 50.3581 1395.21 555.07 626.259
internal_count=529725 190417 121049 91740 76853 69717 339308 33772 69368 29309 7136 14887 14288 14813 305536 115270 11629 6471 8326 3795 22946 18453 6030 3821 7808 92324 160 5870 2865 2676
shrinkage=0.1


Tree=9
num_leaves=31
num_cat=0
split_feature=1 2 3 6 4 3 2 2 6 8 3 4 4 8 2 3 4 1 8 4 8 8 4 8 2 8 2 4 1 6
split_gain=27685.6 395.057 318.382 295.29 227.169 192.68 118.434 109.992 108.65 105.966 68.5999 61.8809 51.4189 50.8283 49.2602 44.0172 41.7401 39.9531 35.8581 35.3651 31.9142 29.9946 54.3399 54.7544 26.8382 43.0288 25.803 24.5396 26.5713 24.1744
threshold=0.10050000250339509 102.42200088500978 457.16850280761724 2.1955000162124638 18.744999885559086 387.05448913574224 6552.3405761718759 0.0075000002980232247 1.8525000214576723 28.500000000000004 399.29899597167974 96.957500457763686 31.262999534606937 23.500000000000004 0.31149999797344213 384.35299682617193 38.527999877929695 32.091499328613288 23.500000000000004 99.179500579833999 36.500000000000007 33.500000000000007 69.778499603271499 35.500000000000007 10137.773925781252 33.500000000000007 0.0075000002980232247 104.71950149536134 39.99950027465821 2.713500022888184
decision_type=2 2 2 2 2 2 2 2 2 2 2 2 2 2 2 2 2 2 2 2 2 2 2 2 2 2 2 2 2 2
left_child=3 5 4 7 9 8 10 -1 -2 -3 -6 -8 -10 27 -7 16 -9 -16 -14 21 -11 26 23 -23 -15 -26 -5 28 -4 -28
right_child=1 2 13 19 6 14 11 15 12 20 -12 -13 18 24 17 -17 -18 -19 -20 -21 -22 22 -24 -25 25 -27 29 -29 -30 -31
leaf_value=0.012270793258145769 0.02163164429771124 -0.048726175715630822 0.1048348978895183 0.010793372473496271 0.058919892630721053 -0.00056948699556823973 0.039025204469177101 -0.027537970421438757 0.014857633263888198 0.031982320434522947 0.048809639045301403 -0.011550031736271645 0.024830813867946722 -0.022425424587211487 0.025506027481225647 -0.054001408516031926 -0.049113927815926398 -0.023286906804623489 0.046992161672917296 -0.039689389173902349 -0.035269571583822781 0.080468197907322098 -0.024179920103146731 -0.002461291687460405 0.048924702025360665 -0.052330882375580139 -0.03643167151943099 -0.054360219699634775 0.024828793948204433 -0.016057808281855053
leaf_weight=270.06259547173977 2553.4139282554388 250.49339337646961 65.999315842986107 158.52618084847927 26463.841125771403 1130.4170620292425 2100.7761410623789 944.20860175788403 572.16507981717587 727.69864924252033 9100.9677902758121 272.47794599831104 786.89391556382179 656.33079998195171 3589.4865446537733 32338.359737798572 21665.129397273064 174.54189382493496 11579.158179163933 1817.4346925020218 76.468756973743439 108.8649979531765 833.00561468303204 282.06422081589699 141.13188374042511 57.524347677826881 2020.7013448029757 21.334066212177277 111.0704662501812 824.7493464499712
leaf_count=1174 8558 1193 164 641 77308 4454 6869 4896 1983 2572 28493 1051 2669 2929 12889 184528 119226 781 36927 9051 323 464 4111 1349 489 249 10036 101 415 3832
internal_value=0 0.0463826 0.0521529 -0.0490118 0.0536184 0.0350435 0.054891 -0.0513095 0.0405083 0.00782357 0.0563356 0.0332137 0.0442298 -0.00209208 0.0177371 -0.0516225 -0.0482154 0.0232323 0.0455862 -0.0280146 0.0255157 -0.0229797 -0.00976269 0.0209247 -0.0126905 0.019375 -0.0283547 0.043251 0.0554873 -0.0305418
internal_weight=0 60432.2 40046.1 61263.1 38992.7 20386.1 37938.1 55217.8 15491.6 1054.66 35564.8 2373.25 12938.2 1053.39 4894.45 54947.7 22609.3 3764.03 12366.1 6045.35 804.167 4227.91 1223.93 390.929 854.987 198.656 3003.98 198.404 177.07 2845.45
internal_count=529725 190417 122156 339308 117809 68261 113721 309824 50137 4088 105801 7920 41579 4347 18124 308650 124122 13670 39596 29484 2895 20433 5924 1813 3667 738 14509 680 579 13868
shrinkage=0.1


Tree=10
num_leaves=31
num_cat=0
split_feature=2 0 0 0 0 5 7 0 8 0 0 8 0 4 8 0 5 7 5 8 7 4 5 4 2 7 8 0 5 4
split_gain=22347.7 14204.2 7339.73 942.372 820.089 778.531 751.533 796.62 663.05 291.864 243.181 242.227 224.116 215.663 202.746 193.184 389.743 118.818 117.945 110.596 98.6552 97.0231 89.2686 72.7197 69.5689 65.3534 62.1993 96.0275 61.8642 77.9716
threshold=0.01049999985843897 1290.6875000000002 1382.0625000000002 1309.9375000000002 1363.3125000000002 162.15100097656253 2.3515000343322758 1302.0625000000002 28.500000000000004 1390.9375000000002 1280.6875000000002 34.500000000000007 1377.8125000000002 50.24549865722657 31.500000000000004 1300.3125000000002 383.39599609375006 1.766499996185303 51.324499130249031 22.500000000000004 3.7085000276565556 75.316501617431655 92.455001831054702 129.31099700927737 0.0075000002980232247 2.7124999761581425 37.500000000000007 1404.5625000000002 299.27799987792974 42.388000488281257
decision_type=2 2 2 2 2 2 2 2 2 2 2 2 2 2 2 2 2 2 2 2 2 2 2 2 2 2 2 2 2 2
left_child=6 10 3 8 17 -6 15 -8 22 11 -2 19 25 -10 18 -1 28 -5 20 -4 -12 -13 -3 -20 -18 -9 -11 -28 -17 -30
right_child=1 2 9 4 5 -7 7 12 13 26 14 21 -14 -15 -16 16 24 -19 23 -21 -22 -23 -24 -25 -26 -27 27 -29 29 -31
leaf_value=0.054516471942034218 0.055444903785844782 -0.10866008543583959 -0.077089536270590231 -0.061933558648294244 0.040011832241983535 -0.069694295891151448 0.050256133201325076 -0.010873305492834291 0.032875365641575109 0.053287383228469411 0.049705245137014013 -0.098545668385115553 0.03549109865051911 -0.029899750473273774 0.049507420958440559 -0.013703996127643062 -0.0086892569613881716 -0.09820520757550362 -0.0011763515518428119 0.03061099502606196 -0.23551484841850787 0.0034385418388322973 -0.070459367938416465 -0.15057939539934306 0.049338274641883235 -0.038745067555836739 -0.020432154727042327 0.055247044245300352 -0.041653349527851963 0.023292008680908041
leaf_weight=30798.910697430372 11233.88371925056 867.20139202475548 102.28217786550522 947.21622881293297 752.57246914505959 4553.8278688788414 3620.5251641124487 1659.3937876075506 697.24841885268688 3711.6783556193113 16.232406139373779 289.03047040104866 745.79878883063793 2518.7942668646574 947.44881920516491 690.27815218269825 208.66567365825176 27389.01638649404 868.23841397464275 1121.6291814595461 39.750049874186516 137.09688414633274 2170.3667334020138 31.850185304880142 16507.173526987433 1708.8896004408598 311.67543096840382 358.84700568020344 195.23529496788979 2989.4171648472548
leaf_count=193097 58001 1907 361 2052 2004 10829 21287 6140 1997 19850 56 928 3916 6986 4293 2895 745 55654 3302 4557 152 468 5088 75 98146 5420 1281 1999 873 15366
internal_value=0 -0.0418407 -0.0680675 -0.0836114 -0.0902388 -0.0541262 0.045125 0.0160588 -0.04794 0.0347308 0.0498447 -0.0011169 -0.0140457 -0.0162779 0.016771 0.0494989 0.0419894 -0.0969972 -0.0157059 0.0214994 -0.153952 -0.0658718 -0.0814297 -0.00678519 0.048613 -0.0250286 0.0482229 0.0201133 0.0134059 0.0192869
internal_weight=0 59065.9 45928.5 39896.2 33642.6 5306.4 59124.3 7734.61 6253.61 6032.24 13137.4 1650.04 4114.08 3216.04 1903.52 51389.7 20590.8 28336.2 956.071 1223.91 55.9825 426.127 3037.57 900.089 16715.8 3368.28 4382.2 670.522 3874.93 3184.65
internal_count=529725 181840 115961 86517 70539 12833 347885 36763 15978 29444 65879 6314 15476 8983 7878 311122 118025 57706 3585 4918 208 1396 6995 3377 98891 11560 23130 3280 19134 16239
shrinkage=0.1


Tree=11
num_leaves=31
num_cat=0
split_feature=2 0 0 0 0 0 6 8 3 0 0 8 0 4 8 2 0 8 6 4 4 4 6 4 8 0 0 8 8 4
split_gain=22347.7 14204.2 7339.73 942.372 820.089 664.023 913.787 663.05 333.502 291.864 243.181 242.227 238.424 215.663 202.746 156.666 113.883 110.596 97.4847 97.0231 83.7892 81.4678 73.4576 70.1078 62.1993 96.0275 51.3375 41.6117 38.2311 34.9465
threshold=0.01049999985843897 1290.6875000000002 1382.0625000000002 1309.9375000000002 1363.3125000000002 1300.3125000000002 2.029500007629395 28.500000000000004 381.65750122070318 1390.9375000000002 1280.6875000000002 34.500000000000007 1382.0625000000002 50.24549865722657 31.500000000000004 0.0075000002980232247 1321.0625000000002 22.500000000000004 1.7415000200271609 75.316501617431655 87.167999267578139 99.179500579833999 2.2875000238418584 93.910503387451186 37.500000000000007 1404.5625000000002 1375.5625000000002 21.500000000000004 21.500000000000004 53.463500976562507
decision_type=2 2 2 2 2 2 2 2 2 2 2 2 2 2 2 2 2 2 2 2 2 2 2 2 2 2 2 2 2 2
left_child=5 10 3 7 16 -1 15 20 -6 11 -2 17 21 -9 23 -7 -5 -4 -17 -13 -3 22 -8 29 28 -26 -20 -25 -11 -12
right_child=1 2 9 4 8 6 12 13 -10 24 14 19 -14 -15 -16 18 -18 -19 26 -21 -22 -23 -24 27 25 -27 -28 -29 -30 -31
leaf_value=-0.054126631615844148 -0.055444903785844782 0.071159245635943238 0.077089536270590231 0.084207867193900193 0.072672597729557614 0.02358281253638219 0.0039449787872547128 -0.032875365641575109 0.020221664891686982 0.017936216186126015 -0.037462059712174749 0.098545668385115553 -0.044075896750435176 0.029899750473273774 -0.049507420958440559 -0.047799393791707501 0.10018598580899191 -0.03061099502606196 -0.024963582110775082 -0.0034385418388322973 0.10876580887127232 -0.0082051589273308412 0.034801236245560217 0.20831112385259187 0.020432154727042327 -0.055247044245300352 -0.049877617296415586 0.053263712068729152 -0.054725363474782053 0.013607503827562609
leaf_weight=34348.37274941802 11233.88371925056 2213.2391962409019 102.28217786550522 5666.0862049907446 3428.6015672385693 349.92238308489323 1311.1146930009127 697.24841885268688 1877.7987707853317 73.00039042532444 170.7508282661438 289.03047040104866 850.67202579975128 2518.7942668646574 947.44881920516491 14630.594944104552 22670.146410316229 1121.6291814595461 3440.5391452312469 137.09688414633274 824.32892918586731 1226.4343545138836 1874.6512107402086 17.712675422430038 311.67543096840382 358.84700568020344 1091.9863451719284 172.32167784869671 3638.6779651939869 595.28587375581264
leaf_count=214075 58001 5080 361 11517 8083 1147 5545 1997 4750 272 711 928 4803 6986 4293 86733 46189 4557 18002 468 1915 4921 6229 59 1281 1999 6430 613 19578 2202
internal_value=0 0.0418407 0.0680675 0.0836114 0.0902388 -0.045125 -0.0326422 0.04794 0.0541262 -0.0347308 -0.0498447 0.0011169 0.00433595 0.0162779 -0.016771 -0.042615 0.0969972 -0.0214994 -0.0438261 0.0658718 0.0814297 0.0136855 0.0221127 0.0157059 -0.0482229 -0.0201133 -0.0309853 0.0697343 -0.0532874 0.00215611
internal_weight=0 59065.9 45928.5 39896.2 33642.6 59124.3 24775.9 6253.61 5306.4 6032.24 13137.4 1650.04 5262.87 3216.04 1903.52 19513 28336.2 1223.91 19163.1 426.127 3037.57 4412.2 3185.77 956.071 4382.2 670.522 4532.53 190.034 3711.68 766.037
internal_count=529725 181840 115961 86517 70539 347885 133810 15978 12833 29444 65879 6314 21498 8983 7878 112312 57706 4918 111165 1396 6995 16695 11774 3585 23130 3280 24432 672 19850 2913
shrinkage=0.1


Tree=12
num_leaves=31
num_cat=0
split_feature=2 0 0 0 7 0 8 0 0 8 8 0 7 0 0 0 8 8 0 2 0 8 0 0 4 8 0 4 8 4
split_gain=18977.3 11529 5731.72 925.581 738.122 726.037 583.953 487.618 447.073 337.864 220.226 196.824 226.472 182.174 174.295 160.898 160.504 139.361 107.974 95.1904 85.4272 81.5787 78.1371 67.3922 65.1132 61.3103 85.7041 59.8559 59.4278 55.2551
threshold=0.01049999985843897 1289.6875000000002 1378.9375000000002 1307.9375000000002 2.3374999761581425 1295.5625000000002 33.500000000000007 1358.3125000000002 1390.9375000000002 33.500000000000007 34.500000000000007 1300.3125000000002 1.91949999332428 1279.6875000000002 1382.0625000000002 1321.0625000000002 31.500000000000004 25.500000000000004 1300.3125000000002 0.0075000002980232247 1308.9375000000002 22.500000000000004 1382.0625000000002 1323.6875000000002 63.134500503540046 37.500000000000007 1404.5625000000002 99.179500579833999 25.500000000000004 71.230503082275405
decision_type=2 2 2 2 2 2 2 2 2 2 2 2 2 2 2 2 2 2 2 2 2 2 2 2 2 2 2 2 2 2
left_child=4 13 3 6 11 -6 17 15 10 -9 21 -1 19 -2 20 -5 24 -3 -8 -13 -7 -4 23 -14 -15 -10 -27 -22 -26 -12
right_child=1 2 8 7 5 14 18 9 25 -11 29 12 22 16 -16 -17 -18 -19 -20 -21 27 -23 -24 -25 28 26 -28 -29 -30 -31
leaf_value=0.05400535644881637 0.054984798886373837 -0.077813450318837768 -0.059985932407200286 -0.072550004093330761 0.052036978683205129 0.016461364169093416 0.044242896909004119 -0.039023044305804611 0.052469512752658556 -0.089845505964460837 -0.077608084624034401 -0.021627873409159955 0.032389658397209774 0.039923877523885452 0.039917326029668659 -0.090490061005142591 0.050823866924799489 -0.041235161767089509 -0.0094740595394862473 0.047855048134261245 -0.03203913633346768 0.018282521834387565 0.051081037736641736 0.0050400870396103935 -0.068793974717271694 -0.017851010657098012 0.054641155865367497 -0.0011865210979233229 -0.0049430437507833082 -0.019469453595307624
leaf_weight=28020.04772028327 10150.187898844481 1769.5473284572363 143.26796497404575 6581.9037283360958 3162.3766559511423 607.5073889195919 715.06428031623363 4163.9528266936541 3408.29546636343 1909.7608875781298 418.11192514002323 198.84241656959057 1461.1477421075106 206.02606785297394 596.83153636753559 21591.669355034828 871.85140001773834 2553.8484545946121 781.37217077612877 14396.697968870401 2494.4798734486103 1603.4953043609858 737.72026298940182 2347.2594386190176 204.88825373351574 320.83390970528126 328.13533638417721 840.7395675778389 494.57393273711205 270.39618755877018
leaf_count=192343 57235 3905 446 13349 20632 2695 2432 9533 19850 3978 1133 665 7564 902 3535 43385 4349 6486 2104 92610 8143 6055 4694 11968 629 1281 1999 3036 1983 806
internal_value=0 -0.0379002 -0.0603716 -0.0744949 0.0439743 0.0152671 -0.0376063 -0.080761 0.0267831 -0.0550275 -0.00708539 0.0486617 0.0408346 0.0498131 -0.0103594 -0.0863044 0.0202493 -0.0562356 0.0162191 0.0469056 -0.0179865 0.0118018 0.0213312 0.0155446 -0.00923653 0.0471052 0.0188581 -0.0242672 -0.0237892 -0.054898
internal_weight=0 58487.2 46559.7 40067.1 54863.7 7701.94 5819.83 34247.3 6492.54 6073.71 2435.27 47161.7 19141.7 11927.5 4539.56 28173.6 1777.34 4323.4 1496.44 14595.5 3942.73 1746.76 4546.13 3808.41 905.488 4057.26 648.969 3335.22 699.462 688.508
internal_count=529725 181840 116742 85172 347885 38041 14927 70245 31570 13511 8440 309844 117501 65098 17409 56734 7863 10391 4536 93275 13874 6501 24226 19532 3514 23130 3280 11179 2612 1939
shrinkage=0.1


Tree=13
num_leaves=31
num_cat=0
split_feature=1 0 0 0 0 8 0 5 0 8 8 0 8 6 5 8 8 5 0 8 6 8 8 4 4 6 0 0 8 4
split_gain=19975 11983 5847.97 775.346 763.87 521.497 327.125 639.768 293.583 222.308 216.848 204.657 230.515 180.827 136.07 119.596 111.882 84.2561 82.1726 78.9429 78.3814 59.1124 74.629 57.7733 56.2583 54.859 46.4672 62.8486 44.4814 43.4899
threshold=0.10050000250339509 1291.6875000000002 1383.1875000000002 1307.9375000000002 1373.3125000000002 33.500000000000007 1297.4375000000002 377.13301086425787 1280.6875000000002 29.500000000000004 33.500000000000007 1392.0625000000002 34.500000000000007 1.7904999852180483 239.192497253418 25.500000000000004 22.500000000000004 56.436000823974616 1300.3125000000002 25.500000000000004 2.0794999599456792 38.500000000000007 39.500000000000007 76.021503448486342 38.527999877929695 1.9915000200271609 1357.3125000000002 1323.6875000000002 21.500000000000004 94.481502532958999
decision_type=2 2 2 2 2 2 2 2 2 2 2 2 2 2 2 2 2 2 2 2 2 2 2 2 2 2 2 2 2 2
left_child=6 8 3 5 13 15 -1 14 -2 -6 17 12 16 -5 26 -3 -4 29 -7 -19 24 28 -23 -14 -16 -9 27 -8 -13 -10
right_child=1 2 11 4 9 18 7 25 10 -11 -12 21 23 -15 20 -17 -18 19 -20 -21 -22 22 -24 -25 -26 -27 -28 -29 -30 -31
leaf_value=-0.053816330927218714 -0.054754155550135568 0.076613369141396007 0.065665908146826379 0.062668080797097653 -0.0049649838352843634 -0.042454778861510847 0.0097348439587624444 -0.049290277223924456 0.050860652178774834 0.051826707869597824 -0.054016926376166258 0.027658041383897082 0.080161593915712273 0.085102854233556555 0.035814949281472018 0.042002905914569309 -0.038793162468777946 0.041352993504469901 0.0061861572029845756 -0.01343938027893735 0.0032928013220253531 0.018271329778976796 -0.056589139421960616 -0.00050772645289035359 -0.026181084573617487 -0.032007930747499962 -0.050393774508089566 0.089452827573186511 -0.054353903890927271 0.19220575881815311
leaf_weight=30057.27118730545 10808.001527458429 1692.3090436160564 111.73903223872185 4117.4459453821182 1173.5108645409346 588.29068894684315 171.26580487191677 15019.068935662508 69.494704812765121 1667.2350637167692 847.38001707196236 66.308945000171661 304.85057310760021 29832.975272506475 153.18043106794357 2460.1735769957304 1054.5003440827131 377.15081650018692 842.72886611521244 856.05606496334076 1948.9835133850574 282.50326439738274 248.70996405184269 124.88666740059853 2663.223850607872 2109.9473721235991 44.13895320892334 233.80666691064835 3392.4263153225183 31.268977791070938
leaf_count=206105 61042 3714 377 8791 3116 1898 613 97282 247 4020 4103 259 930 60926 681 6152 4702 1216 2305 3484 7899 1404 1223 462 14706 11075 175 772 19952 94
internal_value=0 0.0371946 0.0602695 0.0729473 0.0782176 0.0382043 -0.0470015 -0.0378299 -0.0480008 0.0283791 -0.0145203 -0.0358958 -0.00562149 0.0823859 -0.00715817 0.0561382 -0.0286895 0.0106125 -0.0138414 0.00335756 -0.0121233 -0.0479967 -0.0168586 0.0568244 -0.0227862 -0.0471654 0.0453339 0.0559613 -0.0527665 0.0976099
internal_weight=0 60949.9 47960.6 42374.7 36791.2 5583.5 52400.9 22343.6 12989.4 2840.75 2181.35 5585.93 1595.98 33950.4 5214.6 4152.48 1166.24 1333.97 1431.02 1233.21 4765.39 3989.95 531.213 429.737 2816.4 17129 449.211 405.072 3458.74 100.764
internal_count=529725 190417 120231 90922 76853 14069 339308 133203 70186 7136 9144 29309 6471 69717 24846 9866 5079 5041 4203 4700 23286 22838 2627 1392 15387 108357 1560 1385 20211 341
shrinkage=0.1


Tree=14
num_leaves=31
num_cat=0
split_feature=1 0 0 0 0 8 0 7 7 0 8 0 8 8 0 8 0 8 2 7 8 8 0 8 7 8 8 8 0 7
split_gain=17187.3 9889.72 4637.18 798.368 709.776 480.788 336.956 493.688 214.809 189.424 188 177.988 152.802 144.79 121.274 104.034 103.556 95.0701 94.0482 75.6229 58.4999 71.6875 53.0739 44.8398 44.2823 41.3327 37.1922 36.0217 32.8419 32.4091
threshold=0.10050000250339509 1289.6875000000002 1383.1875000000002 1309.9375000000002 1367.3125000000002 33.500000000000007 1297.4375000000002 2.1004999876022343 2.211499929428101 1392.0625000000002 34.500000000000007 1279.6875000000002 34.500000000000007 31.500000000000004 1300.3125000000002 28.500000000000004 1382.0625000000002 22.500000000000004 0.0075000002980232247 2.8494999408721928 38.500000000000007 39.500000000000007 1323.6875000000002 21.500000000000004 1.9004999995231631 21.500000000000004 29.500000000000004 38.500000000000007 1400.4375000000002 1.9685000181198122
decision_type=2 2 2 2 2 2 2 2 2 2 2 2 2 2 2 2 2 2 2 2 2 2 2 2 2 2 2 2 2 2
left_child=6 11 3 5 8 15 -1 18 -5 10 17 -2 -6 25 -7 -3 19 -4 -8 22 23 -22 -9 -11 -20 -13 -27 -18 -29 -12
right_child=1 2 9 4 12 14 7 16 -10 20 29 13 -14 -15 -16 -17 27 -19 24 -21 21 -23 -24 -25 -26 26 -28 28 -30 -31
leaf_value=0.053331652679729051 0.05437461097941737 -0.059705337667621844 -0.056375610108955101 -0.053390905253582178 -0.024918360621333509 0.041875382035792066 -0.045881950173509878 0.026865861805282477 -0.079538023829269389 -0.029310018329070226 0.03776203991834573 -0.13189974860998357 -0.063152339460730664 0.050062396680727678 -0.010650606434860765 -0.029955084685587011 0.051097132526204715 0.037472286586587959 0.048332114909347391 -0.018576188170493127 -0.018280228576790524 0.056215281772692749 0.001482291419242028 0.053755308154289083 0.03362921594717954 0.0092476430446128462 -0.035271957055366288 -0.083681204342117468 0.046252855372371164 -0.056734785819868551
leaf_weight=27434.314926177263 9753.3018845021725 3451.0493279397488 119.08360596001148 3570.0419405698776 3583.6593017280102 717.17100089788437 110.61562825739384 1368.0397720932961 27326.817013531923 65.190874263644218 38.380991533398628 23.668814823031425 1476.9234870672226 849.05402502417564 1129.0379031896591 1792.8142472058535 692.50173376500607 1007.3601389825344 13185.352554708719 1092.8816932290792 281.96041569113731 235.27951797842979 2066.2788355201483 3110.0631485432386 2450.674122735858 666.99830143153667 258.82468864321709 38.558692529797554 35.584131762385368 415.6355746537447
leaf_count=206105 60234 7474 377 7502 8796 2624 440 6768 55451 259 129 67 3151 4587 2913 4662 4557 4702 92627 3663 1404 1223 9353 19952 15307 2563 1084 251 237 1263
internal_value=0 -0.0340723 -0.053944 -0.0647859 -0.0708337 -0.0341029 0.0460277 0.0365001 -0.0765205 0.0345587 0.0055782 0.0490441 -0.0360974 0.0201089 0.00977667 -0.0495494 0.0100769 0.0274687 0.0453809 0.00431298 0.0469532 0.0156919 0.0116034 0.0520325 0.0460323 -0.00672507 -0.00324754 0.0440144 -0.0217437 -0.0486158
internal_weight=0 59872.3 48320.5 43047.5 35957.4 7090.07 48474.8 21040.5 30896.9 5272.95 1580.46 11551.8 5060.58 1798.55 1846.21 5243.86 5293.84 1126.44 15746.6 4527.2 3692.49 517.24 3434.32 3175.25 15636 949.492 925.823 766.645 74.1428 454.017
internal_count=529725 190417 121882 92573 74900 17673 339308 133203 62953 29309 6471 68535 11947 8301 5537 12136 24829 5079 108374 19784 22838 2627 16121 20211 107934 3714 3647 5045 488 1392
shrinkage=0.1


Tree=15
num_leaves=31
num_cat=0
split_feature=1 0 0 0 0 8 5 0 5 7 0 8 0 8 0 5 5 8 8 7 6 8 8 8 8 5 0 0 0 0
split_gain=17187.3 9889.72 4637.18 798.368 709.776 480.788 479.923 336.956 616.75 214.809 189.424 188 177.988 144.79 121.274 116.309 112.156 104.034 95.0701 90.6472 65.5921 61.9569 58.4999 71.6875 44.8398 42.1855 40.402 49.4694 39.065 42.4301
threshold=0.10050000250339509 1289.6875000000002 1383.1875000000002 1309.9375000000002 1367.3125000000002 33.500000000000007 223.87449645996097 1297.4375000000002 377.13301086425787 2.211499929428101 1392.0625000000002 34.500000000000007 1279.6875000000002 31.500000000000004 1300.3125000000002 239.192497253418 121.85449981689455 28.500000000000004 22.500000000000004 1.9944999814033511 2.2875000238418584 29.500000000000004 38.500000000000007 39.500000000000007 21.500000000000004 439.07000732421881 1357.3125000000002 1323.6875000000002 1382.0625000000002 1323.6875000000002
decision_type=2 2 2 2 2 2 2 2 2 2 2 2 2 2 2 2 2 2 2 2 2 2 2 2 2 2 2 2 2 2
left_child=7 12 3 5 9 17 -6 -1 15 -5 11 18 -2 16 -7 26 21 -3 -4 -10 -17 -14 24 -24 -12 -13 27 -9 29 -21
right_child=1 2 10 4 6 14 -8 8 19 -11 22 25 13 -15 -16 20 -18 -19 -20 28 -22 -23 23 -25 -26 -27 -28 -29 -30 -31
leaf_value=-0.053331652679729051 -0.05437461097941737 0.059705337667621844 0.056375610108955101 0.053390905253582178 -0.028728232072844008 -0.041875382035792066 0.050712083387254095 0.0093550806615635747 -0.049850211521478616 0.079538023829269389 0.029310018329070226 0.012099372734297672 0.02636864713971572 -0.050062396680727678 0.010650606434860765 -0.018359923719145171 -0.016396315457494638 0.029955084685587011 -0.037472286586587959 -0.044508823874610165 0.0082224334256729478 0.12492950649254567 0.018280228576790524 -0.056215281772692749 -0.053755308154289083 0.074056832584654939 -0.04975793261557579 0.079153162039456493 -0.049135382344613142 -0.014208792522177813
leaf_weight=27434.314926177263 9753.3018845021725 3451.0493279397488 119.08360596001148 3570.0419405698776 930.64124947786331 717.17100089788437 4129.9415393173695 171.76095210015774 12919.052485957742 27326.817013531923 65.190874263644218 187.64076201617718 203.82345403730869 849.05402502417564 1129.0379031896591 3381.5148701965809 653.81881576776505 1792.8142472058535 1007.3601389825344 665.02202245593071 1277.8458760082722 91.849535092711449 281.96041569113731 235.27951797842979 3110.0631485432386 266.37580417096615 42.535513401031494 248.51519456505775 818.71466393768787 1515.5255859792233
leaf_count=206105 60234 7474 377 7502 2413 2624 9534 613 91377 55451 259 542 721 4587 2913 18505 2658 4662 4702 3811 4781 335 1404 1223 19952 850 175 772 5542 7627
internal_value=0 0.0340723 0.053944 0.0647859 0.0708337 0.0341029 0.0360974 -0.0460277 -0.0365001 0.0765205 -0.0345587 -0.0055782 -0.0490441 -0.0201089 -0.00977667 -0.00631497 0.00672507 0.0495494 -0.0274687 -0.046211 -0.0110692 0.0576198 -0.0469532 -0.0156919 -0.0520325 0.0486158 0.0413901 0.0508071 -0.0305127 -0.023482
internal_weight=0 59872.3 48320.5 43047.5 35957.4 7090.07 5060.58 48474.8 21040.5 30896.9 5272.95 1580.46 11551.8 1798.55 1846.21 5122.17 949.492 5243.86 1126.44 15918.3 4659.36 295.673 3692.49 517.24 3175.25 454.017 462.812 420.276 2999.26 2180.55
internal_count=529725 190417 121882 92573 74900 17673 11947 339308 133203 62953 29309 6471 68535 8301 5537 24846 3714 12136 5079 108357 23286 1056 22838 2627 20211 1392 1560 1385 16980 11438
shrinkage=0.1


Tree=16
num_leaves=31
num_cat=0
split_feature=0 5 5 0 0 5 6 5 0 8 0 0 0 5 8 0 4 5 6 0 8 4 5 0 8 4 0 5 8 8
split_gain=12824.7 9790.6 870.24 701.707 968.054 539.641 460.393 422.82 389.5 360.085 304.153 283.979 275.927 220.829 232.473 184.5 170.749 154.216 128.345 243.878 172.179 104.619 101.12 94.634 94.5354 78.7506 77.3087 65.934 63.7868 60.8162
threshold=1293.6875000000002 366.30799865722662 454.22351074218756 1311.8125000000002 1359.3125000000002 145.98049926757815 2.0214999914169316 286.99400329589849 1381.0625000000002 33.500000000000007 1384.1875000000002 1280.6875000000002 1331.9375000000002 312.31849670410162 33.500000000000007 1346.1875000000002 71.52350234985353 299.27799987792974 1.7854999899864199 1389.8125000000002 36.500000000000007 23.523500442504886 44.908000946044929 1301.1875000000002 33.500000000000007 67.985500335693374 1320.0625000000002 56.436000823974616 34.500000000000007 25.500000000000004
decision_type=2 2 2 2 2 2 2 2 2 2 2 2 2 2 2 2 2 2 2 2 2 2 2 2 2 2 2 2 2 2
left_child=11 3 6 9 7 28 16 26 12 17 -7 -1 -8 14 27 -9 24 25 -4 20 -20 -19 -11 -24 -3 -2 -5 -13 -6 -29
right_child=1 2 18 4 5 10 8 15 -10 22 -12 13 -14 -15 -16 -17 -18 21 19 -21 -22 -23 23 -25 -26 -27 -28 29 -30 -31
leaf_value=0.053487135009496228 -0.032240699020295215 0.018765420131814092 0.048973398071200019 -0.061424388624418451 0.052579266113239834 -0.047749351127458088 0.017329664181902509 -0.031188764979800311 0.025683753532361703 -0.10666475485259706 0.020951649082924229 -0.078793884840038408 -0.049490233724761967 0.050076498885682212 0.049406275388440946 -0.069393923186928302 0.034521496764504216 -0.30280490212591343 0.01949068753842435 0.048217033696929125 -0.046666457283388842 -0.0019066994482786698 0.047413276989892561 -0.00093495806219559465 -0.020219372183609283 -0.057885921352880267 -0.077114168153084597 -0.035223834079846757 -0.023963988942699743 0.0064127166815163318
leaf_weight=31205.112956903875 2052.500694796443 1406.56697139889 8887.2648765817285 3863.9727029055357 882.17774441838264 4171.1771478205919 785.85576584935188 3835.6037441939116 1475.0040759891272 72.123287335038185 760.91639751195908 145.53746530413628 2876.2571025937796 2225.1691192686558 845.07020720094442 1888.6954484432936 4172.9011882245541 9.6842408478260023 1587.6840890496969 2780.0047279149294 520.76722315698862 1048.2593565434217 554.532524921 1485.0446830540895 1111.9362808838487 2907.6128388345242 18092.217807516456 549.40186843276024 122.98749209940434 962.98629269003868
leaf_count=243886 4656 8042 65906 8184 2296 10651 3394 11995 7392 183 4043 432 7499 17210 4747 4914 27505 41 7518 19298 2037 4568 2344 4328 5312 6889 38264 1924 272 3995
internal_value=0 -0.0239532 0.02473 -0.053811 -0.0601868 -0.0235363 0.0048329 -0.0680458 -0.0176796 -0.0274374 -0.0371461 0.050026 -0.0351497 0.0271703 0.00678294 -0.0438141 0.0221163 -0.0399007 0.0418114 0.0287761 0.00312177 -0.00522724 0.00808552 0.0122438 0.00155098 -0.0472912 -0.0743588 -0.0149762 0.0431848 -0.00873904
internal_weight=0 67351.7 25604.2 41747.5 33617.7 5937.26 11828.5 27680.5 5137.12 8129.76 4932.09 35933.3 3662.11 4728.16 2503 5724.3 6691.4 6018.06 13775.7 4888.46 2108.45 1057.94 2111.7 2039.58 2518.5 4960.11 21956.2 1657.93 1005.17 1512.39
internal_count=529725 257531 153903 103628 80619 17262 59144 63357 18285 23009 14694 272194 10893 28308 11098 16909 40859 16154 94759 28853 9555 4609 6855 6672 13354 11545 46448 6351 2568 5919
shrinkage=0.1


Tree=17
num_leaves=31
num_cat=0
split_feature=2 0 0 0 7 0 0 8 0 5 0 5 8 0 2 8 5 4 0 5 5 4 0 5 8 0 2 4 8 5
split_gain=13986.7 7919.37 3801.57 794.518 687.711 583.996 500.133 395.032 311.25 897.748 212.951 370.422 185.01 180.62 157.057 130.063 128.105 119.053 116.047 110.983 95.2619 83.5906 71.6307 71.0182 60.6015 83.2604 55.2897 49.0482 83.5181 58.5763
threshold=0.01049999985843897 1289.6875000000002 1375.5625000000002 1311.8125000000002 2.3374999761581425 1290.6875000000002 1390.9375000000002 33.500000000000007 1358.3125000000002 175.32600402832034 1300.3125000000002 383.39599609375006 33.500000000000007 1279.6875000000002 18.681500434875492 31.500000000000004 398.42649841308599 67.985500335693374 1300.3125000000002 403.32051086425787 121.85449981689455 63.134500503540046 1310.9375000000002 445.10649108886724 37.500000000000007 1404.5625000000002 0.0075000002980232247 38.527999877929695 35.500000000000007 303.79148864746099
decision_type=2 2 2 2 2 2 2 2 2 2 2 2 2 2 2 2 2 2 2 2 2 2 2 2 2 2 2 2 2 2
left_child=4 13 3 7 10 -6 12 17 14 -10 -1 27 19 -2 -5 20 22 -3 -9 -4 21 -15 -7 -14 -8 -26 -13 28 -12 -29
right_child=1 2 6 8 5 16 24 18 9 -11 11 26 23 15 -16 -17 -18 -19 -20 -21 -22 -23 -24 -25 25 -27 -28 29 -30 -31
leaf_value=-0.053124507446373342 -0.053813572766510123 0.029547376676817751 0.0097472049415382699 0.057292406165384072 -0.052161147044762851 -0.010314482567113079 -0.051015239196743292 -0.040360905605740946 -0.030419749409791082 0.068958712194959956 0.0067242582361849009 0.0047006039420721211 0.024078057878313727 -0.056030318146952744 0.077363594645914371 -0.048738399436473609 -0.021584526876305198 0.058544492190377266 0.011468512908694297 -0.034676801608973483 -0.015516770524927254 0.076918896321329117 0.024394522988763698 0.077195728519015488 0.019596381252248347 -0.054095137551690521 -0.046725191239304714 0.01418978583171699 0.17366644619587285 -0.018787072730829659
leaf_weight=23342.079221703112 8483.6160632893443 2441.5351316779852 1445.2506780475378 4826.9354873597622 2516.841483451426 755.15592478215694 2875.8454226404428 638.97392022609711 1167.5062128007412 4088.063566789031 145.38256314396858 212.10529011487961 780.56927300989628 56.534103021025658 20981.124087363482 745.99511402845383 1137.5342534929514 3393.8229553252459 1323.2440122067928 917.92184740304947 610.40641716122627 252.84102575480938 2777.6306835711002 371.67963062226772 313.84465464949608 296.32960116863251 13084.02982339263 678.50680281221867 35.806291341781616 2587.9147803336382
leaf_count=192343 57235 5430 4622 9772 19691 3579 19850 2432 2720 8459 626 739 1824 244 43320 4349 5650 7510 3197 3318 2455 815 9121 1008 1281 1999 97910 3030 154 15042
internal_value=0 0.0320215 0.0497099 0.0619299 -0.0418405 -0.0133512 -0.0181149 0.0333781 0.0690944 0.046879 -0.0469476 -0.0383312 0.00849939 -0.0479025 0.0736144 -0.0177699 0.00757692 0.0464263 -0.00543306 -0.00752304 0.00739854 0.0524204 0.0169736 0.0413162 -0.0449432 -0.0162515 -0.0459042 -0.00911522 0.041251 -0.0119326
internal_weight=0 56012 45862.6 38861.2 47273 7187.16 7001.44 7797.58 31063.6 5255.57 40085.8 16743.7 3515.42 10149.4 25808.1 1665.78 4670.32 5835.36 1962.22 2363.17 919.782 309.375 3532.79 1152.25 3486.02 610.174 13296.1 3447.61 181.189 3266.42
internal_count=529725 181840 116742 82840 347885 38041 33902 18569 64271 11179 309844 117501 10772 65098 53092 7863 18350 12940 5629 7940 3514 1059 12700 2832 23130 3280 98649 18852 780 18072
shrinkage=0.1


Tree=18
num_leaves=31
num_cat=0
split_feature=2 5 7 7 5 3 2 7 3 5 2 5 4 5 3 3 7 5 7 5 3 3 4 5 3 4 2 4 7 6
split_gain=12242.5 1215.26 651.965 169.601 119.92 116.513 114.009 83.9962 77.6848 66.5552 64.8196 64.8156 56.9164 53.5356 50.9493 41.6431 37.3454 35.9895 35.7348 30.9319 30.3488 30.1005 26.5255 24.1663 23.3152 28.3564 23.2189 19.7629 19.7419 17.9564
threshold=0.01049999985843897 458.03349304199224 2.2224999666213994 2.9084999561309819 510.09548950195318 473.94599914550787 0.0075000002980232247 2.6765000820159917 381.65750122070318 375.90148925781256 0.31149999797344213 364.86000061035162 26.949000358581547 142.20649719238284 437.73149108886724 378.90049743652349 1.4474999904632571 253.91249847412112 1.6604999899864199 398.42649841308599 399.29899597167974 388.75151062011724 99.179500579833999 334.38150024414068 378.57800292968756 38.527999877929695 0.0075000002980232247 98.53800201416017 2.1784999370574956 3.8654999732971196
decision_type=2 2 2 2 2 2 2 2 2 2 2 2 2 2 2 2 2 2 2 2 2 2 2 2 2 2 2 2 2 2
left_child=2 3 6 10 15 8 -1 21 11 12 28 -5 23 -10 18 16 -3 -14 -12 20 22 26 -9 -8 25 -11 -4 -28 -2 -18
right_child=1 4 7 5 -6 -7 9 19 13 24 14 -13 17 -15 -16 -17 29 -19 -20 -21 -22 -23 -24 -25 -26 -27 27 -29 -30 -31
leaf_value=-0.0040697589739948506 0.0028762684931439315 0.060585982037731259 -0.011183985212869651 -0.046810912395182314 0.041425563175801421 0.020997537736148764 0.021412793702955998 -0.0093171792063842136 -0.039163400302177472 0.02095916071952391 -0.010001842692223623 -0.026907010795689093 0.0029486532494045338 -0.02825905049948731 -0.0039306519412271443 0.028175012091785412 -0.013273725827493485 0.041385962841409524 -0.031017981612639103 0.024761524081148883 0.027458265756114528 0.039190044795896578 0.013733494504794497 -0.10648579587241658 0.051979584464033037 0.046971991167664262 0.017593869417010254 0.033056457943630935 -0.016920561381163723 0.043792254138026676
leaf_weight=432.75573764741421 774.10554855316877 78.055228546261787 216.11577468365431 12759.242877833545 2033.5456244945526 327.86394993960857 23.302344180643559 1925.4220827743411 10511.822911448777 445.47876185923815 863.94610051065683 1887.6938973516226 252.11556515097618 7933.910010188818 809.23617040365934 544.46987295895815 1019.9105300828815 7486.6682820245624 13314.314839631319 633.22634659707546 362.6299392208457 1114.7349516525865 671.80538532882929 35.80881080031395 18164.500905767083 8549.778693638742 2671.9228749722242 1203.2528344020247 1437.4733416810632 56.356006033718586
leaf_count=1781 2697 244 805 35583 13685 1958 128 8510 31814 3275 2584 5756 1478 28066 3533 2548 4644 59576 43589 3583 2298 8453 3474 167 160550 70392 15778 7637 4803 336
internal_value=0 -0.0300026 0.0408682 -0.034063 0.0250544 -0.0382168 0.0469248 0.0165034 -0.0388047 0.0475563 -0.0259879 -0.0442497 0.039384 -0.0344768 -0.0283462 0.00543159 -0.00532619 0.0401348 -0.029739 0.00473893 0.000441504 0.0246181 -0.00334885 -0.0570159 0.0498996 0.0456887 0.0206305 0.0224096 -0.00999486 -0.0102099
internal_weight=0 54351.9 44189.5 50619.6 3732.34 33420.5 35390.4 8799.11 33092.7 34957.7 17199.1 14646.9 7797.9 18445.7 14987.5 1698.79 1154.32 7738.78 14178.3 3593.08 2959.86 5206.03 2597.23 59.1112 27159.8 8995.26 4091.29 3875.18 2211.58 1076.27
internal_count=529725 181840 347885 160383 21457 103177 297347 50538 101219 295566 57206 41339 61349 59880 49706 7772 5224 61054 46173 17865 14282 32673 11984 295 234217 73667 24220 23415 7500 4980
shrinkage=0.1


Tree=19
num_leaves=31
num_cat=0
split_feature=2 0 0 0 0 5 0 8 0 5 8 2 0 0 8 6 6 5 5 6 8 0 5 5 0 8 2 8 2 0
split_gain=12242.5 6709.4 3144.75 779.14 664.244 907.597 487.152 331.49 237.164 753.753 201.533 148.392 144.406 140.118 111.858 96.057 94.5691 91.8695 87.8074 85.5239 62.6161 81.0153 60.5112 58.5018 53.4739 51.7384 41.6693 38.2666 35.1074 32.0242
threshold=0.01049999985843897 1288.6875000000002 1374.4375000000002 1311.8125000000002 1300.3125000000002 385.92649841308599 1390.9375000000002 34.500000000000007 1356.3125000000002 175.32600402832034 33.500000000000007 11.664000034332277 1279.6875000000002 1300.3125000000002 31.500000000000004 2.2875000238418584 3.092499971389771 121.85449981689455 448.92449951171881 1.8585000038146975 37.500000000000007 1404.5625000000002 250.38749694824222 450.18099975585943 1382.0625000000002 29.500000000000004 0.0075000002980232247 21.500000000000004 0.0075000002980232247 1343.5625000000002
decision_type=2 2 2 2 2 2 2 2 2 2 2 2 2 2 2 2 2 2 2 2 2 2 2 2 2 2 2 2 2 2
left_child=4 12 3 7 -1 15 10 16 11 -10 18 -5 -2 -9 17 22 -3 25 -4 26 27 -22 -6 -12 -21 -14 -7 -8 -24 -17
right_child=1 2 6 8 5 19 20 13 9 -11 23 -13 14 -15 -16 29 -18 -19 -20 24 21 -23 28 -25 -26 -27 -28 -29 -30 -31
leaf_value=-0.05215954738534271 -0.053309815813511935 0.049350043906481962 0.0024104640617643837 0.051618091921939113 0.037788383006647192 0.0067865111903116773 0.022312301402025902 -0.049093442609333321 -0.024683941747507925 0.065159426814888413 0.02779017795345072 0.072369003324038936 0.022243827618481499 0.010742254420201538 -0.050479857061059799 0.010602738235391792 0.023297137062047529 -0.01868807793631885 -0.042074240909693722 -0.018482374288620453 0.020872777884966935 -0.053655269214919844 0.029138299376692892 0.075654759258806326 -0.048694761618882781 0.11435474492332816 -0.047362975597892258 -0.052336136737430067 -0.01136168744763486 0.035686353150006844
leaf_weight=23911.046123355627 7747.5104118585587 4103.0097270458937 1971.4863818734884 4178.91597661376 291.53776648640633 143.58268089592457 69.50017823278904 569.68911378085613 1187.7494951188564 4350.0953199416399 944.51254892349243 20342.34378182888 191.84131665527821 1239.0491767525673 624.63371410965919 1503.6978210657835 2118.2200473546982 530.78292848169804 570.5223298817873 2050.0444479882717 309.37657643854618 272.64038014411926 224.35572928190231 350.42618042230606 821.0649669021368 88.317086324095726 10508.802210971713 2591.3242378756404 3965.8497978448868 769.53774590790272
leaf_count=214075 57235 9233 6200 8548 966 508 272 2394 2772 8935 2177 43293 658 2970 3954 4595 4722 2223 2201 10889 1281 1999 615 917 6276 278 86267 19578 21186 2508
internal_value=0 0.0300026 0.0458445 0.0572199 -0.0408682 -0.0275504 -0.0153536 0.0295373 0.0646125 0.045888 0.00876153 0.0688371 -0.0479118 -0.0081373 -0.0187462 0.00238337 0.0404898 0.0057609 -0.0075988 -0.0425005 -0.0438745 -0.0141034 -0.00610952 0.0408396 -0.0271502 0.0518856 -0.046632 -0.050371 -0.00918033 0.019118
internal_weight=0 54351.9 45168.9 38089.1 44189.5 20278.5 7079.79 8029.97 30059.1 5537.84 3836.95 24521.3 9183.09 1808.74 1435.58 6754.98 6221.23 810.941 2542.01 13523.5 3242.84 582.017 4481.74 1294.94 2871.11 280.158 10652.4 2660.82 4190.21 2273.24
internal_count=529725 181840 117492 82867 347885 133810 34625 19319 63548 11707 11495 51841 64348 5364 7113 29870 13955 3159 8401 103940 23130 3280 22767 3094 17165 936 86775 19850 21801 7103
shrinkage=0.1


Tree=20
num_leaves=31
num_cat=0
split_feature=1 0 0 0 0 0 5 8 7 8 0 0 8 5 7 0 5 5 7 5 8 8 5 2 8 7 8 0 0 0
split_gain=11301.8 6417.17 2805.99 773.835 451.324 362.595 511.997 304.344 229.008 174.953 169.772 157.644 109.503 106.587 100.524 87.8777 85.3196 84.3738 77.0052 68.0145 60.6676 67.5033 58.6577 45.7045 42.1781 38.1097 34.8155 32.8346 32.8037 34.3742
threshold=0.10050000250339509 1289.6875000000002 1374.4375000000002 1311.8125000000002 1392.0625000000002 1297.4375000000002 385.92649841308599 33.500000000000007 2.2335000038146977 33.500000000000007 1279.6875000000002 1356.3125000000002 31.500000000000004 458.03349304199224 3.8954999446868901 1300.3125000000002 454.22351074218756 239.192497253418 1.9944999814033511 121.85449981689455 38.500000000000007 39.500000000000007 445.10649108886724 0.0075000002980232247 21.500000000000004 2.0404999256134038 29.500000000000004 1383.1875000000002 1357.3125000000002 1323.6875000000002
decision_type=2 2 2 2 2 2 2 2 2 2 2 2 2 2 2 2 2 2 2 2 2 2 2 2 2 2 2 2 2 2
left_child=5 10 3 7 9 -1 17 14 13 16 -2 -10 19 -5 -3 -9 -4 28 -8 26 24 -22 -11 -19 -6 -25 -12 -20 29 -7
right_child=1 2 4 8 20 6 18 15 11 22 12 -13 -14 -15 -16 -17 -18 23 27 -21 21 -23 -24 25 -26 -27 -28 -29 -30 -31
leaf_value=0.052146272294649555 0.053214562746052789 -0.04671376125092 -0.00084670341686025104 -0.043480356396780856 -0.027682660407160876 -0.0052981516947804312 0.04800018064943138 0.03798113425643701 -0.06733454669136836 -0.021039978990417148 -0.016366376749263369 -0.047378931588006441 0.047950285382000836 0.0115400195734069 -0.020150584120048064 -0.006489605276347914 0.042345503465680202 -0.039357223886097588 0.020867175324576135 0.015629738158606497 -0.021194607293088072 0.055168093770310983 -0.064825807333888097 0.024351129818846969 0.052474678903288434 0.0061796115315133574 -0.084152404583670098 0.047762373436232845 0.050301127091943544 -0.061457965219440691
leaf_weight=20951.51765845716 7964.1392589882016 3921.4458309412003 2171.9569479227066 3689.3438650667667 66.254598349332809 179.47874721884727 9906.2127467021346 637.04494139552116 21888.494604974985 961.93529756367207 221.78539915382862 4860.9638643860817 717.89668755233288 388.39813536405563 2244.5268999636173 1457.0794536173344 577.29880478978157 169.53946729004383 1752.8438741639256 642.71338973939419 271.08464616537094 199.06942827254534 448.97306387126446 1875.310266636312 2488.7489231899381 3001.0858544632792 114.12601745128632 614.22152775526047 42.932944983243942 277.11197757720947
leaf_count=206105 60234 8597 6891 7828 259 613 89295 2624 47748 2211 721 10251 4587 874 4852 3524 2447 558 10318 2658 1404 1223 1197 12757 19952 13594 335 5121 175 772
internal_value=0 -0.027027 -0.0425036 -0.0530613 0.0149278 0.0432258 0.0327323 -0.0258705 -0.0603449 -0.00644517 0.0470963 -0.063712 0.018346 -0.0382367 -0.0370539 0.00706199 0.00824714 0.00751087 0.044125 -0.00342449 0.0443044 0.0112351 -0.0350454 0.011395 0.0503761 0.0131749 -0.0397585 0.0278805 -0.0316136 -0.0395018
internal_weight=0 55933.3 46272.6 39087.3 7185.32 38770.3 17818.7 8260.1 30827.2 4160.16 9660.66 26749.5 1696.52 4077.74 6165.97 2094.12 2749.26 5545.46 12273.3 978.625 3025.16 470.154 1410.91 5045.94 2555 4876.4 335.911 2367.07 499.524 456.591
internal_count=529725 190417 121882 86298 35584 339308 133203 19597 66701 12746 68535 57999 8301 8702 13449 6148 9338 28469 104734 3714 22838 2627 3408 26909 20211 26351 1056 15439 1560 1385
shrinkage=0.1


Tree=21
num_leaves=31
num_cat=0
split_feature=1 0 0 0 0 0 5 8 7 8 0 0 8 5 7 0 5 5 7 5 8 8 5 6 8 8 8 0 0 0
split_gain=11301.8 6417.17 2805.99 773.835 451.324 362.595 511.997 304.344 229.008 174.953 169.772 157.644 109.503 106.587 100.524 87.8777 85.3196 84.3738 77.0052 68.0145 60.6676 67.5033 58.6577 47.0487 42.1781 38.6273 34.8155 32.8346 32.8037 34.3742
threshold=0.10050000250339509 1289.6875000000002 1374.4375000000002 1311.8125000000002 1392.0625000000002 1297.4375000000002 385.92649841308599 33.500000000000007 2.2335000038146977 33.500000000000007 1279.6875000000002 1356.3125000000002 31.500000000000004 458.03349304199224 3.8954999446868901 1300.3125000000002 454.22351074218756 239.192497253418 1.9944999814033511 121.85449981689455 38.500000000000007 39.500000000000007 445.10649108886724 2.0794999599456792 21.500000000000004 30.500000000000004 29.500000000000004 1383.1875000000002 1357.3125000000002 1323.6875000000002
decision_type=2 2 2 2 2 2 2 2 2 2 2 2 2 2 2 2 2 2 2 2 2 2 2 2 2 2 2 2 2 2
left_child=5 10 3 7 9 -1 17 14 13 16 -2 -10 19 -5 -3 -9 -4 28 -8 26 24 -22 -11 -19 -6 -25 -12 -20 29 -7
right_child=1 2 4 8 20 6 18 15 11 22 12 -13 -14 -15 -16 -17 -18 23 27 -21 21 -23 -24 25 -26 -27 -28 -29 -30 -31
leaf_value=-0.052146272294649555 -0.053214562746052789 0.04671376125092 0.00084670341686025104 0.043480356396780856 0.027682660407160876 0.0052981516947804312 -0.04800018064943138 -0.03798113425643701 0.06733454669136836 0.021039978990417148 0.016366376749263369 0.047378931588006441 -0.047950285382000836 -0.0115400195734069 0.020150584120048064 0.006489605276347914 -0.042345503465680202 -0.019737119820291405 -0.020867175324576135 -0.015629738158606497 0.021194607293088072 -0.055168093770310983 0.064825807333888097 -0.012750089932717843 -0.052474678903288434 0.01403994248278728 0.084152404583670098 -0.047762373436232845 -0.050301127091943544 0.061457965219440691
leaf_weight=20951.51765845716 7964.1392589882016 3921.4458309412003 2171.9569479227066 3689.3438650667667 66.254598349332809 179.47874721884727 9906.2127467021346 637.04494139552116 21888.494604974985 961.93529756367207 221.78539915382862 4860.9638643860817 717.89668755233288 388.39813536405563 2244.5268999636173 1457.0794536173344 577.29880478978157 2888.0611801445484 1752.8438741639256 642.71338973939419 271.08464616537094 199.06942827254534 448.97306387126446 1148.887794315815 2488.7489231899381 1008.9866139292717 114.12601745128632 614.22152775526047 42.932944983243942 277.11197757720947
leaf_count=206105 60234 8597 6891 7828 259 613 89295 2624 47748 2211 721 10251 4587 874 4852 3524 2447 18230 10318 2658 1404 1223 1197 4659 19952 4020 335 5121 175 772
internal_value=0 0.027027 0.0425036 0.0530613 -0.0149278 -0.0432258 -0.0327323 0.0258705 0.0603449 0.00644517 -0.0470963 0.063712 -0.018346 0.0382367 0.0370539 -0.00706199 -0.00824714 -0.00751087 -0.044125 0.00342449 -0.0443044 -0.0112351 0.0350454 -0.011395 -0.0503761 -0.00022211 0.0397585 -0.0278805 0.0316136 0.0395018
internal_weight=0 55933.3 46272.6 39087.3 7185.32 38770.3 17818.7 8260.1 30827.2 4160.16 9660.66 26749.5 1696.52 4077.74 6165.97 2094.12 2749.26 5545.46 12273.3 978.625 3025.16 470.154 1410.91 5045.94 2555 2157.87 335.911 2367.07 499.524 456.591
internal_count=529725 190417 121882 86298 35584 339308 133203 19597 66701 12746 68535 57999 8301 8702 13449 6148 9338 28469 104734 3714 22838 2627 3408 26909 20211 8679 1056 15439 1560 1385
shrinkage=0.1


Tree=22
num_leaves=31
num_cat=0
split_feature=1 0 0 0 0 5 0 5 1 0 7 0 5 0 5 3 7 6 0 0 0 0 5 7 3 6 0 3 3 0
split_gain=9789.85 5429.47 2325.6 608.932 576.556 583.622 374.23 486.392 201.505 137.934 93.9045 73.9793 70.2022 69.8099 65.0871 63.7688 48.379 39.7951 35.6522 45.1839 30.0975 31.7601 29.9787 28.0487 26.1892 30.1377 24.3518 23.9123 36.9522 19.5731
threshold=0.10050000250339509 1288.6875000000002 1385.3125000000002 1307.9375000000002 1358.3125000000002 145.98049926757815 1295.5625000000002 377.13301086425787 22.41149997711182 1278.6875000000002 1.9944999814033511 1394.3125000000002 250.38749694824222 1295.5625000000002 92.455001831054702 374.04949951171881 4.239499807357789 2.2875000238418584 1382.0625000000002 1323.6875000000002 1357.3125000000002 1321.0625000000002 56.436000823974616 4.9694998264312753 411.86351013183599 2.9294999837875371 1313.6875000000002 402.73649597167974 455.45100402832037 1346.1875000000002
decision_type=2 2 2 2 2 2 2 2 2 2 2 2 2 2 2 2 2 2 2 2 2 2 2 2 2 2 2 2 2 2
left_child=6 9 3 13 8 -6 -1 12 -5 -2 -9 15 20 16 -15 23 -3 26 19 -12 21 -8 27 -4 -24 -26 -14 -11 -29 -19
right_child=1 2 11 4 5 -7 7 10 -10 22 18 -13 17 14 -16 -17 -18 29 -20 -21 -22 -23 24 -25 25 -27 -28 28 -30 -31
leaf_value=0.051960266784236535 0.053017608617394997 -0.011395572024849285 0.0016166409052514386 -0.03923803027517489 0.042386027678327901 -0.038164023740349176 -0.00046181344108211857 0.04701066197553045 -0.062382361394313274 -0.053163229156429043 0.041900413841241067 0.044693629533541397 0.029255717006346934 -0.044418422134200219 -0.017654683303948884 0.039608593262565828 0.025461070579310366 0.0032317816807448281 0.046276056486862803 0.0086878642499142195 0.047282505675115882 -0.049349847966339899 0.031291435138301113 -0.066963195266590933 0.033393731351624732 -0.035626948066735983 0.010140743721836829 0.05556780282371096 -0.13060847801151607 -0.023538703371266852
leaf_weight=18780.969711057842 7158.494690105319 1277.2302463948727 650.56453320384026 4553.8857789039612 1024.1567664146423 7301.6351504772902 205.18766075372696 9500.2169636785984 22006.651758790016 92.595457248389721 585.29151637107134 2583.4294035807252 963.61540235579014 1210.6670776754618 3649.0434659272432 594.9187720939517 491.55398008227348 914.55547729879618 619.6961333528161 1358.9352372661233 50.231632426381111 375.3133260756731 1144.294771887362 63.647146195173264 113.88048838824034 137.36436674743891 2164.09419182688 58.860311664640903 10.9704712331295 387.17049913108349
leaf_count=203140 59373 4037 3138 9708 2454 16536 747 92984 49767 354 4127 21274 6484 2598 8463 3036 1432 3420 5542 7627 214 1037 6403 249 610 621 12576 324 40 1410
internal_value=0 -0.0251335 -0.0390104 -0.0459402 -0.0512193 -0.0282478 0.04221 0.0315116 -0.0584174 0.0471488 0.042425 0.0348831 0.00548593 -0.0181486 -0.0243377 0.0154844 -0.00113574 0.00993292 0.0254104 0.018719 -0.0256766 -0.0321305 0.0201495 -0.00466479 0.0248821 -0.00432564 0.0160448 -0.0203202 0.0234972 -0.00475442
internal_weight=0 54123.8 45407.4 41514.8 34886.3 8325.79 35905.3 17124.3 26560.5 8716.46 12064.1 3892.56 5060.17 6628.49 4859.71 1309.13 1768.78 4429.44 2563.92 1944.23 630.733 580.501 1557.97 714.212 1395.54 251.245 3127.71 162.426 69.8308 1301.73
internal_count=529725 190417 122692 94995 78465 18990 339308 136168 59475 67725 110280 27697 25888 16530 11061 6423 5469 23890 17296 11754 1998 1784 8352 3387 7634 1231 19060 718 364 4830
shrinkage=0.1


Tree=23
num_leaves=31
num_cat=0
split_feature=1 7 7 3 2 4 7 2 1 7 8 3 3 4 8 2 2 3 4 8 7 4 8 4 4 4 8 4 4 8
split_gain=9789.85 325.202 260.492 87.335 84.9029 81.8921 74.3782 73.1923 56.4388 55.7861 51.9443 45.5066 37.974 54.137 37.1448 34.2329 31.3429 31.125 29.1792 28.193 26.6831 22.5387 22.4604 22.119 19.1126 18.9571 17.5023 15.8612 15.0915 16.9245
threshold=0.10050000250339509 2.1484999656677251 2.2964999675750737 466.97949218750006 0.0075000002980232247 14.559999942779543 1.7384999990463259 102.42200088500978 36.552499771118171 2.7124999761581425 31.500000000000004 392.36999511718756 386.72450256347662 38.527999877929695 23.500000000000004 23.211500167846683 0.0075000002980232247 392.36999511718756 23.523500442504886 33.500000000000007 4.1944999694824228 124.0279998779297 31.500000000000004 78.798000335693374 25.42350006103516 111.55200195312501 35.500000000000007 59.295499801635749 99.37250137329103 34.500000000000007
decision_type=2 2 2 2 2 2 2 2 2 2 2 2 2 2 2 2 2 2 2 2 2 2 2 2 2 2 2 2 2 2
left_child=1 4 6 5 -1 10 14 17 -9 16 11 -4 13 26 25 27 -3 -7 22 20 -5 -16 -18 -20 -11 -2 -6 -8 29 -26
right_child=2 9 3 19 12 7 15 8 -10 24 -12 -13 -14 -15 21 -17 18 -19 23 -21 -22 -23 -24 -25 28 -27 -28 -29 -30 -31
leaf_value=0.026268943632188568 -0.046892810072790274 0.021326368407499487 -0.060262596101996857 0.01660749976889607 -0.023036029786850609 0.024940590191912429 -0.0059378069843206132 0.033600565697895761 0.021985574461351697 0.044703800045782928 0.023932856188271682 0.046726076069755366 -0.05086504032326631 -0.044838240020183162 0.00046399886253386331 0.021757977363241546 0.16921066387826761 0.011590188177410785 -0.023211055606589079 -0.060512923569279599 -0.038039962976361641 -0.059107658461445105 0.0077940724627638212 -0.036682574863221483 -0.01433744105508355 0.040787973184981903 0.017747079920110407 0.011053712553150975 -0.026764419273976534 0.0076612083030139404
leaf_weight=154.94197369366884 274.68255013972521 115.35281044244766 222.14663247019053 267.95338308811188 405.04377847164869 11775.224719688296 730.63766548782587 25892.571193940938 5008.8501531109214 56.525336354970932 218.58081856369972 46.76812420040369 16044.172699175775 11243.732596807182 1890.0375974178314 3220.1341616809368 9.5074510872364026 2056.4825001955032 1940.4140183404088 99.509793311357498 131.55845147371292 63.718335427343845 35.206368438899517 3350.9168900623918 1327.3610655218363 25.550515219569206 140.25933346152306 2199.4380415976048 608.71729221940041 473.12613751739264
leaf_count=819 795 570 1386 1485 3276 40596 2786 85654 18432 269 922 170 169913 107952 7473 11724 44 8797 14487 633 864 200 199 26652 7437 102 1162 8398 3867 2661
internal_value=0 -0.04221 0.0251335 0.0281079 -0.0472722 0.0285671 0.00894979 0.0290114 0.0317194 -0.0243067 -0.0121549 -0.0414481 -0.0476835 -0.0433457 -0.00658569 0.0146437 -0.0299518 0.0229576 -0.0310679 -0.0134524 -0.00148765 -0.00153728 0.047891 -0.031753 -0.011812 -0.0392104 -0.0125195 0.00681558 -0.013174 -0.00855462
internal_weight=0 35905.3 54123.8 45719.6 27988.2 45220.6 8404.2 44733.1 30901.4 7917.13 487.496 268.915 27833.2 11789 2253.99 6150.21 5451.4 13831.7 5336.04 499.022 399.512 1953.76 44.7138 5291.33 2465.73 300.233 545.303 2930.08 2409.2 1800.49
internal_count=529725 339308 190417 158939 283122 155957 31478 153479 104086 56186 2478 1556 282303 112390 8570 22908 41952 49393 41382 2982 2349 7673 243 41139 14234 897 4438 11184 13965 10098
shrinkage=0.1


Tree=24
num_leaves=31
num_cat=0
split_feature=1 7 7 2 4 7 1 2 7 4 4 8 8 6 2 8 2 4 8 7 4 7 8 8 7 4 4 4 7 4
split_gain=8431.7 328.95 234.921 83.9205 70.7368 68.4921 65.4032 75.735 51.8335 38.2482 36.5894 36.2065 35.0515 40.7518 33.7451 33.5809 30.5242 30.3075 37.187 30.1357 24.715 23.8109 20.9864 20.739 18.5483 17.5314 16.9881 16.7511 15.3571 23.5869
threshold=0.10050000250339509 2.1484999656677251 2.2964999675750737 0.0075000002980232247 29.756999969482425 1.7384999990463259 39.352500915527351 30.61100006103516 2.8494999408721928 1.0000000180025095e-35 38.527999877929695 34.500000000000007 23.500000000000004 1.0404999852180483 0.0075000002980232247 38.500000000000007 23.211500167846683 78.798000335693374 33.500000000000007 3.1575000286102299 101.09500122070314 4.5744998455047616 39.500000000000007 23.500000000000004 1.9004999995231631 111.55200195312501 124.0279998779297 25.42350006103516 1.9614999890327456 36.156499862670906
decision_type=2 2 2 2 2 2 2 2 2 2 2 2 2 2 2 2 2 2 2 2 2 2 2 2 2 2 2 2 2 2
left_child=1 3 5 -1 9 12 7 23 14 11 28 -4 25 -14 -3 21 -7 18 -16 22 -9 -8 -11 -6 -12 -2 -15 -10 -5 -30
right_child=2 8 4 10 6 16 15 20 27 19 24 -13 13 26 17 -17 -18 -19 -20 -21 -22 -23 -24 -25 -26 -27 -28 -29 29 -31
leaf_value=-0.026823398439374025 0.046698425693725364 -0.020628953982334941 0.072883370607047734 0.03269146171108283 -0.0037920932933588215 -0.0056476986131870702 -0.017448822162230836 -0.031076750720144687 -0.049067662134852447 0.0054131414737929725 0.049195104130589348 -0.035034903844436555 -0.031883709735450072 0.0065398555872658304 0.028108797348764231 0.047387708314374714 -0.019822519273991784 0.034536340084779404 -0.00075288895725149308 -0.021255991532710738 -0.021574529199960547 0.013448051778107395 -0.057790534213328387 -0.021439760200574087 0.042470774025447772 -0.038331277911701878 0.058799834665225204 0.0099264272398413983 0.016575799717698663 -0.088653082642692949
leaf_weight=153.77570627629757 271.7284104898572 140.35586597025394 99.479878075420856 814.84178152680397 716.08774223923683 2913.0301514789462 1135.1537576541305 27338.143099486828 47.476080760359764 863.51225902140141 19245.56498914212 43.385960228741169 290.79568418115377 1583.0943858250976 1456.7061582505703 104.94016178697348 3177.9843348115683 3465.7006609514356 643.15365744382143 1558.1339474767447 3064.584211692214 317.90443408489227 53.931886553764343 9685.2453577741981 5374.9523869976401 25.116314277052879 62.801514700055122 1824.8439289703965 106.70313849300146 24.497009247541428
leaf_count=819 795 690 641 8221 2666 11184 4977 92716 221 3716 217296 144 916 6557 11231 514 11724 28648 4741 5742 11252 1724 161 34686 55699 102 200 10655 913 174
internal_value=0 0.0411487 -0.0229896 0.0465443 -0.0258455 -0.00755583 -0.0268315 -0.0275993 0.0228289 -0.00988507 0.0469876 0.0400792 0.00741857 0.00249715 0.0275655 -0.00671299 -0.0130475 0.0287879 0.0192766 -0.0127985 -0.0301204 -0.0106799 0.00158009 -0.0202258 0.0477307 0.0392956 0.00860285 0.00837976 0.0275901 -0.0041081
internal_weight=0 33298.6 53305.1 25720.3 44980.5 8324.55 42362.1 40804.1 7578.24 2618.44 25566.6 142.866 2233.54 1936.69 5705.92 1558 6091.01 5565.56 2099.86 2475.58 30402.7 1453.06 917.444 10401.3 24620.5 296.845 1645.9 1872.32 946.042 131.2
internal_count=529725 339308 190417 283122 158939 31478 148535 141320 56186 10404 282303 785 8570 7673 45310 7215 22908 44620 15972 9619 103968 6701 3877 37352 272995 897 6757 10876 9308 1087
shrinkage=0.1


Tree=25
num_leaves=31
num_cat=0
split_feature=0 5 2 0 2 0 0 5 7 7 0 0 0 0 4 5 0 0 0 2 4 7 4 3 4 5 4 2 4 3
split_gain=8296.53 5081.81 859.591 914.595 826.041 514.507 796.417 439.492 211.4 195.424 176.236 176.196 155.927 119.545 119.184 93.8206 89.1956 76.9262 81.7819 69.765 47.4159 43.2389 42.6458 38.6005 36.0804 34.6767 32.6318 29.3043 28.4718 28.3412
threshold=1290.6875000000002 366.30799865722662 0.01049999985843897 1377.8125000000002 0.0224999999627471 1360.3125000000002 1313.6875000000002 154.01750183105472 1.9944999814033511 1.5885000228881838 1394.3125000000002 1385.3125000000002 1280.6875000000002 1324.5625000000002 29.756999969482425 312.31849670410162 1310.9375000000002 1382.0625000000002 1323.6875000000002 25.144000053405765 37.026500701904304 2.2005000114440922 25.42350006103516 521.75350952148449 53.463500976562507 208.45449829101565 104.71950149536134 0.0015000000712461772 98.951499938964858 340.80650329589849
decision_type=2 2 2 2 2 2 2 2 2 2 2 2 2 2 2 2 2 2 2 2 2 2 2 2 2 2 2 2 2 2
left_child=12 4 8 9 16 6 14 -7 20 26 29 -9 -1 -11 -6 24 22 18 -10 -8 -3 23 -2 -18 -14 -24 -4 -22 -23 -5
right_child=1 2 3 10 5 7 19 11 17 13 -12 -13 15 -15 -16 -17 21 -19 -20 -21 27 28 25 -25 -26 -27 -28 -29 -30 -31
leaf_value=-0.052312959049833664 0.092446998554468279 -0.010108724549185925 -0.0088625551230784999 0.038912932168368497 -0.043892593158967645 -0.043674758036156953 0.048431285590760827 0.039223602361645203 -0.033628366198457021 -0.00056319117896286937 -0.04568210525674915 -0.023242174310821331 -0.043578733201269364 0.05595042986212994 0.026383412239389909 -0.049129401863671686 -0.0017037078046410062 -0.045335946628029429 0.0041166929004350242 0.063778164300852008 0.016071560457830026 0.025375810593964172 0.049279229361878681 0.21222885305888795 -0.0058484769521132129 -0.021683710774230733 -0.075908850011587731 -0.04663827034030664 0.0026322277698000497 -0.0090740199747375901
leaf_weight=22640.724772155285 33.709645494818687 381.76949077099562 323.46391318738461 128.63588710874319 247.12358896434307 998.26341979205608 3630.0489268600941 3320.6142976135015 836.20446259528399 429.64830932021141 2284.710883282125 521.22468291968107 307.42424838244915 2901.8201125413179 7959.7166418284178 1199.5538782998919 1626.7581416070461 684.7706551104784 1820.2391462922096 17033.607539743185 74.22793186455965 2203.1343238204718 70.56524159014225 6.4780354648828498 1405.9618774354458 1399.419993750751 91.853995651006699 9172.7818937376142 734.18202044814825 2134.9868982359767
leaf_count=243886 147 3225 697 408 666 2578 7941 7166 6049 957 19517 2839 1726 6108 18058 12990 9048 6225 9179 40342 305 6698 261 24 6956 8750 196 96545 2502 7736
internal_value=0 0.0183531 -0.0211088 0.00403136 0.0394455 0.0455617 0.05062 0.0153813 -0.0371856 0.0406046 -0.0261013 0.0307411 -0.0495099 0.0486661 0.0242571 -0.0277022 0.0054982 -0.0155004 -0.00778119 0.0610871 -0.0447057 0.012448 -0.0156146 -0.000596638 -0.0126611 -0.0182149 -0.0239836 -0.0461315 0.0196967 -0.0063151
internal_weight=0 61050 21265.1 8295.12 39784.8 33710.6 28870.5 4840.1 12970 3746.79 4548.33 3841.84 25553.7 3331.47 8206.84 2912.94 6074.25 3341.21 2656.44 20663.7 9628.78 4570.55 1503.69 1633.24 1713.39 1469.99 415.318 9247.01 2937.32 2263.62
internal_count=529725 264167 157147 35619 107020 79590 67007 12583 121528 7958 27661 10005 265558 7065 18724 21672 27430 21453 15228 48283 100075 18272 9158 9072 8682 9011 893 96850 9200 8144
shrinkage=0.1


Tree=26
num_leaves=31
num_cat=0
split_feature=0 5 2 0 2 0 0 5 7 0 7 0 0 0 0 4 5 0 0 7 4 4 2 4 4 4 5 0 4 2
split_gain=7620.61 4414.16 738.158 839.987 692.814 508.347 791.87 419.964 208.157 170.73 169.227 165.924 156.931 102.672 100.398 99.0937 85.6274 75.4035 76.3005 50.7425 47.5432 42.7112 41.0491 34.0414 33.8144 33.4365 31.907 29.3944 27.8575 27.4195
threshold=1290.6875000000002 366.30799865722662 0.01049999985843897 1377.8125000000002 0.19449999928474429 1358.3125000000002 1315.4375000000002 145.98049926757815 1.9944999814033511 1372.3125000000002 1.6385000348091128 1394.3125000000002 1280.6875000000002 1342.5625000000002 1312.8125000000002 29.756999969482425 312.31849670410162 1382.0625000000002 1323.6875000000002 2.245499968528748 37.026500701904304 14.559999942779543 25.144000053405765 104.71950149536134 51.388500213623054 98.951499938964858 196.65000152587893 1372.3125000000002 31.262999534606937 0.0015000000712461772
decision_type=2 2 2 2 2 2 2 2 2 2 2 2 2 2 2 2 2 2 2 2 2 2 2 2 2 2 2 2 2 2
left_child=12 4 8 10 14 6 15 21 20 -9 23 -5 -1 -12 26 -6 24 18 -10 27 28 -7 -8 -4 -14 -21 -2 -16 -3 -22
right_child=1 2 3 11 5 7 22 9 17 -11 13 -13 16 -15 19 -17 -18 -19 -20 25 29 -23 -24 -25 -26 -27 -28 -29 -30 -31
leaf_value=0.052131590817683954 -0.047627416041112237 0.030463077895427917 0.0048456425085946801 0.0070501508495329213 0.034594390838433124 -0.063786446453048803 -0.049394046945275417 -0.048294307201479231 0.032267119315931868 -0.0068185631052241485 -0.013619290345804978 0.045403215185157275 0.045834687150186626 -0.055908336316283218 -0.0075151898284512427 -0.025980665642133385 0.048650608241732535 0.044664484629337031 -0.0049296265396828812 -0.029262915819908249 -0.014179631293890011 0.045893017063799391 -0.062887478354301252 0.072532913015970396 0.0070477074871564075 -0.0059338122111857001 0.012799759063806898 0.033402940217070076 -0.025493974418812567 0.045856379109720236
leaf_weight=21159.843226104975 89.719547562301159 225.78686643391848 369.34756314754486 2280.180367231369 277.50392700731754 35.118668787181377 2691.2451964616776 2155.8154671788216 794.00682746618986 1839.1412584111094 746.73063381016254 2232.0306070446968 264.00017831474543 2504.1800609529018 1657.6441474705935 8274.2697638720274 1111.6138974577188 645.45987015217543 1793.7107093930244 2602.5995447710156 75.92701829969883 1004.8122989907861 15531.411669820547 91.118330016732216 1457.3791126981378 805.56129553169012 1870.3439126834273 194.34673208743334 144.11398009210825 8427.2036496251822
leaf_count=243886 274 2083 797 8144 742 101 6084 4480 6049 5834 1624 19517 1542 5337 8413 18776 12990 6225 9179 7270 305 2527 38307 200 7140 2540 10380 1292 1142 96545
internal_value=0 -0.0176098 0.0201731 -0.00294667 -0.0372902 -0.0436375 -0.0491194 -0.0144784 0.0358759 -0.0292133 -0.0381755 0.0260338 0.0491712 -0.0462089 -0.00932219 -0.0240074 0.027039 0.0141418 0.00649981 -0.0165187 0.0437905 0.0420738 -0.0609003 0.0184956 0.0130426 -0.0237555 0.00998805 -0.00318987 0.00864226 0.0453171
internal_weight=0 59359.3 20329.8 8223.59 39029.5 31809.3 26774.4 5034.89 12106.2 3994.96 3711.38 4512.21 23992.8 3250.91 7220.22 8551.77 2832.99 3233.18 2587.72 5260.15 8873.03 1039.93 18222.7 460.466 1721.38 3408.16 1960.06 1851.99 369.901 8503.13
internal_count=529725 264167 157147 35619 107020 76851 63909 12942 121528 10314 7958 27661 265558 6961 30169 19518 21672 21453 15228 19515 100075 2628 44391 997 8682 9810 10654 9705 3225 96850
shrinkage=0.1


Tree=27
num_leaves=31
num_cat=0
split_feature=1 5 6 8 1 3 5 3 3 5 4 5 8 5 3 8 3 6 5 3 3 8 5 3 5 5 4 5 6 8
split_gain=7298.9 722.99 283.304 119.452 95.3871 102.666 72.3907 70.5332 70.1743 78.9504 69.3089 45.977 48.5453 45.8903 44.5771 43.9097 38.1511 37.0041 35.6549 33.4933 32.3372 28.0631 27.3288 27.2434 27.1119 26.529 29.9479 25.4942 24.7518 23.774
threshold=0.10050000250339509 458.03349304199224 2.1054999828338627 38.500000000000007 22.41149997711182 466.97949218750006 257.41099548339849 386.72450256347662 381.65750122070318 158.01499938964847 38.527999877929695 522.30548095703136 29.500000000000004 572.10501098632824 384.35299682617193 33.500000000000007 401.43049621582037 3.8025000095367436 179.65900421142581 385.02449035644537 521.75350952148449 22.500000000000004 418.18450927734381 378.90049743652349 44.908000946044929 347.32899475097662 65.900501251220717 388.44099426269537 2.7864999771118169 31.500000000000004
decision_type=2 2 2 2 2 2 2 2 2 2 2 2 2 2 2 2 2 2 2 2 2 2 2 2 2 2 2 2 2 2
left_child=2 4 6 11 16 8 20 10 24 -10 27 12 -3 14 17 28 -2 -5 -4 25 21 -1 -12 -14 -6 26 -20 -8 -7 -27
right_child=1 3 18 13 5 15 7 -9 9 -11 22 -13 23 -15 -16 -17 -18 -19 19 -21 -22 -23 -24 -25 -26 29 -28 -29 -30 -31
leaf_value=0.13750362429856655 0.016392757052077725 -0.041639560898636581 0.029062884589434203 0.054648774129714354 0.058950397628766638 0.018662182023732769 0.021371923894786732 -0.049927562533495146 0.028626492121617681 0.016847137550288546 -0.036037679421534623 -0.044331825830826205 0.005485569077116989 -0.044398914578929527 -0.028314910902627166 -0.058869997901824039 -0.014204000727167161 -0.044926391278082095 0.014134780562257299 -0.035181469631891053 0.15343496100937667 -0.010800144298738113 -0.046128215901292978 -0.030998484695023455 0.031458685874020488 -0.034490445622956827 -0.01471522733954011 -0.021603509609674054 -0.028313102053103167 -0.012021212591171232
leaf_weight=11.289346002042292 8455.2228083536029 594.67367722094059 147.0938810929656 366.77412558346987 367.91398970782757 308.43583607673645 215.52742496877909 13795.981414102018 13078.359651476145 10093.773230023682 5425.5914441123605 1360.2034344747663 684.45487477630377 97.710325345396996 103.71116425096989 157.20129297673702 426.68343152850866 40.019395783543587 459.06497149914503 1207.8192515522242 11.41201253980398 319.38440482318401 5439.3371563106775 289.70641266554594 15786.459234669805 1078.546944513917 1639.9281092062593 376.03985412418842 173.63117913901806 840.2160499766469
leaf_count=66 28317 3339 751 1390 1024 1680 1389 174096 43496 39820 55545 11240 3522 764 451 952 2125 167 2397 11125 43 2283 63105 1605 49285 8183 10739 3619 1240 5967
internal_value=0 0.0211379 -0.0401001 -0.0225093 0.0242994 0.026383 -0.0444825 -0.0451015 0.0270293 0.0234973 -0.0392822 -0.0308802 -0.0191758 0.0177725 0.0297989 -0.0133352 0.01492 0.0446809 -0.0192137 -0.0205833 0.00120379 -0.00494077 -0.0410969 -0.00540573 0.032092 -0.0161794 -0.00839807 -0.00592689 0.00169552 -0.0246741
internal_weight=0 52384.9 30967.2 3537.25 48847.7 39965.8 25594.6 25252.5 39326.5 23172.1 11456.5 2929.04 1568.83 608.215 510.505 639.268 8881.91 406.794 5372.67 5225.58 342.086 330.674 10864.9 974.161 16154.4 4017.76 2098.99 591.567 482.067 1918.76
internal_count=529725 190417 339308 22478 167939 137497 300146 297754 133625 83316 123658 19706 8466 2772 2008 3872 30442 1557 39162 38411 2392 2349 118650 5127 50309 27286 13136 5008 2920 14150
shrinkage=0.1


Tree=28
num_leaves=31
num_cat=0
split_feature=0 1 0 0 5 0 7 0 0 5 5 7 5 1 0 0 5 5 0 7 0 0 5 0 2 0 5 7 5 5
split_gain=7005.81 3940.26 1858.71 668.237 453.583 297.315 200.584 161.175 157.528 78.0579 69.1939 61.621 61.5705 58.5686 57.6437 50.2288 46.7942 45.2263 35.9331 34.4141 30.1304 28.2156 27.6732 27.093 26.3665 24.3277 20.9875 30.1532 19.9798 19.4452
threshold=1290.6875000000002 0.10050000250339509 1374.4375000000002 1309.9375000000002 398.42649841308599 1392.0625000000002 2.2335000038146977 1356.3125000000002 1280.6875000000002 312.31849670410162 250.38749694824222 1.9004999995231631 456.78498840332037 31.51149940490723 1295.5625000000002 1312.8125000000002 92.455001831054702 329.11549377441412 1375.5625000000002 4.1454999446868905 1390.9375000000002 1327.1875000000002 535.68548583984386 1357.3125000000002 0.0075000002980232247 1321.0625000000002 44.908000946044929 3.8575000762939458 524.35202026367199 345.74600219726568
decision_type=2 2 2 2 2 2 2 2 2 2 2 2 2 2 2 2 2 2 2 2 2 2 2 2 2 2 2 2 2 2
left_child=8 4 3 14 10 13 12 -8 -1 26 23 24 -5 22 19 29 -16 -15 -17 -3 21 -13 -4 25 28 -2 27 -10 -6 -12
right_child=1 2 5 6 11 -7 7 -9 9 -11 15 20 -14 17 16 18 -18 -19 -20 -21 -22 -23 -24 -25 -26 -27 -28 -29 -30 -31
leaf_value=0.051964226758631452 -0.0035876679198345498 -0.0065692886233150276 -0.011163000455472593 -0.031705532693428642 -0.080321002366779443 0.042129137398483008 -0.055725336802164682 -0.035171048115262893 0.053772772552165476 0.048177318599807145 0.014298588768003259 0.040249095469021473 0.010070375609033859 0.043374146666260854 -0.034508863267699211 -1.1670571744173475e-05 -0.013756381417030962 0.0043356970219433797 0.029243072564966433 0.027476689169182722 0.050439345579595611 0.013174370767822872 0.043899537572070761 0.046348323870667778 0.046966282384255063 -0.045725551196193259 0.016110689968256996 -0.066342860402821613 0.050461265352887121 0.037062407858876288
leaf_weight=19771.156174376607 213.23701091110706 980.37635289132595 2708.7962279990315 3637.892097234726 27.246027447283268 2583.9216236770153 19816.441557168961 4741.8882336318493 27.88928110152483 1031.640812009573 789.87417817115784 555.10696744918823 389.73299619555473 411.50968074798584 1435.9957386255264 3347.292235724628 4471.5286718308926 1052.9675157442689 478.07373136281967 423.53693605959415 449.77166999131441 1256.6062735617161 92.51537299156189 47.621999822556973 6625.9991836696863 383.1141772121191 1632.0190800130367 68.986980199813843 17.710183218121529 720.1295700520277
leaf_count=243886 852 2722 7669 7997 134 22838 49481 10251 134 12990 5760 5448 896 1267 3034 19577 9980 3420 3805 1104 5146 9267 390 214 85037 1037 8319 229 91 6750
